<?xml version="1.0"?>
<opencv_storage>
<opencv_ml_svm>
  <format>3</format>
  <svmType>C_SVC</svmType>
  <kernel>
    <type>RBF</type>
    <gamma>3.0774101560382405e-06</gamma></kernel>
  <C>50.</C>
  <term_criteria><epsilon>1.1920928955078125e-07</epsilon>
    <iterations>1000</iterations></term_criteria>
  <var_count>300</var_count>
  <class_count>4</class_count>
  <class_labels type_id="opencv-matrix">
    <rows>4</rows>
    <cols>1</cols>
    <dt>i</dt>
    <data>
      0 1 2 3</data></class_labels>
  <sv_total>49</sv_total>
  <support_vectors>
    <_>
      25.9300003 16.6399994 2.94000006 12.9300003 6.78999996 1.49000001
      6.32000017 12.9099998 1.61000001 6.4000001 14.0799999 3.
      6.76999998 7.36999989 3.8900001 24.4678936 16.4457893 3.46736836
      13.2457895 6.94052649 1.8121053 6.60947371 13.3957891 1.75105262
      6.52157927 14.8947372 2.8063159 6.76526308 8.18842125 3.85157895
      24.1521053 16.6684208 3.75631571 13.5042105 7.56842089 1.70736849
      6.94578934 13.9984207 1.71157897 6.76368427 15.0094728 3.01684213
      6.96368408 8.32000065 4.103158 24.2068424 16.3384209 4.10736847
      13.4578943 7.63315773 1.74105263 6.89894724 14.2547369 1.68157887
      6.36578941 15.487895 2.77473688 6.3921051 8.29736805 3.79473686
      24.3405266 16.2842102 3.74157906 13.4573689 7.61631584 1.53526318
      6.87105227 13.9342108 1.64157891 6.24789476 15.2631578 3.11789489
      6.11105299 8.04736805 4.15842104 24.0578957 16.1436844 3.94789481
      13.313158 7.53842115 1.5410527 6.76157856 14.2284212 1.57578945
      6.68315792 15.5657892 2.93000007 6.62947369 8.22842121 3.76315784
      23.6273689 16.2452641 4.34105253 13.3310528 7.7126317 1.29473686
      7.02526331 14.1389475 1.23315787 6.53631592 14.8584213 2.82052612
      6.33578968 7.84105253 3.75947356 23.8921051 17.0078945 6.39052629
      13.4994736 7.6173687 1.28578949 7.03842115 14.2115793 1.55368423
      6.70842123 14.7752628 2.84263158 6.67473698 7.95368433 3.8484211
      22.6705265 16.9836845 9.12578964 13.7084208 7.59526348 1.33631575
      7.08157921 14.2784204 1.32842112 6.62105274 14.9263163 2.73315787
      6.76052618 7.98842096 3.94105268 22.9099998 17.1000004 8.99210548
      13.7152634 7.7315793 1.34789467 7.14789486 14.452631 1.44105268
      6.87421036 15.0115786 2.84421062 6.87105274 8.20947361 4.02736855
      22.6073685 17.1568432 9.62526321 13.9257898 7.83578968 1.42421055
      7.43894768 14.762105 1.41947365 7.27052641 15.4742107 2.79421043
      7.66052628 8.81473732 4.09894753 22.8247356 17.1989479 9.80157948
      13.8636837 7.7736845 1.6147368 7.14947367 14.9394732 1.63263154
      7.32999992 15.8289471 2.61789465 7.79894733 9.08842087 3.86842108
      22.5210533 16.9878941 10.1163158 13.8710527 7.70052624 1.48473692
      6.93473673 14.6694736 1.43315792 6.86210537 15.3026314 2.68105268
      7.27947378 8.64473724 4.00684214 23.118948 17.4752636 10.5942097
      14.4147367 8.23947334 1.24947369 7.85578918 15.2757893 1.51947367
      7.7642107 15.7810526 3.52315807 8.1421051 8.82578945 4.37894726
      22.8242111 17.0815792 10.5152636 14.1321058 7.81263161 1.26578951
      7.31842089 14.7084208 1.55421054 7.29789448 15.2547369 2.97157884
      7.81421041 8.79368401 4.02684212 23.3978939 17.2542114 11.6368427
      13.8642111 7.93789482 1.49789476 6.85631561 15.2984209 1.49578953
      7.23157883 16.1194744 2.73631597 7.75052595 9.57315731 4.0936842
      23.0178947 17.2773685 11.162632 13.9194736 7.97421074 1.43736839
      7.08368397 15.3189478 1.55842102 7.41263151 15.996316 2.81526303
      7.77736807 9.33684158 4.11789465 23.0563164 16.9868412 11.2921047
      14.3310528 8.07263184 1.29315782 7.3342104 15.3221054 1.39368415
      7.38421059 15.6789474 2.70947361 7.71052599 9.00368404 3.82684207
      22.924736 17.0905266 11.3742104 13.8831577 7.78894711 1.4426316
      6.94789505 15.1594734 1.43368423 7.10157919 15.6321049 2.5889473
      7.70000029 9.03894711 3.88684225 22.4300003 17.1499996 11.1999998
      13.5299997 7.82000017 1.39999998 6.63000011 15.2200003 1.49000001
      7.23999977 15.5699997 2.63000011 7.65999985 9.26000023 3.91000009</_>
    <_>
      23.5499992 17.6800003 10.3500004 14.4799995 10.1899996 1.27999997
      7.88999987 18.9400005 0.910000026 8.32999992 18.9400005 3.11999989
      9.31000042 11.6700001 5.07000017 23.5289478 17.2147369 10.6436844
      14.055789 9.64999962 1.89947367 7.11947346 18.3678951 1.4110527
      7.63526344 18.6447372 2.75999999 8.79631615 11.8910532 4.70473671
      23.3463154 17.5105267 10.2568426 14.0184212 9.64473724 1.70631588
      7.22736835 18.5268421 1.04473686 7.6610527 18.8478947 3.30684209
      8.7831583 12.0878954 5.25684214 22.9973679 17.6126328 10.6363163
      14.2047367 9.75894737 1.39052629 7.51105261 18.277895 0.957368433
      8. 18.3394737 2.98157883 9.17157936 11.7136841 4.70526314
      23.6826324 17.4573689 10.2142105 14.1257887 9.48421097 1.57421052
      7.16368437 17.9568424 1.11000001 7.38578939 18.1410522 2.97473693
      8.41947365 11.4021053 4.81789494 23.0889473 17.4705257 10.5884209
      13.9452629 9.45157909 1.54052627 7.07894707 17.7668419 0.807368457
      7.35052633 17.9426308 3.26947379 8.41263199 11.3957891 5.11473656
      22.7278938 18.2157898 13.4184208 14.4426317 9.99368382 1.32105267
      7.90473652 18.2489471 0.713684201 8.24947357 18.015789 3.39842105
      9.22105312 11.5389471 5.28631544 22.7410526 17.5442104 16.2452641
      13.7963161 9.24368477 1.66157901 6.77473688 17.6378937 0.708421052
      7.12421036 17.6678963 3.18526316 8.37894726 11.1831579 4.7405262
      22.3099995 18.1726303 18.396843 14.0705261 8.96421051 1.69736838
      7.03578949 17.2036839 0.922105253 7.61999989 17.4410534 3.24052644
      9.04947376 11.2394743 4.75157928 22.8099995 17.7252636 18.3899994
      13.7605267 8.8589468 1.7242105 6.89631557 17.1331577 0.898421049
      7.54789448 17.5894737 3.3436842 9.06578922 11.5494738 4.845263
      21.8284206 18.1321049 18.5926323 14.3089476 9.31947327 1.47684216
      7.59684181 17.1205254 0.988947392 7.45631552 16.5978947 3.35368419
      8.6126318 10.527894 4.68473673 23.0063171 17.4031582 17.8299999
      13.9873686 9.25421047 1.70052636 7.32894754 17.1731586 0.871052623
      7.50210524 17.8389473 2.99157882 9.12842083 11.3310528 4.50210524
      22.9152641 17.8173695 17.341053 13.8768425 9.12473679 1.50105262
      7.12473679 17.1526318 0.83157897 7.26052666 17.0784206 3.09263158
      8.76631546 11.071579 4.6610527 23.4884224 17.8673687 18.1310539
      14.1721058 9.30842113 1.64052629 7.28684235 17.4521046 1.03105271
      7.4063158 18.0221062 3.05631566 8.93315792 11.4926319 4.8547368
      23.5547371 17.8894749 16.8878956 14.0836849 9.28052616 1.51842105
      7.19052601 17.5094738 0.614736855 7.22578955 17.8468418 3.0257895
      8.96894741 11.3447371 4.63789463 23.1857891 18.1189461 15.8152628
      14.3421049 9.7205267 1.47473681 7.76631594 17.8321056 0.59157896
      7.8157897 17.6021061 3.01263165 9.3436842 11.2178946 4.85947371
      22.7805252 17.9342098 17.1957893 14.0910521 9.66684151 1.62684214
      7.46526337 17.7773685 0.753684223 7.32421064 17.7642097 2.96157908
      8.87947369 11.3352623 4.64473677 22.8042107 17.8284206 17.0799999
      14.4515791 9.90210533 1.2863158 8.02842045 18.0689468 0.525263131
      8.03842163 18.4673691 3.21315789 9.88631535 11.7736845 4.79368401
      22.6410522 17.5510521 16.8105259 14.1963158 9.7263155 1.77789474
      7.31052637 17.8721046 0.941578984 7.35421038 18.0936832 2.69052649
      9.19421101 11.4178944 4.57578945 22.2299995 17.7800007 17.8500004
      14.2700005 9.77000046 1.41999996 7.65999985 17.8899994 0.699999988
      8.06999969 17.8199997 2.88000011 10.2600002 11.8800001 4.65999985</_>
    <_>
      23.1900005 16.4699993 16.7199993 13.6300001 9.60999966 1.63999999
      6.86000013 17.5400009 0.730000019 7.3499999 17.7099991 2.98000002
      9.85000038 11.6700001 4.84000015 24.092104 16.3305264 16.7689476
      13.8573685 9.61894798 1.75315785 6.88052654 18.0210533 0.667894721
      7.51578951 18.6805267 2.79526305 10.2557898 12.512105 4.83052635
      23.2205276 15.3710527 16.103159 13.8615789 9.50263119 1.57789481
      6.94999981 17.8899994 0.843157887 7.40736866 18.1889477 3.09789467
      10.5031576 11.8647375 5.01263142 23.8389473 15.9821053 16.1305256
      14.2505264 10.1947374 1.60947371 7.80999994 19.1321049 0.778947413
      8.71842098 19.4231586 3.11210537 11.1510525 12.884737 5.28052616
      22.7078953 15.8247375 16.1115799 13.8063154 9.7794733 1.64789474
      7.38631582 18.6178951 0.847368419 8.06789494 18.6368408 3.52421045
      10.6394739 12.059473 5.24578953 22.5968418 15.3636847 16.2731571
      14.3963156 10.2505264 1.76947367 8.16421032 19.1426315 1.16789472
      9.29736805 19.3047371 3.45210528 11.6021051 12.7457895 5.31684208
      23.1252632 14.8310528 16.2173691 13.5273685 9.44894791 2.08157897
      6.82578945 18.6294746 0.324736834 8.16263199 19.5452633 2.91736841
      10.856842 12.821579 4.95210505 23.8947372 15.1389475 14.2294731
      13.3405266 10.0736847 2.43473673 7.02315807 19.7905273 0.676842093
      8.68684196 20.7373676 2.5421052 11.6552629 14.2263155 5.13000011
      24.3936844 14.9389477 14.3278942 12.5652628 9.91631508 3.05736852
      6.53842115 20.2594738 1.44789469 9.08631611 22.3873692 2.53421044
      12.6557894 16.9047375 5.9252634 24.4684219 16.0442104 13.4426317
      12.6247368 10.3594732 2.8852632 6.96473694 20.9668427 1.31105268
      9.35526371 22.384737 2.40052629 13.0063152 18.3142109 6.19473696
      24.0321045 15.5421057 13.5631571 12.2563152 10.2094736 2.90894723
      6.68368435 21.2315788 1.90947366 10.0342102 23.4173679 2.58684206
      13.5868425 20.4694729 7.35052633 24.0273685 15.6047373 12.4042101
      12.1426315 10.7736845 2.95631599 6.80578947 22.1484203 2.29999995
      10.1663151 24.2189484 3.03947377 13.6000004 20.8347378 8.13947296
      24.4978962 15.8384209 12.222105 12.77421 11.0026312 2.96631575
      7.17578936 22.2084198 2.50894737 10.1373682 23.9968414 3.22000003
      13.7268419 21.1247368 9.65263176 24.4668407 15.3752632 12.6542101
      12.1957893 10.487895 2.95000005 6.74631596 21.7484226 2.33105254
      9.85210514 23.5973682 2.9694736 13.4826317 20.1273689 7.8063159
      24.273159 15.8157892 12.6221056 12.7189474 11.2663164 3.10263157
      7.52263165 22.888422 3.00789475 11.1178942 25.316843 4.01263189
      14.6405268 23.4115791 11.6610527 25.2373676 15.559474 12.6668425
      12.3563156 10.46 3.23842096 6.3110528 21.8426304 2.62263155
      9.32999992 23.7673683 3.38578939 12.9384203 20.3463154 9.08526325
      24.1473675 15.6631575 12.0889473 12.5405264 10.337368 3.24684215
      6.82578945 21.6773682 2.65789485 9.88947296 24.0394745 3.35578942
      13.5526314 20.5621052 8.47789478 24.3842106 15.79 12.8557892
      12.4110527 10.3126316 2.82105255 7.04526329 21.4273682 2.29736853
      9.9905262 23.3984203 3.04894733 13.6384211 20.6205273 7.75368404
      24.5268421 15.333684 12.3831577 12.6531582 10.8047371 3.05947375
      7.15105247 22.0421047 2.38315797 10.686842 24.682106 3.32368422
      14.2673683 21.9810524 9.59631538 24.9799995 15.7799997 13.5200005
      12.5 10.7700005 3.0999999 6.86000013 22.1200008 2.6400001
      10.5900002 24.5799999 2.80999994 14.5600004 22.1299992 8.72999954</_>
    <_>
      26.3799992 10.6599998 5.42999983 13.1999998 11.3900003 1.82000005
      9. 16.1200008 5.28000021 8.22999954 17.5400009 6.86000013
      7.51000023 15.0600004 7.69000006 26.6189461 10.5463161 5.94578934
      12.8247366 11.297368 1.82105267 8.68894768 16.0247364 5.38631582
      8.14631653 17.6926327 7.07631588 7.72368431 14.9678946 7.79421043
      26.1142101 10.448947 6.4952631 12.3573685 10.5021048 1.34000003
      8.75315762 15.2978945 4.55368423 8.75736904 18.139473 6.75105238
      9.19736862 15.0410528 7.37894773 25.3873672 10.0878944 4.44315767
      12.987895 12.2005262 3.04894757 10.4626322 21.4857903 11.8400002
      10.6710529 28.8726311 20.6457901 10.6768417 25.5426311 16.1736851
      24.4926319 10.0605259 3.70105267 14.3021049 13.8257895 4.91631556
      12.7942104 25.5642109 17.4794731 12.9936848 34.5368423 29.9642105
      12.0968428 30.0747375 24.3447361 24.3221054 10.7610521 2.62736845
      14.2573681 13.3121052 4.84947348 12.6994734 25.3563156 18.5557899
      13.0310526 33.0626297 28.4742107 11.7942104 27.3989468 21.1389465
      23.4063148 11.309474 2.36894727 14.8542109 14.2905264 4.22894716
      13.6057892 26.5810528 17.6678944 14.3410521 34.7005272 29.6115799
      12.4099998 30.3589458 23.6457882 24.0500011 9.83473682 2.03894734
      14.4826317 13.9910526 3.81842113 13.3836842 26.2942104 15.865263
      13.6915789 35.0094719 27.8857899 12.356842 28.2642097 19.9136829
      25.9410515 9.92894745 1.94210517 14.0678949 14.6510525 4.11000013
      12.9931583 27.1905251 18.9400005 13.1805267 37.8131561 35.5373688
      12.7105265 30.6531582 24.8063145 25.9194736 9.66842079 1.98210526
      13.900526 15.0842104 4.86210489 12.6478939 27.0389462 18.3263149
      13.0215788 37.4457893 34.646843 14.3942099 27.5563164 21.5973682
      25.5542107 9.22947407 3.0373683 15.2868423 20.8315792 10.5368423
      13.0615788 34.6694717 28.0657883 12.3357897 43.1178932 38.7700005
      19.5531578 26.3789463 23.5778942 26.7626305 9.1173687 3.33789468
      15.7631578 25.7294731 17.0289459 12.3394737 39.5942116 37.8152657
      10.5899992 47.8463135 44.7268448 20.5757885 28.4710522 28.8326321
      26.1036854 9.29210567 2.4789474 15.9984207 26.4642105 12.7284212
      12.9978952 40.0563164 31.1652641 12.0978947 52.0942116 41.5421066
      21.9942093 33.019474 31.9715786 26.4436836 8.89368439 2.68842101
      15.9205265 28.2568417 16.0178947 13.1294737 41.8789482 34.7247353
      12.7842102 52.2089462 42.4684219 23.797369 32.7615814 33.4336853
      26.5342102 9.18684196 3.00947356 16.5321064 28.115263 15.8905268
      13.5478945 41.6605263 31.7315788 12.7368422 49.1610527 38.9857903
      23.460001 31.2073689 29.0531578 26.0963154 9.47000027 3.26736832
      16.4678936 28.5615788 14.9099998 13.5547371 41.737896 30.9242096
      13.0289469 48.9921074 37.4178963 24.2542095 30.0384197 26.8405247
      26.4952621 9.27315807 3.5678947 16.5315781 28.8347378 16.0105267
      13.3978949 41.1599998 30.0257893 12.8363152 47.3199997 35.5247383
      23.9905262 27.8226318 24.1736851 25.5978947 9.28421021 3.70526314
      16.6263161 27.8642101 15.7078943 13.4936838 40.5368423 27.4031582
      13.1463156 46.9926338 33.4721069 24.162632 27.5352631 22.2105255
      26.1457901 9.2357893 3.19052625 16.1421051 28.5621052 14.5621052
      13.2431583 40.9889488 28.4063168 13.1726313 47.7910538 33.1668434
      24.349474 28.6252632 22.3252621 25.2399998 9.48999977 2.45000005
      16.0400009 28.8299999 15.4300003 13.2200003 41.7700005 30.3299999
      13.8299999 47.7900009 35.3499985 26.2199993 27.4400005 24.7700005</_>
    <_>
      24.7700005 13.7399998 13.1099997 28.8299999 57.8499985 24.8600006
      37.5400009 79.4199982 22.1399994 42.5999985 83.0500031 21.7299995
      50.2200012 64.4700012 24.0100002 23.6973686 11.3652639 7.97368431
      29.8536835 59.6010551 24.4710541 38.6863136 78.0415802 21.0289478
      43.8115807 81.9052582 21.2378941 51.2710533 61.9652634 22.2700005
      24.2163143 12.452632 9.80210495 29.106842 60.2878952 24.7463169
      38.4921036 79.8057861 21.5031586 43.4636841 82.7584229 21.6189461
      49.7773705 64.3273621 23.9773674 24.3068428 12.8084211 8.6268425
      29.4257889 59.2705269 23.8573685 38.7189484 77.8731613 20.7957897
      45.2789459 82.3000031 20.2494736 51.5021057 64.7831573 22.4963169
      24.5047379 11.6426315 8.02631569 30.0447369 58.4489479 23.5721054
      39.1389465 77.7431564 20.2399998 44.1447334 82.3515778 20.4968433
      50.0536842 61.8905258 22.2984219 24.5363159 12.5784216 9.11368465
      29.3999996 59.1389465 23.8110523 37.3063164 78.3600006 21.2678947
      42.1489487 83.2299957 20.7552643 49.6921043 64.5257874 22.3715801
      24.7910519 12.2131586 9.86315823 28.9421062 58.965786 25.3289471
      38.2778931 80.6073685 22.0689487 43.6831589 85.6884232 21.2268429
      49.5294724 67.5510559 23.9684219 23.7573681 13.0731573 11.3615789
      29.5200005 58.7242088 24.3731575 38.8015823 79.4731598 21.6563148
      42.2868423 83.0289459 21.3705254 47.9810524 62.0957909 22.8747368
      24.4952641 12.8226309 9.64473629 29.571579 57.3189468 24.2331581
      38.587368 77.8515778 21.349474 43.7668419 83.2521057 20.3315792
      50.2068443 63.9315796 22.1394749 24.8999996 13.0299997 10.0115786
      29.6836853 56.9952621 23.9573689 38.2910538 78.7705231 21.2905254
      43.7552643 84.2410507 20.5536842 50.488945 64.6131592 22.7889481
      24.8952637 11.8136845 8.15684223 29.916317 57.8505287 23.6089478
      39.4115791 78.8089447 20.4752636 44.9105263 83.76474 20.1199989
      51.4726295 65.7710571 22.5863152 23.9868412 11.2294731 8.00684261
      29.186842 60.3126297 24.9747372 38.0094719 80.7994766 21.5368423
      42.1705246 84.8357849 21.4347382 48.7515793 66.5557861 23.8978939
      24.0657883 12.4378948 8.62631607 29.345789 59.1857872 24.7889481
      38.7505264 80.7221069 21.9557896 42.8342094 85.7105255 20.9389477
      48.3710518 65.8347397 22.9410534 23.4936829 11.1636839 7.61631584
      29.7000008 60.4726334 25.0315781 39.6421051 80.0205231 21.4094734
      44.7189484 83.2284241 20.6557903 51.1910515 64.8063202 22.8415775
      23.2784214 12.3352633 8.91315746 28.4863167 61.5926323 25.487896
      37.5721054 80.5047379 22.5457897 42.5168419 84.7915802 22.0726318
      49.2952614 64.3205261 23.8784199 23.7378941 12.3742104 9.12105274
      29.0900002 59.0368423 24.1531582 37.7405243 80.1436844 21.4942112
      42.5347366 84.9336853 21.4263153 49.9547348 64.6805267 23.3626328
      24.1110516 11.8542109 7.31210518 29.9505253 59.0968437 24.5321045
      39.8152618 78.2436829 20.9736843 44.8631592 82.2936859 20.3763161
      50.0600014 62.3131599 21.8878956 23.1184216 11.5221052 9.06263161
      28.3815784 58.671051 24.8315792 36.8115768 79.5473709 23.3821049
      42.7189484 83.9705276 22.0957909 50.8678932 63.1457901 23.5221062
      23.0694733 12.7410526 11.7505264 27.5694733 56.5531578 23.8500004
      33.9305267 76.9094772 24.0763149 40.9110527 84.9289474 22.0442104
      51.5721054 66.2078934 23.424736 23.2700005 13.4899998 16.0799999
      27.3600006 57.0200005 25.7700005 31.7199993 74.9700012 28.6599998
      38.7999992 86.2699966 25.3999996 49.75 66.7600021 27.4899998</_>
    <_>
      23.8199997 9.97999954 4.03000021 18.6800003 56.2999992 33.9099998
      17.4400005 83.8000031 33.0400009 17.5100002 95.6500015 34.9399986
      30.9400005 76.1800003 40.6100006 24.28158 10.1947365 4.68263149
      18.6615791 55.4215813 34.0373688 17.0321064 81.9847336 34.6147346
      16.7294731 95.1342087 36.1152649 29.7531586 78.4384232 40.8421059
      24.4942093 10.4789476 3.86578965 18.4247379 57.9594765 34.2110519
      17.4436836 82.8784256 34.737896 17.4210529 96.4205246 36.1847382
      30.5268421 78.7552643 41.3800011 24.881052 10.6236849 4.08473682
      19.0110531 54.8868408 31.2399998 17.6652622 81.4794769 34.4331589
      17.356842 95.7884216 35.7315788 29.9647369 78.7721024 40.9973679
      24.7542095 10.3273687 4.4247365 18.7073669 58.75 36.2847366
      17.4621048 85.1315765 34.9652634 17.063158 96.4826355 35.8000031
      30.4489479 78.7489471 40.6094742 24.4921055 9.78473663 4.13736868
      17.9342098 57.9784203 37.6110535 16.6163158 83.6831589 36.484211
      16.7668419 96.2636871 36.7563171 30.5 79.5552597 41.4810524
      24.3342113 10.7826319 6.28684187 18.5931587 57.6289482 35.1521034
      16.8647366 82.9084244 34.3515778 16.9710522 95.9015808 34.7478943
      31.1168423 78.3910522 39.9463158 24.2878952 10.2452631 4.00263166
      18.5263157 57.2321053 34.5610542 17.1189461 82.9605255 34.6257896
      17.1263161 95.6010513 35.385788 30.8952637 76.8852615 40.1610527
      24.0494747 10.2563162 4.67789459 18.2242107 57.0642128 33.1952629
      17.342104 82.4289474 34.6647377 18.1352615 95.6584244 34.8226318
      32.3036842 77.7252655 39.3268433 24.314209 10.3331575 4.26842117
      18.7000008 55.5463142 32.7721024 17.2773685 82.5926285 33.1957893
      17.7442112 94.4221039 34.5605278 31.6673679 75.5810547 39.5173683
      24.3805256 10.2373676 4.46000004 18.8400002 55.1705284 33.0078926
      17.3289471 82.1947327 34.2494736 17.515789 94.1715851 35.4152641
      31.564209 75.603157 39.591053 23.8152637 10.1378946 4.70684195
      18.8336849 56.3294754 32.8357887 17.5136852 83.3284225 33.7242126
      17.7431583 93.421051 35.2952652 32.4810524 74.9036865 38.7684212
      23.9105263 10.3226318 4.99736834 18.7915783 56.9431572 32.3210526
      17.1021061 82.3415833 33.6189461 17.7284203 94.8089447 34.1931572
      33.7157898 76.8389511 37.7252617 24.9589481 10.6052637 4.44684219
      19.3505268 54.3131561 29.6773701 17.3500004 80.1826324 32.976841
      17.5736847 93.6315765 34.1805267 33.3247337 73.8789444 37.7831573
      24.3147373 10.4263163 5.08052635 19.2199993 56.662632 33.4794731
      17.5921059 84.7636795 32.5789452 18.0663147 95.5242157 33.4310532
      33.6952629 74.1063156 37.5642128 24.0247364 10.4557896 4.73789454
      19.4584217 54.1199989 29.1047382 18.2799988 82.9078903 30.7247372
      18.603157 93.0221024 33.6147385 32.9515762 75.3199997 37.1489487
      24.1173687 10.4547367 4.6452632 19.1647377 56.4057922 30.9500008
      17.8063164 81.5384216 32.5357895 18.594738 94.3994751 33.6921043
      34.7052612 76.6989441 37.0299988 24.4773693 10.2715797 4.30421066
      19.5326328 58.7178917 32.6236839 18.0963154 85.6184235 31.6163158
      17.9921055 95.1042099 33.7447357 33.8489494 74.3526306 37.4394722
      23.7057896 10.4263163 4.81157875 19.611578 56.7315788 31.1657887
      18.3015785 82.1626282 30.9278946 18.8089485 92.2210541 33.7152634
      34.7626305 72.8452606 36.2552605 24.2399998 10.3699999 4.44000006
      19.2900009 59.2700005 34.8800011 18.0400009 85.0199966 32.0800018
      18.2299995 93.0899963 34.4900017 33.8499985 72.0699997 37.4700012</_>
    <_>
      28. 12.5900002 1.57000005 8.18000031 4.34000015 3.06999993
      2.73000002 9.28999996 3.32999992 2.52999997 10.5 1.90999997
      2.3499999 5.73000002 2.17000008 27.5010529 13.4184208 1.13894737
      8.87157917 4.25157881 3.30210543 3.04052639 8.87263107 2.9836843
      2.44315791 9.43368435 1.98052633 2.00789475 4.9000001 2.46315789
      26.7868423 13.1952629 0.656315804 8.31578922 4.39842129 3.37631559
      2.89631581 8.84736824 3.01105261 2.42263174 9.84263134 1.58263159
      2.64105272 5.42947388 2.48210526 27.6194744 11.7836838 2.21000004
      8.48999977 3.32105279 4.30052614 3.19526315 6.64315796 3.18000007
      1.88368416 6.82157898 2.97631574 2.76105261 2.74000001 2.72578931
      27.6978951 11.9710522 3.5305264 8.65315819 3.13789487 3.85157895
      3.14105248 6.10842085 2.7757895 1.48105264 6.11999989 3.08105254
      3.38157892 2.03842092 3.56526327 28.7689476 10.8889475 4.57789469
      8.46578884 2.94947362 4.02526331 3.47157884 5.80736828 3.01105261
      1.56526315 6.10052633 3.29263163 3.27315784 1.98368418 3.26473689
      29.2552624 10.2331581 4.97578955 8.41210556 3.1336844 3.99736857
      3.43263149 5.40789509 3.1452632 1.64210522 5.61052656 3.68368435
      4.41315794 1.49210525 4.18157911 28.9315777 10.2757893 4.62210512
      8.28789425 3.00157905 3.78105259 3.04999995 6.08315802 2.99684215
      2.10894728 6.5747366 3.56631589 3.81157899 2.28421044 4.5905261
      29.400526 10.6705265 6.23263168 7.60842085 3.59894753 3.46421051
      2.551579 6.46315813 2.70210505 2.28210521 6.49631596 3.96789479
      4.02263165 2.80631566 5.45000029 29.3984203 10.2626314 5.69105291
      7.40421057 3.05789471 2.95894742 2.69473696 6.06684208 2.27947354
      2.68578959 5.94526291 4.14631605 3.18315792 3.03368425 6.03631592
      33.151577 11.1973686 8.81894779 6.37894726 3.01789474 3.0821054
      2.67210531 3.74315786 2.0773685 3.06842113 2.77789474 5.57842112
      17.4221058 64.1410522 17.3784199 34.4531555 11.2599993 7.1705265
      6.35105276 2.33315778 2.79315782 2.93578959 3.94210529 2.09105253
      3.60315776 3.83473706 4.90842104 29.143158 120.262634 6.07105255
      32.2073669 12.4715786 8.35157871 6.3063159 1.61052632 2.48210526
      2.2642107 5.04263163 1.81894732 4.27947378 4.30947351 5.25842094
      16.5536842 117.543686 14.8936844 32.9868431 11.7889481 7.5563159
      6.54052639 1.95105267 2.71052647 2.16999984 5.73315811 2.07789469
      5.39263153 5.2221055 4.86473656 23.2015781 131.761047 5.38210535
      35.8657875 11.8552628 7.86947393 5.89842129 3.36157894 2.60052633
      3.27631569 4.62894726 0.873157918 5.35947371 4.6594739 4.00315809
      51.3042107 90.6536789 7.6500001 36.4942093 11.6184206 8.46578884
      5.50052595 3.54421067 2.37052631 3.5305264 3.77210522 0.514736831
      5.25578976 4.11684227 4.71473694 53.7936821 85.8905258 9.49684238
      34.8552628 11.5689468 8.88210487 5.85210514 2.82368422 2.71789479
      2.10157895 3.88631582 0.743157923 5.84315777 3.46789479 5.86684227
      41.0105286 102.634735 8.54421043 34.1684227 11.2347364 9.7926321
      5.02315807 2.71842098 2.2757895 1.42526317 5.31421041 0.772631586
      6.08947372 3.1257894 7.29578972 21.9084225 98.4973679 20.3584213
      35.4621048 10.4231577 8.3673687 5.72526312 2.76421046 2.24789476
      2.52473688 4.12105274 0.864210546 6.87736845 3.10631585 7.73684216
      30.2447357 89.9652634 19.2573681 34.1800003 10.6199999 7.73000002
      5.23999977 2.47000003 1.94000006 2.73000002 4.21999979 1.45000005
      7.46000004 3.08999991 7.61000013 20.0799999 63.9500008 32.9799995</_>
    <_>
      34. 11.3599997 7.13000011 6.07000017 3.13000011 2.16000009
      1.77999997 5.90999985 1.04999995 7.44000006 2.47000003 8.05000019
      17.0100002 58.9799995 41.9599991 34.9457893 11.0021057 7.04894733
      6.11736822 2.52315784 2.04578948 2.7078948 4.60157871 0.947368383
      8.41368389 3.20368433 6.50052643 18.8731575 39.9226303 33.3957901
      33.7926331 11.5152636 7.39315796 6.25789499 3.04578948 2.01526308
      1.90894735 5.36473656 0.832105219 7.9157896 2.44263148 6.73947334
      17.1194744 34.6584206 35.1547394 33.8257904 11.7842102 7.06263161
      7.14421082 3.29105258 1.9531579 1.44000006 5.67263174 1.08105266
      8.37631607 3.9226315 7.46842098 20.8605251 72.5336838 40.8836861
      34.5347366 11.9931583 7.13368416 7.0810523 2.9226315 2.19052625
      1.34473681 6.53105259 0.794210553 8.05315781 3.97631574 6.30368423
      15.3557901 39.0889473 42.7768402 35.1057892 12.0900002 7.4252634
      6.64473677 2.66526318 2.19210529 1.18421054 5.74315786 1.12105262
      7.62421036 3.37263155 5.82684183 21.0757904 91.9252625 24.2578945
      30.0542107 10.8526316 7.45157862 6.11947346 3.66157913 2.38631582
      0.680526316 7.85526371 2.15263152 5.63578939 6.52578974 4.52947378
      4.99315786 4.24894714 6.38315773 31.5347366 9.26578903 6.23263121
      6.95947361 2.78684211 3.77263165 3.31473684 4.6452632 3.07947373
      4.32473707 3.39789462 4.59210539 6.2642107 3.88473678 4.87157869
      31.0794735 10.6142101 8.40421009 7.56421041 3.09684205 3.71684217
      3.60157895 6.96105242 3.33631587 2.7194736 5.6842103 4.65052605
      4.70526314 2.46842098 3.99052644 31.7978954 10.3284216 9.15789509
      6.7547369 2.92368412 3.17789459 4.43052626 6.54526329 3.10421038
      2.86157894 4.85578966 4.73473692 5.57210541 1.76105273 4.24947357
      32.4489479 11.0578947 9.54210472 6.83631611 3.69736838 3.05578947
      4.67315817 7.17947388 3.12052631 2.62368417 5.63157892 4.07631588
      4.7363162 2.93000007 3.70684218 32.3384209 10.4605265 9.18473721
      7.53157902 2.85105252 2.8436842 4.38842106 6.63263178 2.75736856
      2.32684207 4.81789494 4.56842089 4.47263145 2.48947358 4.51631594
      33.0584221 10.8715792 10.4615784 8.12894726 3.69526315 2.59052634
      4.54578972 7.4721055 2.63631582 1.37789476 5.72473669 3.7173686
      2.96368432 2.70368409 3.59631586 31.7552624 11.3778944 10.8115788
      8.18579006 5.00631571 2.35105252 4.18421078 8.77157879 2.30947375
      1.72684216 7.73631573 2.37105274 1.84263158 5.02105284 3.01526308
      31.5042095 11.4478951 9.06421089 8.40578938 5.25631618 2.25684214
      4.48263168 8.85368443 1.99263155 3.31578946 8.16263199 1.48526323
      2.74842119 5.73684216 2.92578959 30.6657906 11.8631573 9.20263195
      8.77052593 5.66368437 2.10157895 4.77263165 9.09473705 1.32473683
      3.83105254 8.3436842 1.31473684 2.64947367 5.77684212 3.12210536
      30.2589474 11.7889471 9.13052654 8.79105282 5.40105247 1.86105263
      4.8405261 8.64315796 1.20789468 4.31210518 7.96368408 1.38368416
      3.09105277 5.69263172 3.03578949 29.0542107 11.8242111 8.72263145
      9.18947411 5.40368414 1.8652631 4.8626318 8.54421043 1.23526311
      3.64999986 7.82789469 1.26894736 2.4415791 5.65894747 2.96157908
      28.8157902 12.0147371 9.30736828 9.79105282 5.25894737 1.25368416
      5.13947344 8.49263191 0.998421013 3.30105281 7.79789448 1.48789477
      1.95684206 4.90052652 2.89421058 27.4500008 11.3199997 9.03999996
      9.65999985 5.55000019 1.40999997 5.42000008 8.56000042 0.99000001
      3.48000002 7.73999977 1.84000003 1.54999995 5.25 2.99000001</_>
    <_>
      22.2900009 28.4300003 7.51000023 6.65999985 7.51999998 7.80000019
      2.01999998 4.98999977 5.11000013 13.6800003 17.7199993 11.5299997
      27.1599998 6.73999977 14.7700005 21.6731567 18.5505257 9.00894737
      5.54368401 7.69894743 9.29473686 4.23000002 12.480526 5.24263144
      7.25421047 22.5357895 9.88631535 25.9147377 18.1226311 12.8852625
      28.433157 39.7873688 4.9436841 6.77421045 9.60631561 4.88526297
      3.50999999 7.00052643 6.12052631 20.0078945 11.365263 19.690527
      37.2284241 18.5784206 15.5652628 32.9594727 37.7821045 4.12368441
      15.127368 10.4473686 5.07999992 5.42578936 9.98894787 6.71052647
      6.90999985 10.7726316 12.8921051 21.9773674 4.86631584 16.9015789
      25.3468418 15.1236839 4.88000011 14.1531582 9.62052631 3.58947372
      7.57999992 20.0484219 10.5010519 12.5536842 22.9352627 12.1305265
      40.2136841 23.3257885 7.23894739 35.321579 18.1226311 8.29157829
      21.5110531 11.3121052 10.0810528 6.78368425 14.5084209 9.18684196
      10.1394739 11.837369 10.012105 21.4384212 3.92000008 7.04157877
      31.5405273 22.2678947 19.9673691 20.7826309 6.07000017 9.07263184
      5.38368464 10.1252632 5.20368433 16.6636848 9.88789463 10.8478947
      32.2047348 4.06105232 11.0478945 18.8557892 10.9394741 11.9394741
      8.20473671 3.43578959 6.01736832 11.4099998 11.4194736 10.5115786
      36.3389473 20.1563168 11.9221058 58.4536858 26.3405266 12.6426315
      24.7431583 11.2236843 10.2273684 15.0205269 10.171052 4.07578945
      9.5936842 23.4115791 12.7668419 14.2610521 29.916317 14.2421055
      49.7542076 57.560524 18.8057899 34.2421074 12.4073687 8.45105267
      15.4215794 12.8047371 6.64368439 9.41842079 24.5115776 10.7784214
      14.3789473 26.3863163 9.28947353 51.9763184 44.5068398 15.0863161
      32.643158 11.5526323 8.73842144 13.3510523 11.7215786 7.73421049
      8.46052647 24.1800003 11.3900003 13.1926308 26.3347378 8.58947372
      54.3268433 43.1436844 12.6178942 28.7284222 11.6452627 9.31842041
      14.5005264 9.36052608 5.65789461 9.06842136 23.860527 13.9347372
      13.1347361 31.6126328 15.1099997 50.258419 54.6742096 17.1057892
      29.5647373 11.2810526 7.15526295 14.3357897 9.56421089 6.095263
      8.89263153 23.3010521 13.6394739 12.8247366 30.730526 14.5568419
      48.3163147 50.5184212 16.9178944 25.4778957 15.5336847 6.62157917
      6.62947369 10.3747368 7.35631561 8.10578918 21.2163162 8.90999985
      13.1499996 19.6115799 9.25263214 43.0242119 22.2415791 9.33157921
      31.1936836 10.1652632 5.78368425 10.8000002 14.0505266 7.67631578
      11.2384214 21.4310532 10.480526 13.678421 19.2242107 11.8231583
      26.2768421 19.7447357 10.3421059 30.566843 14.1147366 5.42157888
      15.4605265 13.5515785 8.90263176 15.4557896 23.1768417 13.7215796
      18.4778938 23.1405277 13.0905256 50.3189468 31.1931572 14.4178944
      30.8178959 12.0963154 6.73631573 15.6131582 10.4778948 6.51315784
      11.2478943 23.765789 14.5778952 15.2878952 30.5778942 16.2747364
      53.8652649 38.5494766 13.777895 25.5394745 11.3405266 6.49631596
      15.0252638 9.28421021 4.7826314 9.76736832 22.7121067 13.4315786
      14.007369 31.9394741 14.9952631 49.7605286 46.9810524 13.9278946
      24.8836842 11.3605261 6.12684202 16.1147366 10.031579 3.7805264
      10.5789471 22.9457893 11.7284212 14.7957897 31.3078938 12.8510523
      50.1910515 41.9494743 10.0647373 24.6499996 11.9700003 3.50999999
      14.6300001 9.23999977 2.78999996 8.85000038 20.6399994 9.53999996
      14.5500002 29.7999992 10.9399996 50.4399986 45. 11.7700005</_>
    <_>
      29.8899994 11.6199999 3.01999998 10.4499998 5.8499999 2.67000008
      4.73999977 9.81999969 2.11999989 3.43000007 10.5299997 1.83000004
      5.26999998 6.13999987 2.58999991 29.8152637 12.3952627 2.85052633
      10.9815788 6.40578938 2.87263155 5.0563159 10.5163155 1.97105265
      3.42578959 10.8489475 1.6452632 5.75526333 6.52894735 2.6563158
      29.8463154 12.2284212 3.06684208 11.1342106 6.53526306 2.88947368
      5.12789488 10.9515791 2.13947368 3.82473683 11.1752634 1.79157889
      6.13947344 6.9000001 2.76684213 29.2452621 12.3221054 2.40736842
      11.5 6.86210537 2.86842108 5.8436842 11.7284212 2.44315791
      4.35105276 11.8794737 1.88368416 6.64052629 7.34684229 2.73263168
      29.6736832 12.3015785 2.36842108 11.531579 7.33684206 2.63421059
      6.14736843 12.4105263 2.32157898 4.12736845 12.3594732 1.18894744
      6.72842121 7.57578945 2.33210516 30.2757893 11.9705267 2.45263171
      11.8878946 7.51210546 2.77736831 6.27947378 12.9863157 2.646842
      4.13368416 12.8499994 0.857894719 6.55473709 7.90578985 2.52052617
      29.4205246 11.9742107 2.00157905 11.8894739 8.1315794 2.91210532
      6.89421034 14.2110529 3.33052635 4.89578962 14.305789 0.469999999
      7.17684221 8.95526314 2.26263165 29.9215794 11.6300001 1.96894741
      11.9426317 8.01684189 2.84263158 7.06157923 14.0578947 3.42210507
      5.38210535 14.5621052 0.698421061 7.76999998 8.94631577 2.51473665
      30.6284218 12.1636839 1.95526314 11.8036842 8.27842045 3.11210537
      6.70473671 14.5236845 3.71368432 5.25894737 14.8742104 0.375263155
      7.90789461 9.18631554 2.35684204 30.325264 11.8405266 2.12684226
      12.1415787 8.63947296 2.94052649 7.3547368 15.1910524 3.56263161
      5.86578941 15.6863165 0.735263169 8.31052685 9.6326313 2.48105264
      30.4273682 12.3289471 2.65052629 12.2178946 9.31631565 3.48736835
      7.48105288 16.1531582 4.48789454 6.24894714 16.2178955 1.02210534
      8.61578941 10.0294733 1.87789476 30.7547379 11.7768421 2.74684215
      12.4631586 9.42736816 3.5984211 7.83052683 16.3594742 4.15526342
      6.52578926 16.2105255 0.337368429 8.6978941 10.1300001 2.53684211
      30.78158 12.2384214 3.14157891 12.381053 10.3121052 3.96789479
      7.85105276 17.4031582 4.47052622 6.8547368 17.4178944 0.4336842
      9.00526333 10.6705265 2.23894739 31.027895 11.9257898 3.55263162
      12.6889467 10.6884212 3.80578947 8.49105263 18.0705261 4.31894732
      7.77947378 18.5636845 0.966315746 10.0431576 11.3189478 1.89368427
      30.5652637 12.372632 2.92631578 13.1336842 12.1994734 3.89789462
      10.1194735 20.4310513 5.98684216 10.1478949 21.2905254 5.49421024
      11.7268419 13.031579 3.89368415 31.1557903 12.5268421 2.91789484
      13.1884212 12.5026312 3.98052645 10.2994738 21.1215782 6.54947376
      10.7626314 22.4557896 6.33315802 12.27421 13.5605259 4.35210514
      31.071579 13.3910522 2.52052641 13.4536848 12.98421 4.94736862
      11.5447369 21.3400002 8.46842098 12.8668423 22.8047371 10.0978947
      14.1831579 14.4357891 7.41368437 31.9936848 14.4189472 2.48157907
      14.3452635 13.8336849 5.18789482 12.9147367 22.3636837 13.0799999
      14.5621052 24.8510532 18.1757889 15.7447367 16.3557892 13.5889473
      31.9384212 15.0252628 4.09105253 14.2957897 14.0447369 6.59947348
      12.809474 22.7294731 13.1326313 14.6184216 24.503685 19.7831573
      15.7194738 17.0494747 18.2010517 28.8400002 15.79 6.46000004 14.25
      14.0799999 5.63999987 12.6099997 22.6200008 11.9399996 14.5200005
      24.3500004 17.7399998 15.7299995 16.1399994 14.8999996</_>
    <_>
      28.4099998 15.9899998 6.26999998 14.4700003 14.1999998 5.51000023
      12.7700005 22.8299999 11.5799999 14.4300003 24.5300007 17.3799992
      15.54 16.8600006 16.4500008 28.6163158 15.6342106 6.11263132
      13.8552637 12.968421 4.21842098 11.2226324 21.6663151 7.18210506
      12.6536837 22.3594742 9.81473732 14.099474 15.5700006 10.5505266
      28.9652634 15.5042105 6.01578903 14.2321053 12.2368422 3.5631578
      11.4652634 20.7378941 5.96421051 12.5005264 21.5378933 7.46000004
      14.5478954 14.0784216 6.87157869 28.7915802 14.8442097 5.77947378
      13.5389471 11.6921053 3.15473676 10.3236837 19.8747368 4.43052626
      11.0063152 20.2215786 5.10052633 12.8610525 13.4973679 5.75421047
      29.1531582 14.7668419 6.0889473 13.3973684 11.297369 2.98210526
      9.89842129 19.5521049 3.90736842 11.4431581 19.9589481 4.0047369
      13.7036839 14.9673681 6.87999964 28.091053 14.9789476 6.69578934
      13.8473682 11.6836843 2.44473672 10.7626314 20.202631 3.68157887
      13.3273687 21.3578949 5.33789492 15.3800001 17.9194736 12.2873678
      28.9726315 15.8673687 7.25842142 14.698947 15.0573683 3.48894739
      12.722105 24.2857895 11.3057899 16.4242096 27.6094742 22.591053
      17.3405266 28.765789 47.6052666 28.7994728 15.9668427 7.40052605
      16.0857887 18.7189465 8.99157906 15.9726315 27.6721058 27.3578949
      19.8678951 32.0810509 45.8505287 19.6210537 33.1800003 64.0368423
      29.1805267 16.4415798 8.6515789 17.1178951 19.7052631 15.3889475
      17.4978943 28.9257889 41.6142082 21.1073685 33.5689468 58.0405273
      20.8731575 31.7068424 66.4036865 27.1573677 16.6805267 10.4610519
      18.5363159 19.7926311 17.9463158 18.9263153 29.599474 44.1094742
      21.6268425 34.2610512 59.5515785 20.6100006 32.7142105 64.3199997
      26.9189472 16.5863152 12.3978949 18.8926315 19.8842106 18.0731583
      19.4594746 32.1805267 49.4747391 21.4610519 40.0042114 65.0942078
      20.1842098 37.9610519 69.2652588 26.8199997 16.6110516 12.0015793
      19.8231583 19.9110527 21.6878948 20.6926308 32.6063156 51.7115784
      22.9631577 38.576313 64.0368423 21.2442093 37.8847389 67.2689438
      26.7031574 16.3336849 12.9431581 20.6157894 18.8805256 20.8000011
      21.4289474 32.8400002 51.9973679 23.0094738 37.1673698 63.8863182
      21.1084213 34.519474 66.3626328 26.7410526 15.9636841 12.5252638
      20.1605263 18.9173679 17.9415779 20.396841 32.3100014 52.7973671
      21.6452637 39.4231606 66.4989471 20.1352634 37.6378937 68.2694702
      26.813158 15.356842 13.237895 19.4263172 20.5857887 34.643158
      19.6436844 35.928421 63.3126297 20.5310535 42.8468437 70.1042099
      19.174736 42.7773666 72.0447388 27.2815781 15.4736834 11.1900005
      18.1836853 23.0805264 48.0452614 18.6194725 39.4942093 66.2410583
      19.6142101 51.158947 71.9184189 18.8099995 52.1494713 73.0926285
      26.0942097 16.0863152 11.0384207 17.3389473 27.9436836 78.0136795
      18.0815792 42.9447365 69.5794754 19.8673687 51.7147369 71.2773666
      19.5131588 52.4642105 72.6200027 26.6663151 16.3836842 9.75315762
      17.6599998 27.9947376 71.9720993 18.5452633 46.2815781 65.8963165
      20.0894737 51.0373688 69.2347412 19.9026318 54.3089447 70.7273712
      27.7736855 19.0557899 13.5147371 21.3147373 29.813158 43.4536858
      22.5021057 52.753685 51.6415787 23.3768425 56.523159 64.6794739
      24.8157902 63.5557899 63.7773666 30.5900002 20.5499992 12.6300001
      20.7900009 24.9300003 20. 22.4300003 47.2700005 49.1300011 24.75
      51.4199982 67.2900009 30.1100006 61.2999992 63.2900009</_>
    <_>
      27.6000004 15.0600004 9.10999966 19.4400005 79.3099976 80.0999985
      20.4099998 117.550003 34.8600006 18.6399994 122.830002 32.8199997
      17.1900005 121.449997 34.1199989 32.0505257 16.9410534 10.7505264
      20.9547367 84.6305237 57.1605263 21.8984203 109.202103 37.598423
      20.5426331 117.508423 35.3063164 22.1852627 118.547897 33.7594757
      39.2673683 18.9305267 12.2652626 23.8026314 46.3442116 62.9236794
      23.8173676 99.8136826 40.4131584 23.0721054 111.766319 35.9715767
      28.4436836 114.90316 31.2873688 26.400526 14.5678949 11.5378952
      17.4984207 142.824738 30.1489468 17.900526 144.497375 19.6536846
      15.2552633 148.816315 19.0310516 17.2805271 146.232101 20.7799988
      23.6836853 14.5847368 16.0494747 16.5221043 146.931061 27.4621048
      16.3136845 149.424728 18.0515785 13.4731579 153.357376 18.4163151
      18.1536846 149.147888 20.309473 22.2510529 14.6047363 18.1757889
      16.1957893 154.050522 19.6036854 16.0100002 150.231049 16.2542095
      13.2521057 153.809479 16.8089485 19.2626324 150.054733 18.5152626
      20.8731575 15.0173683 21.5857887 16.8957901 150.705795 19.1563148
      16.4694729 150.406845 15.2089472 14.4715786 153.177887 16.8852634
      21.0452633 149.306839 18.6957893 20.1157894 14.8678942 22.6399994
      17.158947 150.702103 17.5784206 16.7852631 149.983673 14.96
      15.218421 152.712631 17.1242104 22.8021049 149.298416 18.856842
      19.2000008 13.9621048 22.5273685 17.436842 148.074738 18.9889469
      17.6121044 150.166321 15.0573683 15.7421055 152.82843 17.8694725
      22.4394741 148.96579 19.563158 19.2421055 14.0852633 22.5357895
      16.5663166 152.080002 15.7747364 16.6742096 150.707901 14.7447367
      15.4994736 152.945786 17.9626312 24.0878944 148.44368 19.6915798
      19.047369 13.4742107 21.5857887 16.4484215 157.418427 12.0768423
      17.0010529 151.276321 14.8873682 16.0573673 153.488419 18.6952629
      24.9194736 148.741577 20.5089474 18.9700012 13.7615795 21.3994732
      16.6126328 159.792099 9.89315796 17.0857887 151.594742 14.6947374
      15.8921051 154.053162 18.5621052 24.8231583 149.840012 20.0831566
      31.3836842 18.4978943 19.9799995 22.9142113 87.7099991 28.0757885
      22.6273689 130.202103 21.0484219 23.3289471 134.158951 22.7431583
      31.1073666 131.846848 23.440527 19.8500004 14.0205269 21.9568424
      15.7700005 162.376312 8.79421043 17.2673683 151.533691 15.8926315
      16.5047379 153.565262 21.1010532 28.1347351 147.356308 23.0168419
      18.8878956 13.6889477 21.9200001 15.3210526 162.829483 7.6126318
      18.0152626 151.167374 16.996315 17.5636845 153.393158 23.2610531
      28.6147366 147.520004 24.5100002 20.7989483 12.8873682 17.0347366
      15.0247364 163.050003 8.22105217 19.638422 150.741577 21.7489471
      21.1084213 151.407898 30.5426311 32.4699974 144.668945 31.155262
      31.0426311 16.2526321 13.6331577 19.6042099 139.8479 9.84315777
      22.4899998 139.097366 20.5121059 25.1910515 136.428421 26.2773685
      37.2700005 130.773682 27.4084206 22.2210541 11.0231581 14.1473684
      15.3505268 159.813156 9.80578899 22.8005257 147.68158 36.0805283
      25.0331573 149.261581 40.6168404 37.3778954 141.363159 37.5978966
      25.5810528 11.4073687 13.6842108 16.7321053 158.213165 12.0515795
      24.9215794 145.869476 54.7242088 28.4868431 145.986313 53.3157883
      40.3068428 137.619476 46.8489456 25.7999992 12.21 16.0100002
      15.5799999 160.300003 10.3699999 23.9200001 146.990005 41.9099998
      27.5499992 146.949997 46.6800003 38.4700012 140.220001 40.1699982</_>
    <_>
      30.4099998 14.4499998 19.3299999 13.9099998 161.589996 18.8500004
      27.2800007 145.410004 63.6300011 34.3199997 142.119995 63.3100014
      40.1899986 139.559998 48.7200012 28.4994736 13.9789476 17.7278938
      13.7742109 161.24527 20.3342113 27.9531574 145.305786 68.7947388
      34.4005241 142.705795 64.9178925 39.2478943 140.965256 48.6152649
      27.5721054 13.8052635 18.3205261 13.8984213 160.695786 22.4773693
      28.4499989 144.787888 69.8115845 35.106842 142.016327 65.8263168
      41.026844 139.317886 49.8352623 27.4536839 14.3500004 17.7752628
      14.1368418 161.013153 22.7242107 28.2594738 145.168945 71.4526291
      34.9399986 142.31105 66.8778915 40.8073692 139.521042 51.7442093
      28.0457897 14.1684208 17.8984222 14.1852627 159.863159 23.0973682
      29.1242104 143.98999 74.3410568 35.8626289 141.285797 68.2952652
      42.4968414 138.111588 54.1094742 27.4615784 14.0284204 18.6357899
      14.4152632 160.608948 24.7378941 28.7115803 144.947891 77.7721024
      35.2163162 142.335266 69.7052612 41.5768433 138.883682 54.2242126
      26.6278954 13.6705265 17.9410534 14.6278944 160.653168 24.6157894
      28.595789 145.345779 81.3952637 35.1110535 143.021576 70.9221115
      40.7221031 140.277374 55.2578926 27.3205261 13.8621054 18.4310532
      14.9700003 159.7621 25.3236847 29.3115788 144.060532 82.6168442
      35.5352631 141.74527 70.7989502 40.4436836 139.783676 53.4873695
      27.7994747 14.0684214 18.634737 14.9810524 159.926849 23.5426311
      28.7510529 144.440521 75.1384201 35.0831604 142.02684 65.7194748
      40.6805267 139.502625 49.821579 26.273159 13.8978949 17.8636837
      15.1489477 159.295258 29.813158 30.2368431 143.683685 88.4694748
      36.5936852 141.484741 75.4068375 43.1563148 137.785782 60.0200005
      26.2068424 13.6400003 18.1731567 15.8489475 158.116318 30.3657894
      29.8242111 143.300522 88.4547424 36.3726311 140.939468 73.9110489
      43.473156 136.754211 59.7178955 27.8242111 13.9173689 18.333683
      14.5731583 161.182632 22.2242107 27.9878941 145.496323 71.9678955
      34.3947372 143.045258 63.9789467 40.7294731 140.097885 49.8589478
      27.5452633 14.0057898 17.6342106 14.3868418 161.416321 23.4463158
      27.5 146.362625 68.4668427 33.4099998 144.385788 61.9268417
      41.8994751 139.175262 51.1599998 26.1163158 13.8557892 18.9915791
      13.8194733 161.415253 20.8905258 27.1084213 146.523697 63.4610519
      32.7673683 144.820007 60.3736839 39.3552628 141.246841 48.0710526
      26.2426319 14.1926317 18.7768421 13.916316 161.621582 18.5663147
      26.6852627 146.426834 54.7200012 31.7399998 145.085266 52.3905258
      35.9742088 143.731049 40.1278954 26.8447361 14.3468418 20.0478954
      13.0021048 161.979996 18.5442104 26.5926323 146.238419 48.7468452
      30.9415798 145.553162 48.666317 35.496315 144.087891 38.8515778
      25.8668423 15.0457897 20.1442108 13.7515783 162.518417 14.1668415
      26.5452633 146.338943 36.6873665 29.9236851 146.381577 39.0263138
      30.5531578 148.227371 30.3578949 23.1763153 14.8163157 20.0268421
      12.7515793 166.336853 8.88000011 23.5447369 149.382629 21.5210533
      24.3294735 151.571579 25.5689487 25.1884212 153.762619 21.2921047
      20.3605251 14.9731579 18.4921055 14.9505262 167.669479 4.44210529
      21.9626312 150.447891 13.6094742 20.5757885 153.404221 17.2636833
      21.722105 155.449997 16.0773678 21.5699997 14.0200005 16.1200008
      16.6000004 162.550003 6.80999994 21.1200008 147.460007 12.4700003
      17.6700001 151.380005 14.9099998 17.6000004 154.029999 14.9200001</_>
    <_>
      26.2900009 12.4099998 3. 14.25 13.6599998 5.13999987 10.8699999
      23.5 11.25 11.7200003 24.2299995 12.4399996 10.6599998 17.25
      12.4099998 27.1915779 12.8805265 4.79999971 12.8831577 9.96263218
      1.65473688 7.44631577 16.5494728 4.38894749 6.99684191 17.8342113
      6.92210531 7.18631554 12.7242107 8.44368458 27.6094742 12.8647366
      5.69052649 11.6042099 7.54052591 0.925263166 5.66210508 12.2821045
      1.72684205 4.98315811 12.5678949 4.30210495 6.05368423 8.07052612
      6.38684225 26.7047367 12.118948 6.21105289 10.9926319 6.18263149
      0.82157892 4.73631573 10.2273693 0.721578956 3.52368426 10.2194738
      3.00999999 3.92315793 5.69736814 4.85157871 26.3221054 11.4099998
      6.6657896 10.047368 5.21421051 1.03894734 4.37684202 9.17947388
      0.689473689 3.54947352 9.19368362 2.53947377 3.29368424 4.46421051
      4.00263166 25.3178959 10.2963152 7.73157883 9.62052631 4.96157885
      1.23315787 4.24368429 8.76052666 0.604210556 2.9742105 8.64421082
      2.1500001 2.27157903 3.98842096 3.353158 25.3557892 9.89842129
      7.29578924 9.14894676 4.57421064 1.31736839 4.0142107 8.29315853
      0.671578944 2.86684227 8.05684185 1.81105256 2.09894753 3.84105253
      2.90894723 23.877367 9.35157871 8.03631592 9.35578918 4.74578953
      1.37684214 4.55105257 8.36052608 0.75 2.67052627 7.94631577
      2.20000005 1.34105253 4.12684202 3.39473677 23.1563168 9.400527
      7.92368412 9.41789436 4.51947355 1.45263159 4.73473692 8.00052643
      0.903684258 2.54315782 7.73105288 2.5468421 0.766842067 4.55000019
      3.70263147 22.2421055 8.56842041 8.88368416 9.57368374 4.62526321
      1.4636842 4.88947344 7.87105274 1.0621053 2.25368428 7.25789452
      2.57842112 1.14157891 4.38789463 3.56526327 22.0652637 8.6421051
      9.39947319 9.92000008 4.7357893 1.38999999 4.99263144 7.85631609
      1.0105263 2.15789485 7.23578978 2.61526322 0.426842093 4.5794735
      3.83052635 22.0926323 8.83736897 9.11894798 10.2089472 5.07368422
      1.39157891 5.11526346 8.02157879 0.904210567 2.198421 7.51578951
      2.5999999 0.130526319 4.64578962 4.03736877 21.627367 8.68052673
      8.69263172 10.7989473 5.54157877 1.46263158 5.48315811 8.40578938
      1.22736835 2.20947361 7.93631554 2.98263144 0.559473693 5.21052647
      4.39315796 21.6515789 8.55526352 7.76210546 10.8284216 6.25894737
      1.7652632 5.48684216 8.67947388 1.78526318 2.1610527 8.35473728
      3.41473699 1.12210536 5.57736874 5.00052643 22.643158 9.15947437
      7.14315796 11.0747366 6.91789484 1.84105265 5.35421038 8.71947384
      2.06526327 2.00947356 8.08947372 3.62315798 1.48842096 5.05105257
      5.01736832 22.900526 9.22842121 6.73315811 11.1652632 7.26157904
      2.07210517 5.56210518 9.28421116 2.23105264 2.45631576 8.47999954
      3.54263163 1.44210517 4.6268425 4.73105288 22.5015793 8.83842087
      6.81210518 11.2563162 7.96631575 2.50526309 5.6610527 9.93578911
      2.78263164 2.78578949 9.13052559 4.00526285 2.60842109 5.24894714
      4.93315792 22.0163155 8.67263126 6.35157871 11.396842 8.32421017
      2.96157908 5.90684223 9.85157967 3.12789488 3.12684202 9.51789474
      4.69421053 3.61105251 5.57947397 5.20684195 22.3510513 8.63052654
      7.58421087 11.5547371 8.56842136 2.83105254 5.89631557 9.82736874
      2.96368408 3.32999992 9.77578926 4.50052643 5.02157879 6.3626318
      4.74368429 23.0599995 8.55000019 8.77000046 12.3699999 8.02999973
      2.20000005 6.53000021 10.0799999 2.54999995 4.5 10.6099997
      4.23000002 7.65999985 6.76000023 3.8599999</_>
    <_>
      29.1900005 10.1300001 7.03000021 10.4700003 5.9000001 1.63
      5.01000023 9.61999989 0.800000012 2.6500001 8.09000015 0.579999983
      2.9000001 3.75 2.07999992 28.9452629 10.2294741 6.39421034
      10.091053 5.71947384 1.61052632 4.78947401 9.52578926 0.70947367
      2.81421065 8.22789478 0.63789475 2.88842106 3.63421059 2.07000017
      28.7794743 10.2773685 6.26263189 10.2431583 5.56263161 1.5257895
      4.92263174 9.33578968 0.80105263 2.79421043 7.89315796 0.981578946
      3.21736836 3.46315789 2.3389473 28.7410526 10.4389477 5.7173686
      10.0563154 5.5 1.58368421 4.87736845 9.30684185 0.814210534
      2.86421037 7.99105263 1.01578951 3.00736833 3.40999985 2.28526306
      28.1457882 10.3584213 5.58631563 10.1300001 5.46157885 1.78842115
      5.05894709 9.18947411 0.901578963 3.01736832 8.03736782 1.15421057
      3.06736827 3.45894742 2.29263163 28.9747372 10.7205267 5.81631565
      10.1926317 5.31999969 1.52631581 4.93052626 9.09947395 0.767368436
      2.6773684 7.73473692 0.913684189 2.95368433 3.2547369 2.2242105
      28.650526 10.6526318 5.5842104 10.1463156 5.48315811 1.32894742
      4.9015789 9.36052608 0.677894771 2.36526322 7.74421072 0.605263174
      2.54894733 3.32684207 2.13631582 27.6715794 10.8405266 4.31842089
      9.81894779 5.1500001 1.72263157 4.96473646 8.93263149 1.01947367
      2.95684218 7.64368439 1.30473685 2.84421039 3.34157896 2.39421058
      28.1763172 10.7131586 4.77157927 9.66631603 5.23263168 1.70789468
      5.01052618 9.05368423 0.855789423 2.85210514 7.78842115 1.23578954
      2.58684206 3.60631585 2.56105256 26.5384216 9.86105251 4.2684207
      10.0047369 5.1594739 1.83526325 5.43105268 8.81842136 1.08842111
      2.76421046 7.46578932 1.50263155 2.30105257 3.7968421 2.52421045
      26.1842098 9.02894688 5.66789484 10.4694738 4.98157883 1.65526319
      6.16157913 8.53473663 1.29421043 2.89473701 6.9815793 2.06368423
      1.6563158 3.89263153 2.8436842 27.0099983 8.67421055 6.56526327
      10.3631582 4.86684179 1.896842 6.25789499 8.27157879 1.36052632
      2.77736855 6.77421045 2.08263159 1.15210521 3.63368416 2.60421038
      32.4742088 8.98052597 7.03526354 10.3100004 4.51578951 1.84631574
      5.6936841 7.35578966 1.32052636 2.47736835 5.71789455 2.38736844
      3.18157911 3.39473677 2.60052633 30.8105259 8.59947395 8.22684193
      10.8605261 5.11736822 1.65315795 5.79000044 8.35157871 1.06631577
      2.40894747 6.36473703 1.78999996 2.65368438 3.67315793 2.72052622
      36.9268417 10.1421051 7.61736822 10.8563156 5.26210499 1.96842098
      5.30052614 8.08789444 0.813684225 2.29789472 6.14105272 2.62736845
      6.71684217 2.93894744 2.12684202 27.4157887 8.10631657 9.18736839
      11.4910526 5.13894749 1.67947364 6.22789478 8.49631596 1.45578945
      2.45368433 6.42368412 1.94684219 2.01947355 3.44473696 2.88684201
      27.0673676 7.99315786 7.7031579 11.868948 5.02842093 1.68210518
      6.4905262 8.44315815 1.55526316 2.38789463 6.34105253 2.1242106
      1.68368423 3.25947356 3.08315778 27.54842 7.68210506 7.65526295
      12.1526318 4.96210527 1.6147368 6.53894758 8.25684261 1.39473689
      2.39631581 6.08736849 1.89684212 1.86263156 3.02894735 2.87999988
      27.2015781 7.9668417 6.32105255 12.2352629 4.67999983 1.31842101
      6.61421061 8.05105209 1.19210529 2.19052649 5.75421047 1.68000007
      1.65999997 2.86263156 2.63421059 28.3099995 7.69999981 7.15999985
      12.3599997 4.76999998 1.48000002 6.6500001 8.27999973 1.26999998
      2.3599999 6.0999999 1.70000005 1.33000004 2.8499999 2.6099999</_>
    <_>
      32.1399994 12.1800003 4.59000015 13.9099998 6.3499999 0.430000007
      6.67999983 9.47000027 1.13 2.1400001 7.42999983 1.97000003
      2.71000004 3.33999991 2.94000006 32.1315804 12.440526 4.27368402
      13.7568426 6.50526333 0.715789497 6.49263144 9.8247366 1.41947365
      2.52315784 7.82105255 1.85631585 3.16052651 3.47105265 2.95842099
      33.1521034 11.9968424 4.26789474 13.9110527 6.30368423 0.862631559
      6.55421066 9.57368374 1.51105261 2.27052641 7.87105274 2.02684212
      2.77368426 3.54947352 2.96157908 32.8026314 11.916316 4.19999981
      14.0226316 6.50315762 0.735789478 6.57736826 9.86000061 1.50684214
      2.40789461 7.91315794 1.63947368 3.38684225 3.30736852 2.53736854
      32.8068428 12.9805269 4.43052626 13.7021055 6.56842089 0.896842122
      6.54421043 10.0257893 1.80631578 2.54263163 7.86999989 1.69052625
      3.52421045 3.40894723 2.53947377 32.9542122 12.6910524 4.46368408
      14.1115789 6.38105249 0.61210525 6.66210508 9.71157837 1.37473679
      1.94947374 7.4905262 1.55894732 3.10052633 3.74000001 2.51210523
      31.5752621 12.3421059 4.70526314 14.2336836 6.11631584 0.707894742
      6.63000011 8.94263172 1.36368418 1.84526312 6.28999996 1.01105261
      4.10105276 2.99473691 1.88894737 31.1805267 12.5505266 4.82894754
      14.6584206 5.56315804 0.914210558 6.73947382 7.95526314 1.43421054
      1.70789468 5.7031579 1.52842104 5.396842 3.11842108 2.22684216
      35.2031593 13.0168419 5.39578962 14.9331579 5.84578943 1.35263157
      6.99578953 8.11105251 1.89421046 2.34526324 6.26842117 1.96789467
      6.11421061 3.62736845 2.14210534 36.1984215 12.3978949 5.02421045
      14.5215788 6.08157873 0.96421051 7.01157904 8.18736839 0.997894704
      3.30105281 7. 2.31894732 6.13157892 4.76947355 2.48789477
      32.980526 12.0368423 4.0705266 14.7526312 7.58263159 1.09631586
      8.06421089 10.0015793 1.07421052 3.99315786 8.74631596 2.68000007
      4.9578948 5.33736849 2.95421052 37.5178947 13.4152632 3.96789479
      15.6994734 7.82263184 3.56315804 7.31473684 8.98210526 1.46000004
      6.32684231 7.53052664 2.80421042 12.1499996 4.7452631 1.34473681
      33.6573677 12.1736841 2.25368428 16.8510532 27.8368416 15.8226318
      11.075263 16.0273685 2.8110528 7.74999952 14.2563162 4.12052631
      8.10736847 7.12210512 2.97210526 41.9994736 12.325263 4.78526306
      16.1415787 16.3126316 9.12315845 10.0721054 12.7642107 2.78947377
      10.7663155 9.95052624 5.56789446 15.2905264 5.99421072 4.22631598
      35.5094757 13.1978951 2.61421061 17.0563164 42.9289474 25.9231567
      9.99684238 15.0926313 4.36631584 7.79315758 14.4184217 7.25578928
      13.234211 9.58684254 4.54736853 33.5831566 11.8857899 3.90578961
      14.8447371 11.6573687 2.90736842 9.53684235 17.265789 4.98052645
      8.45263195 20.4773693 9.19210529 12.6026316 15.4731569 5.06631565
      36.1915817 11.2452631 6.14052629 16.4610519 11.872632 6.3342104
      10.4452629 19.9389477 10.2236843 7.93421078 21.0521069 15.8036842
      14.6994743 17.0747375 10.702632 45.4542122 9.17578983 5.5284214
      13.3505259 15.0352631 8.62631512 11.2000008 21.3731594 12.8605261
      9.69526291 26.337368 15.5173683 12.9310522 19.5578938 15.8263149
      29.905262 10.4584217 4.07157898 20.3299999 7.19526339 3.38263154
      15.9326315 18.0305271 5.73736811 13.325263 22.984211 10.1157894
      13.9589472 21.6126308 8.94000053 42.1300011 8.39000034 10.1000004
      12.2700005 10.1499996 7.17999983 12.04 21.2099991 6.86999989
      11.3199997 28.3899994 9.94999981 11.5200005 19.0499992 10.8299999</_>
    <_>
      27.1800003 15. 11.8100004 17.6000004 16.4599991 12.7299995
      17.3600006 31.5499992 49.4799995 18.1299992 40.9000015 63.8300018
      16.5100002 50.5999985 71.8099976 26.361578 15.2036848 12.8805265
      17.7700005 16.7121048 10.0305262 17.4173679 31.1521053 44.3389473
      19.2210522 40.6089478 61.1131554 18.0978947 50.5163155 68.9878922
      27.2689457 14.7668419 13.0831575 16.003685 16.6931572 11.8794737
      15.6752634 30.9115791 49.3847351 17.2673683 42.9489479 68.0505295
      16.3857899 52.1921043 76.0979004 26.7042103 14.8152628 13.059473
      16.9694748 16.769474 11.4221048 16.571579 31.1221046 45.151577
      18.0752621 42.8742104 63.0357895 17.2531586 53.3294754 70.2815781
      26.872633 15.325263 13.0405264 16.4589462 16.3478947 10.8084211
      16.2078953 30.3289471 45.3678932 18.3736839 40.0042076 62.2163162
      17.5657883 45.5831566 72.432106 27.5336838 14.884737 12.777895
      16.5368423 17.1810513 10.313158 16.2642117 31.1452637 45.8268394
      18.4826317 41.3768425 63.7200012 17.900526 49.0384216 73.2968445
      27.6963158 14.7152634 12.3900003 17.0515785 16.3657894 10.3715782
      16.3242111 30.7610512 44.1057892 17.6836834 41.3184204 63.2726288
      16.4810524 48.3721046 73.6257858 27.5468426 15.0810528 12.9752626
      16.4978943 16.4910526 10.0663157 15.7215786 30.4326324 44.6989479
      17.6268425 40.2194748 62.9852638 17.0121059 46.360527 74.6005249
      26.3273678 14.5057898 12.4263163 17.0810528 15.8815794 9.55473709
      16.1668415 31.1789474 45.8621063 17.5936852 40.1642075 61.2436829
      16.4157887 47.8321075 72.8047409 25.8973694 14.8905258 13.1673689
      17.277895 16.3926315 10.9515791 16.4142094 31.0463161 44.6942101
      17.5331573 41.8231583 61.9278946 16.2231579 54.0010529 71.5236816
      27.4905262 14.1478949 12.3163157 16.3915787 15.8063154 11.8415785
      15.4652634 30.6726322 48.602108 16.452631 42.2115784 65.4342117
      15.4942102 50.0105247 74.8036804 25.4731579 13.9073687 12.0526314
      17.6894741 15.9747372 10.1715784 16.6973686 32.2205238 47.9621048
      16.9752636 44.3421059 65.0310516 15.6631584 54.9478951 71.2910538
      26.893158 13.9610519 12.1057892 17.2242107 15.5110521 12.5021057
      16.4942112 32.4157867 53.4799995 16.7436848 44.4936829 67.6289444
      15.6184216 51.7094727 73.663681 26.5668411 13.7178946 11.5321054
      17.1373692 15.9763165 13.2268419 16.4010525 32.9036827 53.0178947
      16.5057907 43.9994736 68.0021057 15.1268425 53.0210533 74.1078949
      26.2231579 13.543684 11.1163158 16.2436848 15.059474 12.4105263
      15.5810528 32.0957909 54.4221039 15.7447367 44.5542107 69.182106
      14.3031578 53.0421028 75.5842133 26.0236835 13.5105267 11.9710522
      16.8500004 15.5468416 13.6899996 16.4342098 33.8173676 58.0142097
      16.2373676 47.4642105 69.6157913 14.6394739 55.99263 73.6057892
      25.6010532 13.5478945 11.4189472 16.4926319 15.297368 13.2421055
      15.8768425 32.5299988 54.3926315 16.1263161 44.087368 67.4268417
      14.9294739 51.6089478 74.3026276 26.4931583 13.4273691 10.781579
      16.293684 15.0921059 13.8384209 15.7915792 32.5394745 59.1210518
      15.5657892 45.5115814 72.2742081 13.8642101 52.817894 78.1084213
      26.2773685 13.4026318 11.1373682 16.4252625 15.3305264 14.1478949
      15.9610529 33.6973686 59.4815788 15.7742109 45.6463165 70.4573669
      14.3631573 52.9036865 75.7878952 26.4400005 13.3400002 9.77999973
      16.9200001 15.9300003 15.0799999 16.6800003 34.1199989 61.2099991
      16.6599998 46.0299988 71.0500031 14.8199997 53.5499992 76.0400009</_>
    <_>
      27.5 9.90999985 6.53999996 18.1100006 19.4099998 21.8600006
      16.2099991 43.2200012 58.1800003 11.96 54.4700012 67.0599976
      10.4399996 55.6699982 70.3300018 28.2078953 9.41052628 5.61368418
      18.4678936 21.0742111 23.6878948 16.3263149 46.496315 59.5373688
      11.8315783 56.6542091 66.8394699 11.0142107 56.1405258 70.0278931
      28.8068409 9.20526314 5.95263147 18.70158 21.2036839 22.2710533
      16.5021057 47.9773674 60.273159 11.547368 59.075264 67.7763214
      10.456316 56.4457893 70.3721008 29.2984219 9.16368389 5.67157936
      18.5184212 22.7231579 27.2663155 16.4789467 50.9242096 64.2257919
      11.448947 61.5521049 70.4521027 10.2689476 59.2894745 73.4410553
      28.4152622 8.95947361 5.4157896 17.6657887 20.9236832 26.3042107
      15.8068428 48.4789467 64.8442078 10.7115793 57.9215813 71.060524
      10.1173687 57.2047386 72.6157913 29.2194748 9.09473705 5.61000013
      18.2752628 21.9205265 27.5526314 16.2910519 50.7973671 65.2373657
      11.0021048 61.8310547 71.0236816 9.41368389 58.6126328 73.7047424
      28.5521049 9.32842159 5.2078948 17.599474 21.2236843 27.0621052
      15.6426315 47.6289444 65.1426315 11.1263161 59.0584183 71.4215775
      10.2052631 58.2105255 73.3278885 28.1599998 9.5152626 6.28526306
      17.5605259 20.5257893 25.4573689 15.4047365 46.8742104 63.6326332
      10.7542105 58.1847382 71.2452621 9.97947407 58.9421043 73.0410538
      28.9157906 9.07315826 6.07526302 17.9605255 21.4947376 26.4147358
      15.9878941 48.2878952 65.0494766 11.1300001 59.314209 71.4610519
      10.2763157 57.5115814 73.821579 28.1257896 9.33052635 5.5984211
      18.2089462 21.0084209 25.1515789 16.2394733 47.0210533 64.2847366
      11.4626312 58.3163147 71.0021057 10.0673685 57.4457893 73.9731598
      29.2752628 9.11684227 6.12157917 18.5700016 24.110527 30.3905277
      16.1584206 52.5105286 65.4784241 11.0131578 61.9121056 71.4515839
      10.1263161 59.0521049 74.7689514 28.4410534 8.96105194 5.95105267
      17.5094738 21.6342106 27.1863155 15.6147375 49.9936867 65.8484192
      10.7136841 59.9147377 71.0305252 10.4373684 59.6610527 72.3231583
      27.9463158 8.93736839 6.22736835 17.1142101 22.7626324 30.7599983
      14.9589472 50.3947372 66.9636841 9.84263134 61.360527 72.5205307
      9.75368404 59.6868439 74.1568375 29.8610535 9.55947399 5.99631596
      17.9289474 24.0689487 30.2642117 16.2089481 49.4621048 63.1547394
      11.722106 57.852108 69.7126312 11.23421 57.6426315 73.2242126
      31.2526321 10.6289473 5.78368425 17.7331581 25.1994724 32.9547386
      16.2468414 49.3168411 63.0263176 12.5284204 55.5299988 68.7063141
      12.7584209 57.0321045 74.5968399 28.893158 8.70421028 4.93894768
      17.6363163 26.8784218 39.5526314 15.2699995 55.7589455 68.9878922
      10.0221052 61.9557915 73.4300003 10.2178946 59.4710541 75.353157
      28.4847374 8.58947372 5.54105234 17.9605274 27.0873699 39.6994743
      15.3842106 54.6094742 67.9521103 10.0578947 60.1152649 73.9610519
      10.2057896 55.5284233 76.6200027 28.7310524 8.63368416 5.90736866
      18.071579 26.1789474 34.147892 15.7310524 53.4910507 66.2405243
      10.6389465 60.7852631 72.2731628 9.93105316 57.3005257 74.1752625
      28.1373672 8.57789516 5.5326314 17.7515793 24.7168427 32.1721039
      15.4173679 52.5110512 64.981575 10.3557892 60.2189484 71.828949
      9.91315746 55.5721054 72.893158 28.0499992 8.47000027 5.07000017
      17.4400005 25.2000008 34.1100006 14.8299999 49.9799995 65.0599976
      9.89000034 58.7000008 72.0100021 9.89999962 56.5299988 73.9300003</_>
    <_>
      61.5099983 19.3400002 8.35999966 10.6099997 5.23999977 10.3100004
      1.07000005 7.44999981 8.14999962 10.6099997 5.05000019 9.60999966
      19.7800007 3.66000009 14.9899998 51.1015778 18.6689472 8.57105255
      10.3815794 12.1915789 20.8752632 6.32842112 18.8315792 25.0821056
      11.5415792 18.3615799 25.0568409 16.6368427 12.9742098 19.4578953
      40.4657898 18.0489464 8.57999992 9.14842033 21.9542103 29.2673683
      9.74315834 31.8821049 41.8463135 12.6921053 34.3557892 46.2336845
      17.7894726 31.3789482 45.3863182 48.9763145 19.2447376 8.21526337
      10.0426311 16.666317 24.1915779 7.36684227 25.980526 33.4600029
      11.7336845 27.9378948 38.5615768 19.277895 28.6705265 42.8094749
      60.1889458 19.4242115 9.76631641 11.2994738 7.61789465 12.9063158
      2.04947376 12.3436842 10.436842 10.6494741 10.6521053 10.0568419
      19.9342117 9.26473713 10.5284214 51.1326294 19.2600002 7.76999998
      10.7663155 10.3073683 15.7405262 5.88789463 17.1815796 19.8536835
      14.2073689 16.817894 19.1778946 22.1257896 15.6184206 20.4584198
      37.5989494 45.094738 13.3773689 19.8536835 21.2642097 25.0599995
      19.433157 18.5705261 25.7342091 18.4615784 14.8510523 28.1584206
      15.4294739 15.8084211 20.0021057 56.0389442 21.9699993 8.85368443
      9.91315842 17.9421043 26.1015797 4.90105247 25.297369 26.2284203
      12.8842106 24.0752621 31.7468414 21.5810528 20.3852634 30.3647366
      39.6300011 21.9621048 7.88368416 15.5326309 21.3799992 35.3305283
      12.1099997 29.4799995 35.2615776 13.4100008 28.520525 29.594738
      17.5463161 22.1273689 21.2700005 50.6457901 21.8905258 8.24736786
      36.7763176 15.7205267 9.36421108 22.7763157 19.5831585 3.37368417
      16.769474 20.0831585 6.57315826 21.066843 14.4689474 4.18789482
      45.3310509 18.2184219 6.65052605 39.6463165 17.4668427 8.48631573
      29.9021053 22.8252621 3.05631566 24.9689465 25.4568424 4.67842102
      21.3273678 18.5105267 3.27052617 38.491581 16.7052631 6.1126318
      39.6831589 18.0699997 9.70473671 32.7973671 25.3594742 2.67421055
      31.2178955 27.0384216 3.78105259 24.9868431 19.7852631 4.57000017
      38.262104 17.0552635 2.21789479 43.8321075 16.9584217 11.3857899
      33.0026321 24.9263153 6.23631573 25.9400005 26.2089481 8.72789478
      19.4352627 19.9636841 7.40578938 50.428421 20.0094738 4.17157888
      39.5647392 15.8147373 7.06684208 24.6436844 26.190527 5.78473663
      11.841053 42.825264 16.7226315 18.6247368 33.9031563 10.6657896
      51.3963165 21.349474 4.8952632 40.7910538 16.8063164 6.74263144
      25.8278942 28.6294727 2.67894745 10.4957895 47.5657883 12.3442106
      21.8452625 41.4136848 9.23736858 53.325264 21.7110519 3.30894732
      40.2642097 16.6721058 7.17736864 25.0552616 23.5989475 5.25789452
      11.2236843 29.5263157 10.7005262 20.8673687 24.0257893 8.88526344
      54.9763145 24.3610535 5.42999983 39.5600014 16.7589474 6.41789484
      21.7636833 28.2447376 2.03421044 15.4678946 86.2305298 16.7073689
      39.400528 59.9531593 12.4168425 55.1794739 20.6326313 6.60526323
      39.6189461 16.8163166 8.92210484 25.9336853 31.0052624 5.13789463
      20.46842 78.0763168 18.3563156 46.4952621 54.7636833 17.1752644
      49.9721069 24.3715801 6.10684204 39.3742104 17.1447372 6.00842094
      27.1584225 28.1426315 2.41210532 18.1305256 66.0626297 21.2389469
      29.6805267 50.3842087 10.3894739 52.4799995 24.75 7.6500001
      40.6100006 17.8799992 5.63000011 28.75 30.1499996 1.37 16.6299992
      79.8700027 27.1299992 28.6499996 60.2200012 9.05000019</_>
    <_>
      30.75 34.5299988 10.8900003 17.4099998 33.9799995 44.6599998
      11.4300003 72.5199966 30.4400005 15.6300001 70.4000015 31.8999996
      22.2199993 64.8799973 30.7999992 46.5457878 38.3263168 4.63947392
      15.4694738 32.1805267 53.3389473 9.21000004 54.3363152 49.4836807
      13.6521053 60.9810524 45.3673668 19.0478954 59.9531593 44.8715782
      44.2257881 27.5984211 6.85894728 14.1605263 27.190527 35.7915802
      13.7447376 48.1763153 44.4010506 17.3610535 45.5963173 38.3142128
      18.5552635 33.223156 34.0921021 24.0642109 18.4526329 6.09947348
      40.6363182 19.7705269 9.11421013 40.0868416 27.2121067 1.84736848
      45.0026283 32.3752632 4.91473675 44.2136841 25.3205261 5.31368399
      30.1410522 18.9410534 4.50105286 41.3457909 19.519474 10.1715794
      41.8210526 28.9984207 2.8342104 43.5831566 35.3594742 4.88947344
      39.1594734 28.7763157 5.25684214 45.3021049 23.9663162 6.12789488
      41.8789482 15.6252632 8.62894726 30.7568417 27.896843 3.69789457
      25.396841 62.9773674 17.9857903 27.1405258 45.7878952 12.6305265
      51.3742104 19.9400005 6.89421034 36.3847351 22.0863152 16.1936836
      26.4789467 35.5252647 15.2405262 21.7810535 77.0405273 25.7963161
      27.8015785 60.2626343 15.3200006 31.4889488 23.1226311 5.93263149
      34.7236824 26.5457897 21.9821053 35.2421036 36.6421051 17.5984211
      38.841053 36.2436829 17.0789471 36.9231567 26.6968422 17.1763172
      26.5942116 21.4984207 4.1500001 36.4715805 21.7284203 18.4673672
      30.631052 37.1257896 10.1489477 32.9184189 45.9331589 13.1073685
      30.1415787 40.0299988 9.98210526 40.515789 39.6610527 5.86999989
      18.0210514 32.844738 49.9531593 11.0415783 60.0142097 41.4605255
      14.8721056 59.7015762 42.8615799 21.0100002 51.7542114 42.5915794
      40.1578941 26.5884209 7.13052654 20.9584217 36.6510506 46.412632
      19.7010536 52.1789474 42.1410522 24.0889473 48.9626312 39.1710548
      24.7842102 36.7163162 39.9494743 22.53158 17.6631584 5.25263166
      39.4378967 18.8273697 12.0926313 34.9605255 28.1036835 4.44157887
      40.1668396 35.7315788 6.67157888 38.1489487 28.5515785 2.58263159
      32.1152649 21.5052643 3.6705265 33.9894714 25.1678944 27.2489471
      28.5347385 37.2363167 20.5731564 29.4121056 62.0047379 35.1510544
      23.6057892 51.3100014 20.615263 26.1084213 19.0205269 7.07894754
      34.1942139 26.0189476 16.893158 36.9363174 34.841053 10.603158
      46.1321068 35.3805275 12.3305264 48.2131577 27.0847378 10.2647362
      25.5452633 18.174736 2.41000009 36.4015808 21.2136841 13.7005262
      32.6252632 30.7542114 4.69315767 38.8163147 40.8752632 9.3578949
      38.4831581 34.106842 4.12631607 44.7515793 36.3221054 5.19263172
      23.0305271 33.0205269 51.2310524 13.8994741 56.0405235 44.4268417
      13.4605255 60.7294731 44.9231567 17.8378944 57.4368439 43.8394737
      34.7521057 23.9194736 6.93105268 21.1642113 33.7968445 40.5752602
      20.2278957 47.9668427 33.7952614 27.3715782 46.6136856 32.1805267
      30.0731583 33.9621048 30.8389473 25.8321056 18.7252636 3.56000018
      36.6399994 19.5699997 12.1547365 35.762104 28.3557892 3.79789472
      43.4847374 41.7721062 9.70052624 44.5536842 32.2926331 2.80421066
      42.54105 19.0142117 2.4626317 48.9700012 15.1857901 8.34526348
      38.9442101 21.3673687 6.34105253 31.9315777 23.7726326 6.86736822
      23.1215801 17.2889481 4.71105242 25.8400002 14.9799995 5.36000013
      14.2299995 7.01999998 2.55999994 6.84000015 10.3699999 3.88000011
      11.8500004 11.8900003 4.96000004 19.0300007 12.9700003 5.96999979</_>
    <_>
      34.8800011 30.1299992 2.77999997 11.25 2.29999995 0.670000017
      12.2200003 4.28999996 5.80999994 15.2700005 3.07999992 6.73000002
      21.0900002 4.09000015 1.84000003 37.75 21.1631584 15.2957897
      14.5031576 28.2094746 89.1699982 13.4694738 37.6526299 74.4478989
      14.4321051 36.4063148 72.0010529 14.8047371 26.6794739 72.6942139
      39.2815781 21.4389477 15.4389477 14.4063158 30.842104 94.5331573
      13.4463158 50.5389481 74.7731552 13.8742104 49.6052628 72.9421005
      14.1394739 34.1794739 79.8384247 37.9526329 22.1415787 16.6368408
      16.5263157 26.3589478 78.1684189 15.1342106 37.7715797 69.4810486
      15.9173679 37.4615784 69.5831604 15.7610521 32.3221054 72.7315826
      39.4699974 21.8842106 14.8147373 15.7810526 28.0821056 80.7157898
      15.0015793 42.015789 69.9273682 16.0947361 45.3189507 69.4221039
      16.2789478 40.3063164 74.863678 37.1994743 21.6131573 16.2947369
      15.8147364 26.4384212 78.0300064 15.0894737 39.0773697 70.2505264
      15.9421053 40.2942085 70.5184174 16.2805271 32.2605247 72.6757889
      38.2815781 21.3036842 15.753684 15.0799999 30.7584209 86.4384232
      14.2726316 43.5742111 71.2821045 14.9063158 40.8963165 70.6678925
      15.6257896 31.5110512 72.814743 37.5252647 22.1063156 16.0521049
      15.6700001 24.6373692 72.8384171 15.2952633 35.8157883 69.446846
      16.5352631 38.2163162 69.9657898 16.316843 32.617897 74.1331558
      37.5136833 22.1184216 16.1884212 15.6268415 33.0473671 85.1552658
      14.6652632 44.8310547 69.9910507 15.3263149 42.2347374 70.7099991
      15.3894739 38.5673676 75.3042145 38.6126328 22.1531582 15.4310532
      15.571579 29.6121044 78.8100052 14.6199999 42.0210495 68.682106
      15.9189472 41.0557899 70.1521072 16.1368427 39.4968414 75.0952606
      36.6378975 22.344738 15.4310532 15.9694729 32.4636841 80.1657867
      15.0768423 41.8147354 65.5726318 16.5305271 38.9484215 65.4215775
      16.888422 35.6947365 68.1615753 37.1994743 22.1584206 17.2568417
      16.020525 37.0315819 82.353157 14.8826323 42.9178963 66.4605255
      15.5784216 36.5326309 67.5515747 15.6352634 33.0289497 71.2089462
      38.3247337 22.3915787 16.8063164 15.8894739 44.4889488 82.8652649
      13.1221046 51.9847374 67.7099991 14.1252632 45.356842 70.1910553
      15.2494736 42.4894753 74.8247375 36.7768402 22.2868423 17.349474
      16.650526 55.0331573 73.7621078 12.8736839 52.667366 64.4757919
      13.9321051 42.8331566 68.6115799 15.309473 40.8589478 71.8257904
      35.0673676 22.3626328 18.1115799 17.3789482 50.1026306 70.1936798
      14.5957899 49.5010529 57.6484184 15.805789 38.0057907 62.1863136
      16.134737 37.7978935 65.3731613 31.4494743 24.0252628 21.8778934
      18.0342102 77.8126297 55.8857918 14.1942101 84.9252625 43.20158
      16.0410519 66.4000015 55.2800026 17.4010525 66.0810547 56.5605278
      31.5010529 24.2421055 18.2247372 18.8994732 59.0742111 64.1921082
      14.71 57.0310516 52.70158 16.2763157 40.25 59.6510544 17.2547359
      41.7747383 62.3273697 34.0031586 24.4173679 20.1952629 18.7757893
      62.117897 61.610527 14.8521051 57.5052643 52.5768433 16.4257889
      47.408947 58.9310532 17.6715794 47.7431564 62.117897 36.230526
      23.0184212 18.9342098 18.4547367 62.9989433 67.6736832 13.2531576
      61.0368423 57.3715782 14.2563162 47.4815788 64.3300018 16.6926327
      48.8515778 67.5610504 36.6800003 21.8899994 19.8999996 18.2000008
      71.3199997 63.2099991 13.04 67.8700027 54.6100006 14.4700003
      49.8899994 63.8699989 17.6100006 48.0600014 67.5999985</_>
    <_>
      30.7700005 28.8299999 7.69000006 17.1900005 8.81999969 15.1199999
      11.4200001 7.5999999 12.4300003 3.25999999 6.1500001 6.78000021
      4.71999979 5.78000021 9.48999977 20.1331577 25.6352634 24.6057892
      25.4010525 64.0515823 17.6936836 24.2152634 64.9789505 15.8699999
      19.2315788 59.5126305 11.5373688 18.1389484 55.3321037 10.3573685
      8.27631569 21.9236851 35.7836838 31.6231575 107.08316 8.32210541
      33.0689468 106.314735 9.32684231 30.5800018 101.441055 13.0973682
      28.4778957 91.3668442 10.1700001 19.603157 26.7878952 22.4252644
      23.6226311 54.3205261 13.6436844 22.7068424 52.912632 12.1447372
      18.683157 47.0826302 10.9810524 17.3673687 45.1742096 10.9789467
      29.2005253 29.3357887 15.440526 20.5747356 23.1647377 27.0221043
      17.5373688 23.432106 25.5784206 8.99578953 18.433157 11.8794737
      5.54421043 18.7473679 10.7194738 17.4752636 26.3894749 28.8478947
      26.2057896 77.8557892 13.9210529 26.9826317 74.599472 13.8542109
      23.6173687 67.2000046 12.2578945 22.5921059 61.3357887 10.8578949
      13.7889471 24.7768421 34.4352608 28.7826309 97.0094757 10.9863157
      30.2226334 94.6752625 11.4394741 29.4215794 87.6463165 13.5126314
      27.5057888 80.4599991 11.3778944 13.7168417 26.356842 29.722105
      27.3242111 75.328949 12.4478951 25.7684212 76.0794754 11.1331577
      22.1584206 70.2878952 12.5557899 18.5336838 64.8573685 11.5573692
      14.5199995 24.162632 33.3031578 29.1936836 90.6052628 7.14947367
      31.1042099 86.9478989 8.64052582 30.5047379 80.9000015 11.3863153
      29.3342113 73.5178986 9.95631504 24.7589474 27.4131584 18.0989475
      22.3805256 39.0868416 23.6094742 19.7273674 38.2705269 22.0621052
      13.0778952 34.7131577 13.0510521 14.0784216 31.5289478 10.5410528
      25.0978947 27.1847363 18.5852642 22.1668434 40.3763161 20.9642105
      19.6757889 37.658947 17.4936848 13.6084213 33.2763176 9.03526306
      13.393158 30.2836857 9.49473667 10.5447369 22.1173687 38.6652641
      31.5263157 108.908417 7.74421072 35.0710526 109.65789 8.93052578
      35.8515778 104.124741 13.7668419 36.2400017 93.0647354 11.8426313
      22.2842102 27.6242104 21.6847363 22.1931591 48.9063148 19.0868435
      19.0389481 41.828949 19.0805264 13.7105265 40.6568413 12.0405264
      17.0868416 35.5794754 11.1668415 11.5499992 22.4200001 35.2968407
      27.5557899 111.803154 5.63684225 31.631052 101.56842 8.6373682
      30.2021065 94.761055 11.4642105 28.78158 86.9168396 9.80105209
      17.4047356 23.9357891 31.1936836 25.9852638 81.5336838 11.428421
      27.1552639 76.9389496 11.1300001 24.1052628 68.9526291 11.4663162
      24.1689472 62.4115791 11.9294739 25.6794739 31.0047359 16.5478954
      21.8121052 27.1010532 34.7900009 15.9136848 23.7878952 23.2526302
      7.05473661 17.1110535 10.6415796 8.79894733 17.4015789 10.3147364
      8.67842102 23.1894722 38.1236839 29.424736 115.599472 6.26157904
      30.5905266 112.169998 8.42157841 31.1005268 104.221054 13.2963161
      28.412632 94.2826385 11.4052629 11.1378946 25.853159 35.7773666
      27.2494736 107.030525 14.3384209 26.389473 109.47052 12.1678953
      24.6994743 103.034737 16.9931583 20.5684204 93.1215744 16.019474
      10.8442106 27.1426315 35.9163132 28.0231571 93.2284164 22.5163155
      27.2621059 108.736847 12.2436838 27.6763153 100.602104 16.7247372
      25.1863155 90.4310532 13.8605261 10.4899998 29.4500008 32.6599998
      26.3799992 97.6800003 23.7299995 23.7800007 113.510002 11.96
      24.7000008 102.260002 17.2199993 23.4200001 93.4400024 14.5600004</_>
    <_>
      23.3700008 11.4700003 6.90999985 16.7900009 12.7399998 4.0999999
      11.25 24.5599995 9.69999981 19.7199993 36.5999985 13.5600004
      35.0900002 20.6599998 7.96000004 23.3473682 11.4615793 6.19999981
      17.0026321 12.3510523 4.32842112 11.3121052 23.9978943 9.00578976
      20.0542107 35.666317 12.7789469 34.3263168 20.357893 7.95263147
      23.4231586 11.671052 6.46631575 16.8363152 12.2847366 4.00210524
      11.0952635 23.7852631 8.54473686 19.4878941 34.1915779 11.6473684
      35.1652641 19.881052 7.28421068 23.2478943 11.4468422 6.65421009
      16.7942104 12.5205259 4.80578947 11.154211 24.4236832 9.77578926
      20.1742096 35.3278961 12.7194738 35.2815781 19.5536842 7.54736853
      23.047369 11.436842 5.79947376 16.603157 12.328948 4.41526318
      10.9310532 23.7399998 9.21526241 19.4952621 35.3089485 13.2236843
      34.5042076 20.4447365 8.71999931 23.6536846 11.6089478 6.05736828
      16.9110527 12.5457897 4.0999999 11.2826309 24.2178955 9.05421066
      20.8573685 36.9168434 12.809474 35.9768448 20.5552635 8.04052639
      23.4473686 11.1373682 6.49736834 16.4500008 12.8994732 4.69578934
      10.8636847 25.2410526 10.3552637 20.2721062 36.8347359 13.6305265
      35.1347351 20.4668427 8.20052624 23.4347363 11.472105 7.01736832
      16.837368 12.7052631 4.78052616 11.1894741 25.1010532 10.1894741
      19.5094738 35.5242081 13.1284208 35.2563133 20.3284206 7.87947369
      23.8042107 11.3389473 5.91894722 17.1494732 12.5815792 4.904737
      11.3715792 25.9615784 10.9852629 18.3873692 36.7468414 14.4657898
      33.3415794 20.842104 8.80263138 23.0636845 11.2926311 6.58210516
      16.7594738 12.9899998 5.5468421 11.1852627 25.7773685 11.5699997
      18.5426311 36.2257881 15.3405266 33.2878952 20.309473 9.3484211
      23.4026318 11.4031582 6.27263165 17.0836849 12.6215792 4.88368416
      11.4210529 25.4310532 10.2878942 19.0215778 37.0363159 13.8078947
      34.2089462 21.4442101 8.86210537 23.3999996 11.0857897 5.33473682
      16.8610516 13.162632 5.44999981 11.2242107 25.9794731 11.2447376
      19.4178963 37.114212 14.722105 33.8089485 21.1652641 9.23631573
      22.9821053 11.2468414 6.42736816 17.0284214 13.2868423 5.47789478
      11.3078947 26.3436852 11.4584208 18.8447361 37.2189484 14.7731581
      33.6957893 20.9710522 9.37789536 24.1268425 11.3100004 5.82684183
      17.2205257 13.0757895 5.17578936 11.5647364 26.4094734 10.9547367
      19.0652637 37.4205246 14.2642097 33.9589462 22.0926304 9.11999989
      23.5057907 11.3205261 6.47947359 16.8857899 12.9200001 5.4094739
      11.2110529 26.0431576 11.6052628 18.8294735 37.1278954 14.2473679
      35.1231575 20.7473679 8.64842129 23.3157883 11.3952627 6.74473667
      17.1421051 13.0689478 5.19736862 11.46 26.5342102 11.0894737
      19.7252636 39.4084206 14.9410524 34.5789452 22.7668419 9.73789501
      23.7652626 11.3163166 6.2031579 17.4673691 13.2010527 5.24421072
      11.75 26.5315781 10.9184208 19.2989483 37.6089478 14.3936834
      34.0252647 22.2600002 9.05947399 23.7347355 11.3836842 6.14421034
      18.0421047 13.3357897 5.70473671 12.0152626 27.0378933 11.734211
      18.1526318 37.2863159 15.2089472 33.0378952 21.8789482 9.20368385
      22.9168415 11.2489471 6.52631569 17.5126324 12.9905262 5.99210548
      11.8342104 27.0200005 11.7847366 19.1136837 37.6473694 15.4605265
      33.4578972 21.484211 9.48052692 23.6200008 11.0799999 5.82000017
      17.3299999 13.1599998 5.92000008 11.6999998 27.9599991 12.7799997
      18.5400009 39.2999992 16.1900005 33.4700012 23.0900002 10.2600002</_>
    <_>
      27.4200001 25.9899998 26.2399998 20.3600006 8.23999977 5.5
      25.5300007 146.169998 15.54 34.8800011 138.720001 16.2000008
      28.0300007 144.779999 16.8299999 26.9710522 25.7999992 26.1621056
      20.3194733 8.26263142 4.94789505 25.480526 142.984741 17.1863155
      35.6331596 137.32843 15.527895 28.6036835 142.974213 15.9889469
      27.1731586 25.9421062 26.9105263 19.7205257 8.08473682 4.32789469
      23.8342113 137.248947 20.027895 33.7721062 138.684204 14.3142109
      27.4942093 144.12262 15.2926311 26.9505253 25.2000008 24.7363167
      19.8342094 7.9157896 4.7357893 24.5315781 142.123154 17.9705257
      33.9215775 139.152634 14.8942108 27.5652637 144.423157 15.3400002
      26.480526 25.6831589 25.9436836 20.1536846 8.47368431 4.81368446
      25.3500004 142.5 17.0889473 35.50737 137.045792 15.468421
      28.0789471 143.503159 16.1368408 26.682106 25.365263 26.0673676
      20.7363148 8.60210514 4.88000011 25.7847366 143.297363 16.4510517
      34.8800011 137.851059 15.559474 27.4542103 143.831055 16.2173691
      26.7457886 26.2421055 29.6342106 19.9510536 8.3247366 4.86315775
      24.1910515 143.43158 17.325264 34.4736824 138.847366 15.309473
      28.3321056 144.389999 16.2921047 26.6773682 25.6063156 28.3747368
      19.9484215 8.09684181 4.38894749 24.4647369 139.948959 19.4763165
      34.3073692 138.651581 14.7868423 27.7636833 143.851059 16.1199989
      27.321579 25.8942108 26.9157887 20.1200008 8.36842155 4.43736839
      24.7573681 140.758423 18.3194733 35.4673653 137.556839 14.3868418
      28.7263165 143.260529 15.0615788 28.0373688 25.730526 27.0626316
      20.0094738 7.90315819 4.33105278 24.0289478 141.683685 18.6478958
      33.4710541 139.988953 14.6952629 27.2210522 145.216843 15.5852633
      27.0100002 26.1936836 27.138422 19.9263153 7.78947401 4.48052645
      23.9989471 141.340012 18.2199993 33.9989471 139.278427 15.0515785
      27.7831573 144.55368 15.9152632 26.0747356 25.8063164 28.904211
      19.6252632 8.28263187 4.24789476 24.0878944 138.317368 20.0068417
      34.7626305 137.876312 14.6257896 28.4099998 143.639999 15.7036839
      26.1063156 25.2805271 28.0557899 20.0047359 8.39736843 4.49263144
      24.7815781 137.602112 20.4689484 35.7905235 136.351044 15.1921053
      28.8184204 142.189468 16.3173695 25.0142097 25.7600002 28.2478943
      20.1568413 8.53210545 4.99789476 25.407896 142.862625 16.8331585
      35.9815788 136.994217 15.0500002 28.0531578 143.628418 15.6173687
      24.9426327 25.6563168 29.0578957 20.2126312 8.9157896 4.57000017
      25.4431591 137.804214 19.2794724 36.2347374 135.564743 14.6573687
      28.4799995 141.945267 15.6526308 26.3121052 25.6484222 28.4094734
      19.5647373 8.46947289 3.97210526 24.1826305 136.608948 20.3110542
      34.6536827 137.13736 14.1668415 28.1336842 142.862106 15.3657894
      25.9136848 25.6552639 26.0831585 20.2452641 8.400527 4.53631592
      25.1231575 140.630524 17.4810524 36.0073662 136.604218 14.7373686
      28.7594738 142.808945 15.6126318 25.6936836 25.9984226 28.2784214
      19.3473682 8.22368431 4.0373683 24.0463161 141.874207 18.5526314
      34.0778961 138.948425 13.6247368 27.3763161 144.378418 14.3621054
      25.2473679 25.6821041 29.4210529 19.5347366 8.27736855 4.26000023
      24.4136829 137.27211 20.639473 35.7652626 136.415787 14.3500004
      29.349474 141.427368 15.4305267 25.8799992 26.3299999 26.2900009
      20.1499996 7.98999977 5.11000013 25.1399994 146.300003 15.3900003
      35.4799995 138.130005 16.4200001 29.3600006 143.600006 17.1399994</_>
    <_>
      28.6599998 18.1399994 13.46 9.10999966 2.71000004 6.34000015
      81.5500031 77.3899994 16.4699993 93.1100006 72.5500031 22.8700008
      86.5899963 72.3099976 19.1900005 27.1215782 21.1673679 42.0742111
      8.93368435 3.65526319 3.98052621 73.1252594 98.4063187 22.9526329
      95.2673645 83.5578918 33.3226318 99.3794785 78.3705292 37.9278946
      19.1963158 18.587368 35.6710548 13.9084206 3.6163156 4.41210556
      62.8842125 109.354736 30.698946 92.9842148 86.5326309 48.6710548
      106.018425 74.1136856 57.0300026 19.4415798 18.2952633 36.5636864
      13.2736845 2.93263149 4.68368435 64.2321091 108.430527 28.7542114
      96.3589478 83.3052597 45.602108 108.582634 70.9389496 54.2194748
      19.809473 17.9400005 39.1515808 13.2636843 2.92684221 4.59578943
      64.2094727 108.952637 28.2715797 98.4126358 81.6115799 46.4457893
      109.880005 70.2884216 55.1110535 19.6936836 16.7763157 34.7173691
      13.8352633 2.84105253 4.78999996 64.5847397 108.503685 27.8057899
      97.7305222 82.5615768 46.8552628 109.115791 71.2989502 57.0878944
      20.405262 17.5721054 35.6605263 14.1257887 2.98842096 4.83631563
      65.4899979 107.905785 28.393158 97.8442078 82.4121017 46.4131584
      108.919998 71.625267 55.4731598 26.7147369 16.5610523 31.1989479
      12.4200001 2.35105252 5.36684227 67.7147369 106.342628 28.1363163
      94.8910522 85.9226303 45.0289497 105.087891 75.8957901 51.4173698
      24.190527 16.6847382 29.8347378 12.2163162 2.3436842 4.95263147
      67.3000031 107.083153 28.6021061 96.8700027 84.2189484 46.45895
      107.356842 73.4700012 54.0763168 35.8110542 16.1910534 33.1221046
      9.3873682 2.08789468 4.67736864 68.1052628 106.028419 22.2557907
      91.5531616 90.0326309 31.6584225 99.4447327 83.6015778 36.1889496
      20.5952644 17.8342113 35.2957916 12.7547369 4.12894726 3.97000003
      71.0452652 101.563164 23.9210529 103.195267 76.5778961 36.3005257
      112.634209 67.7742157 45.2963181 20.3936844 17.6421051 34.3763161
      13.896842 4.28105259 3.96315789 70.0521088 102.362106 22.7700005
      101.818947 78.0457916 35.4489479 111.743683 69.2557907 44.7010536
      19.2700005 18.2242107 35.3315773 14.1163158 4.19684219 4.18684196
      71.8721085 101.725266 26.313158 100.615791 80.4378967 41.4831581
      109.129471 72.9021072 49.432106 23.4731579 17.396843 29.7652645
      13.0847368 4.10894728 3.88157892 68.9852676 103.558945 23.5615788
      98.8989487 81.7452621 36.4536858 107.009476 74.9563141 42.5605278
      29.2478943 17.2578945 25.9421062 12.1521053 4.01210499 3.89210534
      67.0336838 104.990524 21.0731583 94.3768463 85.9347382 31.9652634
      102.527367 79.2005234 37.2047348 20.4373684 18.5536842 31.5515785
      13.7005262 4.77789497 3.4694736 62.9189453 108.099998 20.3578949
      96.5347366 82.6405258 32.0773697 107.649475 73.1810532 40.2726326
      37.0278969 17.6573677 31.9584217 11.0547371 3.44578958 3.54578948
      61.7673683 110.114738 17.0389481 87.4484253 92.6205292 23.7900009
      94.9636841 87.1157913 27.5742092 23.3005257 19.1231594 30.5152645
      12.9415789 4.08421087 2.56894732 51.7831573 118.507896 17.2557888
      85.8526306 93.2694702 25.1668434 98.2589417 82.7794724 32.1984215
      34.5163155 20.0936852 28.4121056 11.7510529 3.41894746 3.18578935
      51.9705276 117.95842 14.7978945 81.4663162 97.0894775 21.7184219
      88.0442123 93.2363205 25.3036842 22.3999996 19.7600002 28.5599995
      13.0299997 3.23000002 2.8499999 46.9599991 123.559998 17.0900002
      81.7900009 96.8199997 26.3899994 94.2300034 86.2200012 32.8499985</_>
    <_>
      25.6800003 29.2800007 54.9900017 12.6199999 5.80999994 4.26000023
      22.6000004 138.089996 10.5500002 40.5600014 127.169998 15.54
      52.5900002 118.540001 21.0599995 29.5668411 30.5805264 44.5236855
      11.6400003 5.94473696 3.3900001 20.0042114 140.083679 9.48631573
      48.0342102 119.988419 10.9768419 69.7436829 100.141052 13.1336842
      31.5605259 31.6268425 43.7705269 11.7584209 4.56157875 3.44210529
      21.2721043 141.892105 8.77894783 41.0884209 128.173157 11.2810526
      38.7394753 130.196838 11.3473682 30.4978943 31.9221039 40.6831589
      12.3978949 5.25789452 3.56105256 25.043684 136.912628 9.38105202
      50.6199989 118.209999 10.1494732 45.4052658 122.223679 8.04421043
      30.4663143 33.0915794 32.8026314 13.1805267 4.74105263 3.68105268
      24.3594742 135.653168 11.127368 46.4378967 121.324738 10.7231579
      32.3084221 133.381058 8.41894722 33.8268433 35.3363152 30.9889469
      14.5363159 4.34210539 5.42947388 30.1763153 134.475266 12.0215788
      44.487896 123.944206 15.2773685 32.8442116 133.559479 12.1799994
      32.3600006 35.6015778 23.9715786 14.8173685 3.93157911 5.13526344
      27.8010521 137.314209 12.1084213 42.230526 127.05526 15.5457897
      30.1299992 136.925797 11.2894745 30.8194733 35.3778954 25.9173679
      15.1484213 4.36000013 5.35894728 29.1568413 136.339996 11.8757896
      42.4910545 126.8479 15.4868422 29.1521053 138.073151 11.2005262
      29.1742096 35.4157906 24.0636845 14.8189478 4.54947376 5.0657897
      27.3057899 137.455795 12.281579 41.3157921 127.737892 15.1910524
      27.7810516 139.324738 11.1452627 29.4784203 35.1673698 21.7068424
      15.4157896 4.35947371 4.92210531 27.7526321 137.210526 12.2942104
      42.2578926 126.796844 16.2205257 28.5673676 138.005783 11.5642109
      31.5157909 35.737896 21.7400017 15.3610525 4.73789501 4.8499999
      28.1852627 137.831055 12.4068422 44.6631584 125.004738 17.4847355
      32.9752617 134.72316 11.884737 30.5868416 35.0536842 20.2710533
      15.2821054 4.41263199 4.8342104 27.3578949 138.158417 13.1589479
      42.6515808 127.143158 18.4052639 30.7384205 136.887375 13.1052628
      27.9700012 29.3915787 15.8168421 16.5042095 11.2410526 8.31842136
      26.8294735 101.594215 10.8431578 39.8284187 105.571053 24.7073689
      36.0210533 107.432632 14.3621054 29.2968426 33.0978928 17.7773685
      16.1815796 7.88368416 6.75157881 27.9752636 118.668953 11.6136837
      42.332634 115.018417 21.2521057 34.2236824 121.339478 13.115263
      29.0742092 35.5805283 19.1052628 15.1873684 4.48263168 4.82947397
      27.3731575 137.042114 12.5410528 42.3626328 126.324738 16.5242119
      29.1973686 137.521042 11.5531578 30.5136833 34.9594727 18.4647369
      15.4573679 4.54894733 4.75263166 27.6921062 138.211578 12.4294729
      43.4621048 126.45105 17.2831573 30.5947361 137.50264 11.4773684
      26.9994736 27.095789 16.9794731 14.2642107 15.5457897 13.5021057
      24.2452621 89.9689484 11.7052631 37.6584206 94.6721039 22.5905266
      35.8836861 97.3921127 15.7857895 22.9084206 15.5331573 14.6878948
      17.849474 31.2315788 27.3615799 26.912632 24.7268429 14.4647369
      33.0378952 63.8089447 26.3126316 40.3457909 60.1657906 22.0494728
      21.4068432 19.980526 17.7752628 30.9505272 32.0094719 13.9536839
      31.7763138 22.7394733 6.36473656 34.5531578 43.8673668 18.341053
      34.9684219 41.0084229 22.0521049 29.9699993 34.2099991 19.2600002
      15.0200005 4. 4.65999985 26.8500004 138.860001 12.5699997
      42.0900002 127.959999 17.1700001 29.6000004 137.470001 11.8699999</_>
    <_>
      21.3899994 22.0300007 31.4200001 17.1599998 6.61000013 3.91000009
      38.8400002 128.070007 13.1899996 40.1500015 132.660004 15.8900003
      37.0400009 141.509995 17.2000008 36.4610519 23.0642109 34.4331589
      13.8552628 5.23473692 2.80105257 37.7363167 110.212631 9.88789463
      56.8010521 106.326317 12.393157 58.9963188 106.488419 13.4705267
      54.651577 27.6605263 33.7936859 11.8989477 9.82157898 5.4763155
      39.8889465 92.9063187 7.02421045 79.6910553 71.9184265 10.7968426
      90.1989441 58.2936859 11.4994736 37.0405273 24.1478958 27.9257889
      18.8921051 6.24421024 4.54105282 43.4515762 116.207893 12.6731577
      48.4947395 117.191048 16.8021049 44.9226303 122.82579 14.3436842
      21.2521038 20.265789 29.4168415 16.4094734 6.28684187 4.09947395
      40.8763161 125.54789 13.3210526 41.2378922 131.459473 16.0357895
      38.4652634 139.912628 17.2547379 22.1573696 20.2105255 28.8468418
      16.0047359 6.44894743 4.11052656 42.6173668 122.657372 12.4726315
      43.2994728 128.629471 14.6131582 40.3610535 137.830521 15.7031584
      21.1531582 20.3384209 29.1026306 15.7347364 6.49842119 3.98000002
      43.3105278 122.282104 12.4799995 44.1605263 128.204742 14.6947374
      40.0273705 138.633682 15.6678944 20.8526325 19.8278942 29.4936848
      16.0047379 6.33263159 4.04842091 42.1063156 123.429474 12.77421
      42.7868423 129.662628 14.9910526 39.7421036 139.065262 16.2668419
      20.9252644 19.6173687 28.7210522 15.5921059 6.34578943 3.70105267
      40.8384209 124.191055 12.5721054 41.3136864 130.799469 14.5484209
      37.9521065 140.415787 15.8136845 20.8205261 20.1110535 31.1836834
      15.9121056 6.06736851 3.92473698 41.8773689 123.243156 12.9926319
      42.6536827 129.482117 15.5015793 38.7257881 139.393158 16.8810539
      25.6405258 21.4789467 31.4626331 12.9463158 5.42473698 3.39421058
      42.6973686 115.44474 11.6900005 53.7973709 113.234207 13.0836849
      51.7531586 118.474739 14.1052628 24.012104 20.8736839 31.4905262
      14.0184221 5.73315811 3.75789452 44.345787 114.599472 11.9773684
      53.5989456 114.08316 13.4342098 51.6599998 119.903679 14.6142101
      19.9315796 19.3557892 28.5300007 16.5084209 5.89842081 4.73684216
      44.1968422 121.307365 14.1363163 44.9505272 128.065781 17.333683
      40.5847359 138.453674 18.2773685 20.3405247 19.6557884 30.7089481
      16.8936844 6.24631596 4.14052629 43.3094711 121.88842 13.1873684
      45.0963135 127.582108 15.8784208 42.5047379 136.197906 17.3294735
      30.2000008 22.987896 28.9568424 14.7147369 5.13368416 3.82315803
      43.7794762 117.055794 11.575263 50.9636841 116.592636 14.0900002
      47.5400009 123.191055 14.8684216 22.3915787 20.0015793 28.8221054
      16.2563152 6.06894732 3.84578943 42.5989494 121.004211 12.4547367
      46.2626305 124.787369 15.110527 43.9047356 132.368423 16.6210537
      20.134737 18.9836845 30.5836849 16.7236843 6.31736851 4.2452631
      42.5552635 122.952629 13.5226316 44.4399986 128.639465 16.3636837
      41.7494736 137.315781 17.8231583 20.2136841 19.0810528 30.7710514
      16.9594727 6.18263149 3.85157895 42.1084213 123.504211 13.0926313
      45.1847382 127.927376 16.1178951 43.0215797 135.765274 17.6936855
      20.4921055 18.9431572 29.4678936 16.8057899 5.76526308 4.64052629
      44.7989464 120.192108 13.6305265 47.3763161 125.391052 16.7726326
      44.8057899 133.76474 18.2984219 19.5400009 18.1299992 26.8400002
      16.7000008 6.38000011 4.30000019 42.4799995 121.379997 12.9899998
      44.2700005 127.25 15.4899998 42.5499992 135.279999 16.9599991</_>
    <_>
      19.5599995 18.2900009 29.0900002 16.4699993 5.92999983 4.40999985
      41.3400002 124.010002 13.5799999 44.0400009 128.869995 16.7000008
      41.9000015 137.110001 18.3299999 34.976841 22.5799999 30.4378948
      13.5368423 4.26000023 4.54368448 48.389473 111.720528 12.3947372
      53.6789474 113.001579 16.7757893 52.6231575 117.671051 18.436842
      19.9400005 18.7094746 29.0021057 16.8863163 5.53894758 5.13631582
      46.0052605 120.746841 16.7084217 49.2705269 125.312103 21.1063175
      47.6621056 131.859467 21.9578953 34.5084229 21.4957905 25.393158
      17.0636845 5.5373683 3.93263149 39.8257904 120.216316 12.9152632
      47.1163139 122.301582 15.4452629 49.3031578 125.43895 15.6552629
      25.2905273 19.2521057 24.78158 18.2873688 7.11526346 3.1821053
      40.1189461 125.913681 14.6610527 46.817894 128.318954 17.821579
      49.8973656 129.832108 19.4852638 21.8673687 17.0389481 24.872633
      17.9931583 6.84105253 3.55368423 44.4047356 124.447891 14.8142109
      51.7468414 126.275261 18.0452633 54.7578926 127.688423 20.6836834
      22.7031593 16.1484203 25.6368427 18.2310524 7.0705266 3.39578962
      45.8321037 122.948952 14.9910526 54.0015793 124.397369 18.4010525
      56.6694756 125.621056 21.6036835 23.8342113 15.353158 26.3468418
      17.3178959 7.21842146 3.00421047 47.6042099 121.035263 15.0031576
      57.5278969 121.331581 17.5384216 59.4984207 122.656845 21.3415794
      23.0105247 14.305789 23.5347366 17.4978943 7.2594738 3.10052633
      48.7057877 120.555786 15.7947369 58.7326317 120.622108 18.9536839
      61.9821053 120.960526 23.2168427 23.2942104 13.174737 25.9068432
      15.9536848 7.70842123 1.88736844 49.856842 120.153152 15.484211
      63.4226341 116.895264 17.6705265 66.3189468 116.258415 22.7294731
      24.480526 12.6515789 24.2931576 17. 8.24631596 2.58736849
      51.2789459 120.094215 16.0810528 65.1100006 115.834213 18.3263149
      69.4873657 112.603683 23.4073677 27.7084217 12.7305269 22.6499996
      18.0236855 9.13315773 3.89842105 52.7215805 123.194733 17.404211
      66.1421051 117.045792 19.3594742 59.4568405 113.794739 28.0357895
      29.8163166 12.6121054 20.7663155 18.9968433 9.2699995 4.14105272
      49.6963158 126.890526 17.4084225 62.8231583 121.139999 19.2457905
      50.7078934 112.024208 34.8636856 30.5742111 13.1694736 18.7768421
      19.5089474 9.27052689 4.56947374 50.9915771 125.296837 16.6573677
      64.9489441 119.148941 18.5599995 53.7636833 108.055267 28.3226299
      30.4436836 12.97579 19.2105255 19.3973694 12.1084213 5.57999992
      54.2421036 123.204208 16.8784218 66.4647369 118.610001 19.2736855
      47.2752609 52.9794731 27.0657902 29.1257896 13.356842 17.3942089
      20.2252636 17.146843 16.6194725 54.360527 123.831581 16.6721058
      64.4310532 120.790001 18.8705273 44.3168411 76.1978912 75.8705292
