<?xml version="1.0"?>
<opencv_storage>
<opencv_ml_svm>
  <format>3</format>
  <svmType>C_SVC</svmType>
  <kernel>
    <type>RBF</type>
    <gamma>9.5025995960895671e-07</gamma></kernel>
  <C>50.</C>
  <term_criteria><epsilon>1.1920928955078125e-07</epsilon>
    <iterations>1000</iterations></term_criteria>
  <var_count>600</var_count>
  <class_count>7</class_count>
  <class_labels type_id="opencv-matrix">
    <rows>7</rows>
    <cols>1</cols>
    <dt>i</dt>
    <data>
      0 1 2 3 4 5 6</data></class_labels>
  <sv_total>38</sv_total>
  <support_vectors>
    <_>
      0. 0. 0. 0. 0. 0. 0. 0. 0. 0. 0. 0. 0. 0. 0. 26.4500008 9.90999985
      4.23999977 37.1399994 69.7300034 14.9200001 116.910004 64.6100006
      66.6200027 122.139999 67.5599976 73.3000031 116. 74.4400024
      68.3700027 0. 0. 0. 0. 0. 0. 0. 0. 0. 0. 0. 0. 0. 0. 0. 25.9200001
      10.0484209 4.76631594 38.1047363 68.7273712 15.2584209 116.16053
      65.7084198 68.0868454 121.4179 68.2157898 74.2778931 115.260521
      74.8199997 67.2126312 0. 0. 0. 0. 0. 0. 0. 0. 0. 0. 0. 0. 0. 0. 0.
      26.4357891 9.76684189 5.61684179 37.8389473 67.9705276 15.4157887
      115.99369 65.6563187 68.8868484 121.148422 68.0421066 76.0279007
      115.677895 74.1531525 69.2942123 0. 0. 0. 0. 0. 0. 0. 0. 0. 0. 0.
      0. 0. 0. 0. 26.1389465 9.50684166 5.36315775 37.5131569 70.2763138
      14.9547367 116.552628 65.5094757 70.1452637 121.880005 68.057373
      76.1163177 116.184738 74.135788 68.9515839 0. 0. 0. 0. 0. 0. 0. 0.
      0. 0. 0. 0. 0. 0. 0. 25.1626301 9.46947289 4.82157898 37.3547401
      68.6231537 14.3863153 116.627373 65.4257889 67.4605255 122.26368
      67.4463196 74.3526306 115.881577 73.8842087 67.2015762 0. 0. 0. 0.
      0. 0. 0. 0. 0. 0. 0. 0. 0. 0. 0. 26.277895 9.4800005 5.61157894
      37.0078926 69.2636795 14.8921051 116.537369 65.4415817 68.4984207
      121.780525 67.7273712 74.7457886 115.669998 74.1215744 67.5131531
      0. 0. 0. 0. 0. 0. 0. 0. 0. 0. 0. 0. 0. 0. 0. 25.8189468 9.44578934
      5.61473703 37.3063126 69.9615784 14.912632 116.825264 65.2384262
      66.224205 121.909477 68.0121078 72.7863159 115.837891 74.4300003
      67.3447342 0. 0. 0. 0. 0. 0. 0. 0. 0. 0. 0. 0. 0. 0. 0. 26.8789482
      9.43421078 4.97789478 36.5563164 70.8731613 14.3168421 117.037895
      64.9757919 70.0694733 121.959999 67.7184219 76.0842133 115.539474
      74.5831604 68.1442108 0. 0. 0. 0. 0. 0. 0. 0. 0. 0. 0. 0. 0. 0. 0.
      26.4952641 9.47000027 4.23526335 37.6126328 67.8331604 14.4584208
      115.676315 66.4215775 70.150528 121.141052 68.4221039 76.3136826
      115.387901 74.4905243 68.3052673 0. 0. 0. 0. 0. 0. 0. 0. 0. 0. 0.
      0. 0. 0. 0. 26.2515793 9.59315777 3.95894742 37.4747353 68.0921021
      14.360527 115.852631 66.4315796 69.6257858 121.301056 68.5778961
      75.5847397 115.036842 74.9621048 67.6268463 0. 0. 0. 0. 0. 0. 0.
      0. 0. 0. 0. 0. 0. 0. 0. 26.5021057 9.49631596 4.25052643
      36.7484207 69.2331619 14.4515791 116.221581 66.1547394 68.1173706
      121.496841 68.6447372 74.1152649 115.121056 75.1757889 67.3852615
      0. 0. 0. 0. 0. 0. 0. 0. 0. 0. 0. 0. 0. 0. 0. 26.2099991 9.72578907
      4.11368418 36.6915779 69.0042114 15.4910526 116.177895 65.75737
      66.6352615 121.801048 67.9989471 72.3668365 115.700531 74.4705276
      67.25 0. 0. 0. 0. 0. 0. 0. 0. 0. 0. 0. 0. 0. 0. 0. 26.8047371
      9.84736824 3.44210529 36.4652634 69.0389481 15.6878948 116.001053
      66.0226288 68.9452591 121.595787 68.2226334 74.696312 115.506317
      74.5015793 67.9110489 0. 0. 0. 0. 0. 0. 0. 0. 0. 0. 0. 0. 0. 0. 0.
      26.4736843 9.81420994 3.68263173 37.0415802 66.6652603 15.4157896
      115.85421 65.8442154 66.9063187 121.601051 67.9121094 73.6136856
      115.115791 74.7084198 66.5726318 0. 0. 0. 0. 0. 0. 0. 0. 0. 0. 0.
      0. 0. 0. 0. 26.6678944 9.76263142 2.94631577 36.8305244 69.1910477
      15.8184214 115.682632 66.4773712 70.8847351 121.515259 68.3636856
      77.3721085 115.558418 74.7026291 69.1726303 0. 0. 0. 0. 0. 0. 0.
      0. 0. 0. 0. 0. 0. 0. 0. 26.9194736 9.96473694 2.58210516
      36.4047394 69.6005249 16.7542114 115.723686 65.9636841 70.3878937
      121.393684 68.1047363 76.6921082 115.4021 74.7042084 68.8589478 0.
      0. 0. 0. 0. 0. 0. 0. 0. 0. 0. 0. 0. 0. 0. 26.856842 9.80105209
      3.84473681 36.2289467 68.5652618 17.1831589 116.11895 65.4105301
      66.4047394 121.858421 67.6689453 74.3310547 115.472107 74.3947372
      67.5131607 0. 0. 0. 0. 0. 0. 0. 0. 0. 0. 0. 0. 0. 0. 0. 26.4899998
      9.82421017 4.63999987 36.3836861 68.8147354 17.54842 116.207367
      65.4594727 66.7436829 122.233688 67.4489441 74.6252594 115.406845
      74.5173645 67.7821045 0. 0. 0. 0. 0. 0. 0. 0. 0. 0. 0. 0. 0. 0. 0.
      26.3521061 9.68631554 4.34578943 37.2363129 68.3647385 15.856842
      117.012108 65.2210464 68.8757935 122.31263 67.5352631 75.7394714
      115.792107 74.2052612 67.8347397 0. 0. 0. 0. 0. 0. 0. 0. 0. 0. 0.
      0. 0. 0. 0. 26.3099995 9.86999989 4.78999996 37.1899986 69.4800034
      15.9899998 116.209999 65.8600006 66.8399963 121.389999 68.3899994
      73.0400009 115.330002 74.7200012 67.4899979</_>
    <_>
      0. 0. 0. 0. 0. 0. 0. 0. 0. 0. 0. 0. 0. 0. 0. 25.4899998 9.75
      4.59000015 37.4000015 69.4599991 14.8500004 116.599998 65.6699982
      68.5100021 121.82 68.0999985 75.1600037 115.629997 74.6800003
      67.2900009 0. 0. 0. 0. 0. 0. 0. 0. 0. 0. 0. 0. 0. 0. 0. 25.9836845
      9.56684208 4.09526348 36.8842125 69.8078918 15.6652632 117.182106
      64.9399948 68.7842102 122.462631 67.2731552 75.4726334 116.322105
      73.8257904 68.2384186 0. 0. 0. 0. 0. 0. 0. 0. 0. 0. 0. 0. 0. 0. 0.
      25.5015793 9.33105278 4.49631596 38.4063187 65.9836807 14.7684202
      116.991577 65.3536835 70.3778992 122.319473 67.3384171 76.2231598
      115.318947 74.3257904 67.6447372 0. 0. 0. 0. 0. 0. 0. 0. 0. 0. 0.
      0. 0. 0. 0. 25.682106 9.8294735 4.53315783 37.6815796 68.5057907
      14.7489471 117.154213 64.9273682 67.7742081 122.426315 67.3210526
      72.9794769 116.277893 73.6715775 67.1178894 0. 0. 0. 0. 0. 0. 0.
      0. 0. 0. 0. 0. 0. 0. 0. 25.6768417 9.69473648 3.72000003
      37.7626305 70.0521088 14.9468422 116.032104 66.3100052 68.4005203
      121.486313 68.5936813 72.7673721 115.518951 74.6126328 66.643158
      0. 0. 0. 0. 0. 0. 0. 0. 0. 0. 0. 0. 0. 0. 0. 25.3705273 9.93157864
      4.47526312 37.1284218 69.5089493 16.0257893 115.896843 65.8863144
      66.5063171 121.642105 67.8210526 73.6989441 115.162628 74.4752655
      67.0578995 0. 0. 0. 0. 0. 0. 0. 0. 0. 0. 0. 0. 0. 0. 0. 26.0421066
      9.7736845 4.89842081 36.5284195 70.4205246 15.8889475 115.397896
      66.5599976 68.8915787 121.526314 68.2126312 76.2126312 115.389999
      74.4815826 67.6389465 0. 0. 0. 0. 0. 0. 0. 0. 0. 0. 0. 0. 0. 0. 0.
      25.5752621 9.67578983 5.16315794 36.9368401 70.4268417 15.1800003
      115.662628 66.2963181 67.1631622 122.07579 67.7242126 74.375267
      116.170525 73.9278946 66.8426361 0. 0. 0. 0. 0. 0. 0. 0. 0. 0. 0.
      0. 0. 0. 0. 25.4689484 9.65473747 5.01736832 37.4984207 69.6826248
      15.0342102 116.044739 66.2236786 68.0931549 122.085266 67.9631577
      74.5936813 116.042633 74.097374 66.6757889 0. 0. 0. 0. 0. 0. 0. 0.
      0. 0. 0. 0. 0. 0. 0. 26.0026321 9.67105198 5.4294734 37.6752625
      69.8947372 15.5321054 115.003159 66.9373627 68.5057831 120.549477
      68.9342117 76.0215759 114.708946 75.0878983 68.3173676 0. 0. 0. 0.
      0. 0. 0. 0. 0. 0. 0. 0. 0. 0. 0. 25.9878941 9.60473728 5.49578953
      37.4984207 69.8652649 15.0457897 115.555794 66.3700027 68.2626343
      121.161049 68.3668442 75.6236801 114.790001 74.9994736 67.5584183
      0. 0. 0. 0. 0. 0. 0. 0. 0. 0. 0. 0. 0. 0. 0. 25.8047371 9.72263145
      5.42736816 37.3363152 68.7157898 14.762105 115.867897 65.9021072
      66.4294739 121.624733 67.9778976 74.1705246 115.925789 74.1363144
      67.7363205 0. 0. 0. 0. 0. 0. 0. 0. 0. 0. 0. 0. 0. 0. 0. 25.6705265
      9.4905262 5.31947374 37.5647354 68.488945 14.9494734 115.729477
      66.1026306 68.321579 121.274734 68.2594757 74.9652634 115.48632
      74.3726349 67.7936859 0. 0. 0. 0. 0. 0. 0. 0. 0. 0. 0. 0. 0. 0. 0.
      25.6615791 9.797369 5.07736826 37.7489471 67.6647339 15.1710529
      116.174736 65.7452621 67.7215805 121.478424 68.0726318 74.3821106
      115.505264 74.3310547 67.0899963 0. 0. 0. 0. 0. 0. 0. 0. 0. 0. 0.
      0. 0. 0. 0. 25.6994743 9.78052616 4.61210537 37.0142097 69.9847336
      15.3773689 116.814735 65.2399979 69.0268402 122.091057 67.6915817
      75.3547363 115.793686 74.1752625 67.5657883 0. 0. 0. 0. 0. 0. 0.
      0. 0. 0. 0. 0. 0. 0. 0. 25.8731594 9.37736893 4.47368431 37.821579
      69.8873672 15.881053 116.887894 65.5189438 67.7210541 122.140526
      67.8505249 74.5373688 116.085266 74.060524 67.1331558 0. 0. 0. 0.
      0. 0. 0. 0. 0. 0. 0. 0. 0. 0. 0. 25.8221054 9.73736858 4.12526321
      38.3878937 67.0489426 15.8321056 116.939476 65.1815796 67.3421021
      121.978943 67.7736816 74.4615784 115.735794 74.3663177 68.0631638
      0. 0. 0. 0. 0. 0. 0. 0. 0. 0. 0. 0. 0. 0. 0. 26.4205265 9.45578957
      4.1078949 37.4989471 68.8631592 14.96 116.157372 65.6526337
      69.5215836 121.41053 68.0684204 76.1426315 115.323158 74.4347382
      68.238945 0. 0. 0. 0. 0. 0. 0. 0. 0. 0. 0. 0. 0. 0. 0. 25.8552628
      9.30000019 5.61947393 37.3242073 69.2631607 13.9568415 116.567894
      65.2115784 68.0163193 122.142105 67.2336807 74.9910507 115.578941
      74.0989456 66.7694702 0. 0. 0. 0. 0. 0. 0. 0. 0. 0. 0. 0. 0. 0. 0.
      26.2900009 9.5 5. 38.0499992 69.8600006 15.0600004 116.82
      65.1800003 68.5699997 122.110001 67.4199982 75.3399963 115.860001
      73.8700027 67.3899994</_>
    <_>
      0. 0. 0. 0. 0. 0. 0. 0. 0. 0. 0. 0. 0. 0. 0. 26.6200008 9.44999981
      6.23000002 40.6100006 72.7300034 14.1400003 113.260002 70.2200012
      70.6600037 118.970001 71.6999969 75.0999985 112.610001 77.7799988
      66.3199997 0. 0. 0. 0. 0. 0. 0. 0. 0. 0. 0. 0. 0. 0. 0. 26.1410522
      9.70421028 5.10631561 40.1278954 73.7726288 15.9105263 113.445786
      70.2331619 69.9263153 118.561577 72.2478943 72.9447403 112.891052
      77.8936844 66.1947327 0. 0. 0. 0. 0. 0. 0. 0. 0. 0. 0. 0. 0. 0. 0.
      26.1599998 9.47579002 5.14421082 40.3342094 73.4073715 15.3000002
      112.898422 70.7531586 71.696846 118.743683 71.9836884 75.5594711
      112.927895 77.6705246 67.0800018 0. 0. 0. 0. 0. 0. 0. 0. 0. 0. 0.
      0. 0. 0. 0. 27.0063171 9.41263103 4.40210533 40.7147369 73.0694733
      14.9289474 112.759476 71.0231552 75.6378937 118.157898 72.5852661
      78.7331619 112.119476 78.5610504 68.7110519 0. 0. 0. 0. 0. 0. 0.
      0. 0. 0. 0. 0. 0. 0. 0. 27.4594746 9.57842159 4.51526308
      40.2310524 75.6100006 15.0926313 114.263153 69.5468445 74.8452606
      118.88842 71.9689407 77.2978973 112.466316 78.2763138 67.6336823
      0. 0. 0. 0. 0. 0. 0. 0. 0. 0. 0. 0. 0. 0. 0. 26.8942108 9.35105228
      5.78789473 40.7205276 72.1236877 15.9578943 113.495789 70.0931549
      70.825264 119.428421 71.4384232 75.7600021 113.410522 77.2847366
      68.0884171 0. 0. 0. 0. 0. 0. 0. 0. 0. 0. 0. 0. 0. 0. 0. 27.1631584
      9.42578983 5.65999985 40.6973686 74.9336853 14.5057898 112.802628
      70.8536835 71.8131561 118.482101 72.2394714 76.51474 112.512627
      78.1915817 67.7794724 0. 0. 0. 0. 0. 0. 0. 0. 0. 0. 0. 0. 0. 0. 0.
      25.9715786 9.65315819 4.38842106 41.8173676 71.5484238 15.6931581
      112.886841 70.8326263 72.1036835 118.818947 71.932106 76.5400009
      113.055786 77.49263 67.9057922 0. 0. 0. 0. 0. 0. 0. 0. 0. 0. 0. 0.
      0. 0. 0. 26.7678947 9.45684147 4.03789473 40.0289459 75.0257874
      14.952632 112.84948 70.6763153 71.8752594 118.287369 72.3547363
      75.9057846 112.721581 77.9652634 67.0968399 0. 0. 0. 0. 0. 0. 0.
      0. 0. 0. 0. 0. 0. 0. 0. 26.8868427 9.30789471 3.70526314
      40.1126289 74.1873703 14.9215794 113.247894 70.4163132 73.8373642
      118.800529 71.9705276 77.7121048 113.307892 77.3636856 68.3126297
      0. 0. 0. 0. 0. 0. 0. 0. 0. 0. 0. 0. 0. 0. 0. 26.7226315 9.24473667
      5.30315781 40.523159 72.8484192 16.3363171 113.557373 69.9552612
      71.8542099 119.754211 71.1052628 77.2194748 114.008949 76.5552597
      68.9252625 0. 0. 0. 0. 0. 0. 0. 0. 0. 0. 0. 0. 0. 0. 0. 26.9194736
      9.10631657 6.06684208 40.0078964 74.0778885 15.2510529 113.124741
      69.9373627 70.5784149 118.813156 71.5215759 76.8257904 112.587898
      77.4994736 67.4673691 0. 0. 0. 0. 0. 0. 0. 0. 0. 0. 0. 0. 0. 0. 0.
      26.6547356 8.78052616 6.05631542 41.3921051 72.2278976 16.9926319
      115.589996 68.1836853 68.6452637 121.274734 69.8799973 74.7105331
      115.043686 75.6384201 67.5321045 0. 0. 0. 0. 0. 0. 0. 0. 0. 0. 0.
      0. 0. 0. 0. 25.96842 9.01631546 7.52578974 41.3121033 71.0194702
      17.6452637 115.438423 67.7921066 64.5736847 120.69368 69.9684143
      71.2873688 114.277367 76.1605225 66.3994751 0. 0. 0. 0. 0. 0. 0.
      0. 0. 0. 0. 0. 0. 0. 0. 26.4936848 8.90947342 8.6563158 41.5973663
      72.3915787 16.8621044 115.072632 68.261055 64.4700012 120.102631
      70.5142059 70.6015778 113.717896 76.5526276 65.1731567 0. 0. 0. 0.
      0. 0. 0. 0. 0. 0. 0. 0. 0. 0. 0. 26.0736847 8.91263199 7.98684216
      42.1752625 70.7336807 14.5 115.170525 68.5799942 65.4489517
      120.080521 70.9089432 71.2078934 112.918945 77.8221054 65.5710526
      0. 0. 0. 0. 0. 0. 0. 0. 0. 0. 0. 0. 0. 0. 0. 27.0384216 8.94999981
      9.44000053 41.1242104 73.4863129 14.8836842 114.04158 69.0694733
      69.7810516 119.351051 70.7657928 75.3631516 112.662102 77.2657852
      66.6726303 0. 0. 0. 0. 0. 0. 0. 0. 0. 0. 0. 0. 0. 0. 0. 26.8757896
      8.97842121 8.98368454 41.7084198 72.3447418 14.3452635 113.877373
      69.404213 68.3426361 119.66053 70.7847366 74.0621033 112.914734
      77.3684235 66.2889481 0. 0. 0. 0. 0. 0. 0. 0. 0. 0. 0. 0. 0. 0. 0.
      27.0431576 8.97315788 9.10999966 41.841053 73.4636841 14.0484209
      113.199478 70.159996 69.0363159 118.821579 71.624733 75.1621017
      112.937897 77.6199951 67.6426315 0. 0. 0. 0. 0. 0. 0. 0. 0. 0. 0.
      0. 0. 0. 0. 27.0300007 9.14000034 9.23999977 42.6800003 71.1200027
      13.8699999 113.379997 69.9400024 70.7699966 119.050003 71.3899994
      76.4599991 112.739998 77.7600021 68.1100006</_>
    <_>
      0. 0. 0. 0. 0. 0. 0. 0. 0. 0. 0. 0. 0. 0. 0. 25.3799992 9.26000023
      8.23999977 41.6100006 69.3300018 12.5500002 113.940002 68.0500031
      61.3100014 120.419998 69.4000015 74.2300034 113.209999 77.1699982
      65.4000015 0. 0. 0. 0. 0. 0. 0. 0. 0. 0. 0. 0. 0. 0. 0. 26.0936852
      9.18473721 9.93736839 39.7957916 71.9384232 14.0052633 113.313164
      68.1868439 60.3352623 119.733162 69.5278931 70.5352631 112.48526
      77.2989426 63.928421 0. 0. 0. 0. 0. 0. 0. 0. 0. 0. 0. 0. 0. 0. 0.
      26.3263149 9.18526363 9.13315773 38.741581 72.8947372 15.4731579
      113.561058 68.321579 61.6078949 119.752632 69.8310547 72.5963135
      112.561584 77.6305237 64.9657898 0. 0. 0. 0. 0. 0. 0. 0. 0. 0. 0.
      0. 0. 0. 0. 25.5984211 9.57736778 8.54789448 39.9826317 71.6263199
      15.5394735 113.218422 68.6789474 61.352108 119.845261 69.9126358
      73.2363205 113.028954 77.5157928 65.6584167 0. 0. 0. 0. 0. 0. 0.
      0. 0. 0. 0. 0. 0. 0. 0. 26.0200005 9.10578918 9.68368435
      39.2105255 73.6736832 14.6536846 113.19632 69.045784 60.3694725
      119.803154 70.2373657 71.4657898 113.031052 77.7026291 65.0994797
      0. 0. 0. 0. 0. 0. 0. 0. 0. 0. 0. 0. 0. 0. 0. 25.3489475 9.3673687
      9.28157902 39.2021065 72.578949 15.7252626 112.904205 69.0378952
      58.9668427 119.595787 70.261055 70.3315811 113.021584 77.3615799
      64.1200027 0. 0. 0. 0. 0. 0. 0. 0. 0. 0. 0. 0. 0. 0. 0. 26.1036854
      9.05894756 8.80578899 39.5247345 73.3642044 14.6810522 113.106842
      68.8926315 61.0152626 119.448425 70.2947388 71.3026276 112.717896
      77.639473 64.9257889 0. 0. 0. 0. 0. 0. 0. 0. 0. 0. 0. 0. 0. 0. 0.
      25.7578945 9.15421009 9.23052692 39.5689468 72.2947388 15.1368418
      113.373688 69.0726318 62.6752663 119.485794 70.5820999 74.9263153
      112.787895 78.0473633 66.5926285 0. 0. 0. 0. 0. 0. 0. 0. 0. 0. 0.
      0. 0. 0. 0. 25.7947369 9.20947361 8.97263145 40.3031578 71.5526352
      14.1736841 113.571053 68.5200043 62.8331604 119.612106 70.1163177
      74.439476 112.756317 77.9315796 66.0663147 0. 0. 0. 0. 0. 0. 0. 0.
      0. 0. 0. 0. 0. 0. 0. 26.0200005 9.10157967 9.7168417 39.2826309
      72.9226303 14.0268421 113.036316 69.2615814 62.6100006 119.63842
      70.2047348 73.5426331 112.701576 77.6173706 65.8794708 0. 0. 0. 0.
      0. 0. 0. 0. 0. 0. 0. 0. 0. 0. 0. 25.8368416 9.38368416 10.1178951
      39.2700005 73.2926331 15.0889473 113.385788 68.7521057 60.8910522
      120.065788 69.821579 72.8778992 113.009476 77.3689499 64.7452621
      0. 0. 0. 0. 0. 0. 0. 0. 0. 0. 0. 0. 0. 0. 0. 25.6557884 9.34894753
      9.70157909 39.5589485 73.4521027 14.7773685 113.125259 68.9752579
      61.417366 119.68895 70.2636871 72.3878937 113.354736 77.2415771
      65.2763138 0. 0. 0. 0. 0. 0. 0. 0. 0. 0. 0. 0. 0. 0. 0. 25.7057896
      9.16210556 9.52000046 39.2878952 73.5810471 14.0668421 113.267372
      69.0173645 62.0805283 119.457367 70.571579 72.1194763 112.849472
      77.8442154 64.9105301 0. 0. 0. 0. 0. 0. 0. 0. 0. 0. 0. 0. 0. 0. 0.
      24.6405258 8.90000057 8.43736839 42.1157913 69.7110519 12.8500004
      113.536842 69.0552673 61.0089455 119.862106 70.5473709 73.2642059
      113.175789 77.9057922 65.3005295 0. 0. 0. 0. 0. 0. 0. 0. 0. 0. 0.
      0. 0. 0. 0. 25.7605267 9.26263142 9.98315811 40.5578957 72.921051
      13.5847368 113.461578 69.0315781 61.5121078 119.582634 70.5742111
      72.0857925 113.044212 77.9900055 65.1405258 0. 0. 0. 0. 0. 0. 0.
      0. 0. 0. 0. 0. 0. 0. 0. 25.9673691 9.01578999 9.0889473 39.3100014
      73.2942123 14.8684216 113.320526 68.9121017 60.7994728 120.110001
      69.7373657 72.5478973 113.026314 77.3157883 63.7994728 0. 0. 0. 0.
      0. 0. 0. 0. 0. 0. 0. 0. 0. 0. 0. 25.2715797 9.23526287 9.39789391
      39.8131561 72.643158 14.1610527 114.209473 68.253685 63.139473
      120.426315 69.8884201 74.003685 113.241051 77.5089493 65.6299973
      0. 0. 0. 0. 0. 0. 0. 0. 0. 0. 0. 0. 0. 0. 0. 25.3105259 9.2452631
      8.70473671 40.5389481 71.8284225 13.2526321 114.411575 67.6684189
      62.4978943 120.414734 69.4057846 72.9589462 113.179474 77.325264
      64.6094742 0. 0. 0. 0. 0. 0. 0. 0. 0. 0. 0. 0. 0. 0. 0. 25.5878944
      9.03157902 9.7215786 40.1236839 73.6205292 13.4136839 113.48526
      68.7942123 63.2110519 119.905785 70.0810547 73.5605316 113.47316
      77.4205246 66.2515793 0. 0. 0. 0. 0. 0. 0. 0. 0. 0. 0. 0. 0. 0. 0.
      24.1800003 8.89999962 8.31000042 41.2999992 70.9899979 14.4700003
      115.169998 67.5699997 60.7000008 121.150002 69.3300018 72.5699997
      113.959999 76.7099991 64.5699997</_>
    <_>
      0. 0. 0. 0. 0. 0. 0. 0. 0. 0. 0. 0. 0. 0. 0. 25.3500004 9.96000004
      3.98000002 39.9399986 76.6399994 15.6999998 105.980003 75.9899979
      58.4099998 113.07 76.2900009 68.1200027 109.32 80.3199997
      63.4799995 0. 0. 0. 0. 0. 0. 0. 0. 0. 0. 0. 0. 0. 0. 0. 24.3378944
      10.2515793 4.39157915 41.5484238 73.5889511 11.9426317 107.274208
      75.2384262 61.3694763 113.384209 76.1547394 69.9457932 108.996841
      80.7005234 64.0447388 0. 0. 0. 0. 0. 0. 0. 0. 0. 0. 0. 0. 0. 0. 0.
      25.2452621 10.2799997 3.74000001 40.2321053 76.5989456 13.0668421
      105.962105 76.3152618 62.4689484 112.645264 76.7394714 71.4068451
      109.120522 80.610527 65.3621063 0. 0. 0. 0. 0. 0. 0. 0. 0. 0. 0.
      0. 0. 0. 0. 24.3573685 10.1899996 2.8389473 40.523159 75.650528
      13.3921051 106.650528 75.5368423 62.7426338 113.955795 75.4263153
      71.5905304 109.935791 79.4942093 65.1305237 0. 0. 0. 0. 0. 0. 0.
      0. 0. 0. 0. 0. 0. 0. 0. 25.1878948 10.2626314 2.85631585
      40.1510506 77.3647385 14.8547363 105.728951 76.1657944 63.3794746
      112.957893 76.1642075 72.4694748 109.776848 79.6363144 65.4931564
      0. 0. 0. 0. 0. 0. 0. 0. 0. 0. 0. 0. 0. 0. 0. 25.9110527 9.91052628
      3.86052632 42.0615768 74.2852631 13.3868418 106.447891 75.9573669
      62.6052628 112.904732 76.5431519 72.2147369 109.002632 80.6415787
      66.0342102 0. 0. 0. 0. 0. 0. 0. 0. 0. 0. 0. 0. 0. 0. 0. 25.1836834
      10.0842104 4.97157907 41.3547363 73.7421112 14.5521049 104.562103
      77.2189484 59.9300003 111.918945 77.00737 71.3763199 108.204735
      81.2484207 66.6752625 0. 0. 0. 0. 0. 0. 0. 0. 0. 0. 0. 0. 0. 0. 0.
      25.1526318 9.95473671 5.30578947 39.515789 75.2547379 15.0636835
      103.562103 77.9310532 56.5584221 111.567894 77.2963181 67.8236847
      108.169472 81.2821045 64.4173737 0. 0. 0. 0. 0. 0. 0. 0. 0. 0. 0.
      0. 0. 0. 0. 25.3505268 10.0515795 4.52421045 40.1578941 76.2031555
      14.8684216 104.848953 77.2984238 58.1757889 111.915268 77.3878937
      67.8926315 108.80632 80.8521042 64.5010529 0. 0. 0. 0. 0. 0. 0. 0.
      0. 0. 0. 0. 0. 0. 0. 24.9815788 9.91631603 4.77263165 41.9152641
      74.47789 13.3242102 106.712105 75.7889481 64.332634 113.217896
      76.0794754 72.8847427 108.903687 80.6547394 66.7221069 0. 0. 0. 0.
      0. 0. 0. 0. 0. 0. 0. 0. 0. 0. 0. 24.5557899 9.85473633 5.5842104
      42.2131577 71.6447372 12.2615786 104.597366 77.1605225 58.5421028
      111.776321 77.1042099 69.4100037 107.366318 81.7705307 65.1510544
      0. 0. 0. 0. 0. 0. 0. 0. 0. 0. 0. 0. 0. 0. 0. 24.5484219 10.3194733
      6.51263142 42.1042137 73.904213 13.1984205 104.739998 77.3905258
      57.0657883 111.418953 77.6268387 68.3705215 107.011574 82.3942108
      64.6805267 0. 0. 0. 0. 0. 0. 0. 0. 0. 0. 0. 0. 0. 0. 0. 24.6363163
      10.3500004 4.45263147 41.6942101 74.0136871 14.131053 105.523689
      76.7636795 59.3694725 112.285789 76.8926315 69.5757904 107.584213
      81.8836823 64.9521103 0. 0. 0. 0. 0. 0. 0. 0. 0. 0. 0. 0. 0. 0. 0.
      24.2842102 10.400526 5.38894749 41.560524 73.4642105 13.4015789
      105.05632 77.0673676 56.8121033 112.08474 77.1021118 67.9352646
      107.628952 82.0694733 64.4221039 0. 0. 0. 0. 0. 0. 0. 0. 0. 0. 0.
      0. 0. 0. 0. 24.5384197 10.2710533 5.53894758 41.3510513 74.6294708
      13.0984211 106.010002 76.0873642 61.9947357 112.9021 76.1178894
      71.4342117 108.246841 81.132637 65.2184219 0. 0. 0. 0. 0. 0. 0. 0.
      0. 0. 0. 0. 0. 0. 0. 24.6978931 10.4478941 4.84684181 41.3705254
      73.0494766 11.671052 104.738426 77.3310547 60.6052628 111.753159
      77.2289429 71.7810516 107.488953 82.0400009 65.8478928 0. 0. 0. 0.
      0. 0. 0. 0. 0. 0. 0. 0. 0. 0. 0. 25.0931568 10.381052 5.79947376
      41.1147346 72.6684265 12.2257891 104.533157 77.332634 61.7700005
      111.212105 77.4573669 72.7373657 107.106842 82.2342148 66.9894714
      0. 0. 0. 0. 0. 0. 0. 0. 0. 0. 0. 0. 0. 0. 0. 24.9068413 9.93736839
      7.15315819 40.3452606 74.643158 12.2442102 106.210526 75.6363144
      60.583683 112.41526 76.4989471 70.3936844 107.493683 82.0663147
      65.6168442 0. 0. 0. 0. 0. 0. 0. 0. 0. 0. 0. 0. 0. 0. 0. 24.9589481
      10.1552629 6.60894728 41.3505287 76.4805298 11.9294739 106.451057
      75.6752625 60.8800011 112.863686 76.5400009 71.0705261 107.86158
      82.1605225 65.4663162 0. 0. 0. 0. 0. 0. 0. 0. 0. 0. 0. 0. 0. 0. 0.
      22.9200001 10.1999998 7.94000006 42.7400017 74.0299988 11.9499998
      109.089996 74.2699966 62.75 115.019997 75.0500031 71.9599991
      109.32 80.9400024 64.6500015</_>
    <_>
      0. 0. 0. 0. 0. 0. 0. 0. 0. 0. 0. 0. 0. 0. 0. 23.7900009 9.85000038
      7.26999998 42.6500015 70.2200012 10.2299995 105.870003 75.6600037
      61.2299995 112.690002 75.5599976 72.3499985 107.050003 81.5
      64.6699982 0. 0. 0. 0. 0. 0. 0. 0. 0. 0. 0. 0. 0. 0. 0. 25.1378956
      10.5999994 8.00526333 42.2299995 72.2400055 11.6615791 106.461578
      74.9700012 61.4352646 113.064209 75.1768417 72.4700012 108.213158
      80.9042053 66.2510529 0. 0. 0. 0. 0. 0. 0. 0. 0. 0. 0. 0. 0. 0. 0.
      24.0331573 10.0521049 6.82105255 42.671051 69.4531555 10.6878948
      106.600525 75.0699997 60.682106 113.761581 74.8831635 71.4668427
      108.383682 80.6626282 65.0931549 0. 0. 0. 0. 0. 0. 0. 0. 0. 0. 0.
      0. 0. 0. 0. 24.2021046 9.90999985 5.74736834 41.3905258 71.3036804
      13.301053 107.614212 74.1100006 59.2405243 114.36158 74.4726334
      69.9747391 109.408417 80.2284241 65.1705246 0. 0. 0. 0. 0. 0. 0.
      0. 0. 0. 0. 0. 0. 0. 0. 24.2226315 10.0321054 5.66631556
      43.1726303 68.924736 11.8484201 107.712631 74.2326355 61.349472
      114.270004 74.5384216 71.4563141 109.168419 80.2315826 65.3773727
      0. 0. 0. 0. 0. 0. 0. 0. 0. 0. 0. 0. 0. 0. 0. 24.2736835 10.2789478
      5.16210508 42.7700005 68.9847336 9.89578915 106.885262 74.9694748
      62.8142128 113.586845 75.2542114 72.3668365 108.426842 80.8510513
      66.0215836 0. 0. 0. 0. 0. 0. 0. 0. 0. 0. 0. 0. 0. 0. 0. 24.512104
      10.368948 4.93789434 41.7563171 70.3268433 9.74736786 105.88105
      75.9263153 64.5115814 112.336311 76.3657913 74.2220993 107.151054
      81.8884201 66.2821045 0. 0. 0. 0. 0. 0. 0. 0. 0. 0. 0. 0. 0. 0. 0.
      24.1694736 10.2105265 4.646842 42.1910515 70.3600006 10.0089474
      107.04895 74.8578949 62.606842 113.227898 75.7578964 71.8052597
      107.736847 81.674736 65.103157 0. 0. 0. 0. 0. 0. 0. 0. 0. 0. 0. 0.
      0. 0. 0. 24.2757893 9.99842167 5.02157879 42.2505264 69.3268433
      10.1321058 107.358948 74.7963104 63.3994751 113.56842 75.4842072
      73.2663116 107.889999 81.3621063 66.1889496 0. 0. 0. 0. 0. 0. 0.
      0. 0. 0. 0. 0. 0. 0. 0. 23.9142094 10.0742102 4.66315794
      42.2189484 69.1515808 9.10894775 105.917366 75.7042084 64.7763138
      112.374733 76.0400009 74.4584198 106.941055 81.9273682 66.1763229
      0. 0. 0. 0. 0. 0. 0. 0. 0. 0. 0. 0. 0. 0. 0. 24.4215794 10.0973692
      5.48000002 41.9942131 70.4636841 10.2710533 106.886314 75.4010544
      63.6421051 113.566841 75.5889435 74.1121063 108.111053 81.5010529
      66.8284225 0. 0. 0. 0. 0. 0. 0. 0. 0. 0. 0. 0. 0. 0. 0. 24.3489475
      10.0926313 5.77526283 40.9521027 70.064209 8.95894814 106.171051
      75.6789474 63.7889481 112.752106 76.0942078 73.4773712 107.468422
      81.8294678 66.6626358 0. 0. 0. 0. 0. 0. 0. 0. 0. 0. 0. 0. 0. 0. 0.
      24.5542107 10.2252626 6.21368408 40.3478966 71.424736 9.32157898
      106.132103 75.5736847 63.4342117 112.75 75.849472 73.803688
      107.558945 81.6678925 67.3368378 0. 0. 0. 0. 0. 0. 0. 0. 0. 0. 0.
      0. 0. 0. 0. 24.1084213 10.1294737 6.03315783 42.2931595 68.1494751
      8.89052582 107.130524 74.6084213 64.99263 113.033684 75.6063156
      73.8368454 107.068947 81.8189468 66.356842 0. 0. 0. 0. 0. 0. 0. 0.
      0. 0. 0. 0. 0. 0. 0. 24.6073685 10.3536844 6.20052624 41.9647369
      68.9342117 9.74473667 105.785263 75.6647415 63.5226288 112.086311
      76.1589432 73.7010498 106.764214 81.9768448 66.7468414 0. 0. 0. 0.
      0. 0. 0. 0. 0. 0. 0. 0. 0. 0. 0. 24.8947372 10.2278948 6.50210524
      40.9626312 70.7878952 10.5642109 105.830002 75.4821014 62.8731575
      111.849472 76.385788 72.571579 106.255264 82.5500031 65.8121033 0.
      0. 0. 0. 0. 0. 0. 0. 0. 0. 0. 0. 0. 0. 0. 24.20158 10.3542109
      6.19210529 43.0278931 67.5773697 9.1326313 107.728424 73.6263123
      64.7694778 113.476311 74.6726303 74.0626373 107.43895 81.1726303
      65.9768448 0. 0. 0. 0. 0. 0. 0. 0. 0. 0. 0. 0. 0. 0. 0. 24.825264
      10.3510523 5.87315798 41.9289474 70.5078964 11.0763159 107.235786
      74.1315765 63.3957901 112.756317 75.5694733 72.900528 107.604736
      81.4078979 66.3226318 0. 0. 0. 0. 0. 0. 0. 0. 0. 0. 0. 0. 0. 0. 0.
      24.3284206 9.99894714 5.46052599 43.3136864 67.9568405 11.190526
      109.362633 72.1694717 64.7826309 114.608948 73.8994751 72.9610519
      108.34211 80.4331589 65.4194717 0. 0. 0. 0. 0. 0. 0. 0. 0. 0. 0.
      0. 0. 0. 0. 26.1100006 10.0900002 7.3499999 42.6500015 69.1500015
      11.71 107.889999 73.5899963 67.1999969 112.82 75.3099976
      75.8700027 107.169998 81.4100037 67.5100021</_>
    <_>
      20.3899994 21.1100006 54.9199982 10.2399998 3.1099999 2.13000011
      47.8100014 128.630005 21.2199993 71.7799988 115.629997 32.7000008
      86.3099976 104.669998 41.1899986 0. 0. 0. 0. 0. 0. 0. 0. 0. 0. 0.
      0. 0. 0. 0. 19.7068424 20.0694733 54.8684235 10.5942106 3.54999995
      2.16736841 49.3626328 127.841576 23.3626328 71.9489441 115.970528
      34.0342102 84.8447418 106.498421 42.1226311 0. 0. 0. 0. 0. 0. 0.
      0. 0. 0. 0. 0. 0. 0. 0. 21.1384201 21.3626328 53.6863136
      10.2384205 3.15315771 2.10789466 46.6752625 129.826309 21.6026325
      67.5599976 119.591049 32.1531563 80.6063156 109.845787 39.4594727
      0. 0. 0. 0. 0. 0. 0. 0. 0. 0. 0. 0. 0. 0. 0. 21.1742096 20.1826324
      46.9510536 10.4121056 3.43421054 2.06157899 47.8221054 129.121048
      21.3415775 73.2268448 114.544212 33.2021027 85.650528 105.325264
      41.4221039 0. 0. 0. 0. 0. 0. 0. 0. 0. 0. 0. 0. 0. 0. 0. 19.8584213
      21.4873695 52.2973709 10.2363157 3.01368427 2.38947368 47.0494728
      129.014206 20.7842102 71.6331635 115.174736 32.6705284 83.3694763
      107.264214 40.6631584 0. 0. 0. 0. 0. 0. 0. 0. 0. 0. 0. 0. 0. 0. 0.
      21.1963158 22.7431564 53.8368416 10.4889469 3.0373683 2.16263151
      50.2600021 126.859474 22.0115795 73.8199997 113.946846 33.8173676
      84.2368469 106.462631 42.0031586 0. 0. 0. 0. 0. 0. 0. 0. 0. 0. 0.
      0. 0. 0. 0. 20.5042095 21.9957905 53.3131561 10.3989477 3.17526317
      2.16157889 48.4026337 128.131577 21.5478954 72.439476 114.683678
      33.0568428 84.8452606 105.84053 39.8936844 0. 0. 0. 0. 0. 0. 0. 0.
      0. 0. 0. 0. 0. 0. 0. 19.3342094 21.0626316 57.4531593 10.7968426
      3.05210519 2.20894742 51.173687 125.317894 22.9121037 74.9973679
      112.324738 35.0131569 85.75 104.533157 41.3573685 0. 0. 0. 0. 0.
      0. 0. 0. 0. 0. 0. 0. 0. 0. 0. 22.8331585 20.9142113 51.6310501
      10.3589468 3.17684197 2.35421062 47.3789482 129.625793 21.7910519
      71.347374 116.348946 33.2205276 82.7510529 108.242104 40.2389488
      0. 0. 0. 0. 0. 0. 0. 0. 0. 0. 0. 0. 0. 0. 0. 20.8263149 20.618948
      53.1231575 10.202631 3.57789469 2.03210521 48.8236847 128.070526
      21.7800007 73.2942123 114.324738 32.8400002 85.7447357 105.632103
      40.8594742 0. 0. 0. 0. 0. 0. 0. 0. 0. 0. 0. 0. 0. 0. 0. 20.9621048
      20.9652634 55.2136841 10.6478949 3.27999997 2.15842104 47.1200027
      129.594208 22.0299988 71.2557907 116.28421 33.261055 82.3421021
      108.875259 41.0647354 0. 0. 0. 0. 0. 0. 0. 0. 0. 0. 0. 0. 0. 0. 0.
      20.087368 21.5289478 55.8705254 10.2105265 3.27842093 2.07631588
      47.011055 129.954208 21.4031582 69.9768372 117.70842 31.8131561
      81.1547318 110.258423 38.5889473 0. 0. 0. 0. 0. 0. 0. 0. 0. 0. 0.
      0. 0. 0. 0. 20.6721058 22.5689468 51.2278938 11.0778942 3.73736835
      1.43999994 49.9589462 127.105263 23.4021053 75.3099976 112.114731
      35.7257919 88.1352615 101.866844 44.6884232 0. 0. 0. 0. 0. 0. 0.
      0. 0. 0. 0. 0. 0. 0. 0. 19.4168415 19.6321049 62.3831558
      10.2631578 3.34894729 2.38263154 50.1531601 126.920525 21.9242096
      74.4857864 113.095261 33.1678963 83.9573669 107.209999 39.5963173
      0. 0. 0. 0. 0. 0. 0. 0. 0. 0. 0. 0. 0. 0. 0. 20.3247375 22.2563152
      62.4010544 10.6510525 3.38789487 2.16157913 49.4031601 127.456841
      22.5484219 73.8499985 113.505791 34.6310539 85.8484268 104.577896
      42.1957893 0. 0. 0. 0. 0. 0. 0. 0. 0. 0. 0. 0. 0. 0. 0. 19.6742115
      20.881052 51.3536835 10.4557896 3.64789486 2.00368428 48.6968422
      128.629471 22.79842 73.4915848 114.434212 34.6073685 85.3615723
      106.112633 41.9621048 0. 0. 0. 0. 0. 0. 0. 0. 0. 0. 0. 0. 0. 0. 0.
      21.0621052 22.4678936 54.4278946 10.634737 3.37157893 1.45000005
      49.1826324 128.147369 21.7157898 72.5189438 115.53421 32.5742111
      85.9794693 105.51947 41.6115799 0. 0. 0. 0. 0. 0. 0. 0. 0. 0. 0.
      0. 0. 0. 0. 20.6847363 22.2836838 61.9594727 10.1368418 3.31999993
      1.93263161 49.3957901 127.384743 21.4378948 73.2952652 113.97316
      32.2194748 85.4036865 105.328423 39.4652634 0. 0. 0. 0. 0. 0. 0.
      0. 0. 0. 0. 0. 0. 0. 0. 20.0247364 21.4352627 69.2078934
      10.3710527 3.1657896 2.32578945 50.9431572 125.792107 21.9557896
      76.0442123 111.095787 33.8031578 86.011055 104.228951 39.4078941
      0. 0. 0. 0. 0. 0. 0. 0. 0. 0. 0. 0. 0. 0. 0. 23.2999992 21.4500008
      73.7600021 9.68999958 3.19000006 2.32999992 51.7700005 125.849998
      21.0900002 78.5500031 109.199997 31.7299995 90.6500015 100.360001
      38.9700012 0. 0. 0. 0. 0. 0. 0. 0. 0. 0. 0. 0. 0. 0. 0.</_>
    <_>
      24.5100002 19.1599998 81.5299988 10.3299999 3.1500001 2.75
      55.0400009 122.230003 23.4300003 82.9199982 104.269997 36.2999992
      95.6399994 93.8199997 43.7999992 0. 0. 0. 0. 0. 0. 0. 0. 0. 0. 0.
      0. 0. 0. 0. 24.015789 20.4552631 69.7810516 10.2226315 3.17578959
      2.34000015 52.814209 124.652634 22.2210522 79.7347412 107.934738
      33.889473 90.23526 99.8505249 40.2605247 0. 0. 0. 0. 0. 0. 0. 0.
      0. 0. 0. 0. 0. 0. 0. 22.3221054 21.103159 57.9600029 10.0042105
      3.17842102 2.43052626 53.0878944 124.238953 21.0915794 78.8915787
      108.656319 32.1926308 90.4336853 100.243156 38.8147354 0. 0. 0. 0.
      0. 0. 0. 0. 0. 0. 0. 0. 0. 0. 0. 20.9552631 23.3563156 69.6299973
      10.0552635 2.62894726 2.03789473 54.1957893 122.477371 20.7157898
      78.5273666 108.744736 31.8599987 86.1484146 104.142632 37.135788
      0. 0. 0. 0. 0. 0. 0. 0. 0. 0. 0. 0. 0. 0. 0. 23.7842102 21.0236835
      72.0689468 9.96421051 3.15473676 2.42526317 53.9589462 123.032112
      22.1915779 79.6347351 107.537895 33.0310516 92.7857895 97.275795
      40.2915802 0. 0. 0. 0. 0. 0. 0. 0. 0. 0. 0. 0. 0. 0. 0. 24.6373672
      19.9884224 66.5926361 9.90421009 3.03894734 2.38842106 52.928421
      123.644737 21.5947361 79.3521042 107.543159 33.3652649 90.6957932
      98.9326324 39.4547386 0. 0. 0. 0. 0. 0. 0. 0. 0. 0. 0. 0. 0. 0. 0.
      24.5326309 21.0894737 69.810524 10.134737 3.4015789 2.37947369
      53.0473671 124.353683 22.4947357 79.404213 108.093163 32.8852615
      92.617897 97.7252655 40.2936821 0. 0. 0. 0. 0. 0. 0. 0. 0. 0. 0.
      0. 0. 0. 0. 21.9605274 22.3731575 70.4215851 10.3384209 3.00368428
      1.98631585 51.2331581 125.613686 20.7042103 75.4773712 111.835266
      30.7915783 86.2231598 104.551056 37.9157867 0. 0. 0. 0. 0. 0. 0.
      0. 0. 0. 0. 0. 0. 0. 0. 23.4242096 22.2015781 72.7578964
      10.0489473 2.68052626 2.57210517 52.8726311 123.849998 21.2421055
      76.7099991 110.335793 31.6000004 84.9936829 105.233154 36.7789459
      0. 0. 0. 0. 0. 0. 0. 0. 0. 0. 0. 0. 0. 0. 0. 22.5052624 22.4099998
      75.9268417 10.2431583 2.88894749 2.39210534 54.0884209 122.866318
      22.1105251 78.8984222 108.267372 33.1599998 88.8005219 101.184738
      38.5773659 0. 0. 0. 0. 0. 0. 0. 0. 0. 0. 0. 0. 0. 0. 0. 23.6231594
      20.150526 67.078949 9.96052647 2.95684195 2.53210521 50.5584221
      126.054733 21.2210522 75.685791 111.31263 32.0389481 88.5731583
      101.405785 38.3426323 0. 0. 0. 0. 0. 0. 0. 0. 0. 0. 0. 0. 0. 0. 0.
      23.384737 22.7226315 71.1226349 10.178421 2.75789475 1.94000006
      51.6526299 125.197365 21.0426311 76.2478943 110.965263 31.9142113
      86.343689 103.823158 38.5952644 0. 0. 0. 0. 0. 0. 0. 0. 0. 0. 0.
      0. 0. 0. 0. 25.7163162 21.0299988 61.3284225 9.43842125 2.82947373
      2.34894729 51.5531578 125.405792 20.2757893 76.9257965 110.418419
      31.1957893 91.4294739 98.9573669 38.7957916 0. 0. 0. 0. 0. 0. 0.
      0. 0. 0. 0. 0. 0. 0. 0. 22.9073677 20.182106 65.2221069 10.4047365
      3.04736829 2.64736843 52.1831551 124.501053 22.3126316 76.8026276
      110.195786 33.6399994 88.3600006 101.496315 39.4494743 0. 0. 0. 0.
      0. 0. 0. 0. 0. 0. 0. 0. 0. 0. 0. 24.0926323 19.1478958 68.1373672
      9.94894791 3.1563158 2.37631559 52.6163139 124.606842 21.6599998
      79.3652649 108.023682 32.4378929 93.1489487 97.0757904 39.9063148
      0. 0. 0. 0. 0. 0. 0. 0. 0. 0. 0. 0. 0. 0. 0. 24.4305248 20.8557892
      63.3763123 10.3357897 2.97736835 2.13368416 49.9152641 126.994209
      21.4699993 75.4657898 111.744736 32.4252625 88.332634 101.558945
      39.6668396 0. 0. 0. 0. 0. 0. 0. 0. 0. 0. 0. 0. 0. 0. 0. 25.6421051
      21.7999992 54.6021042 9.82736874 3.13894749 2.05421066 49.0505257
      127.904732 20.3715782 74.7773666 112.516319 30.6942101 89.4868469
      101.128952 38.7557869 0. 0. 0. 0. 0. 0. 0. 0. 0. 0. 0. 0. 0. 0. 0.
      23.1768417 22.6147366 63.746315 10.4652624 3.09157896 1.70105267
      50.2236862 126.822632 21.519474 72.849472 114.644211 31.4289474
      83.5173721 107.217896 37.6936874 0. 0. 0. 0. 0. 0. 0. 0. 0. 0. 0.
      0. 0. 0. 0. 21.3231583 21.5599995 70.3526306 10.0126314 2.70684195
      2.30947351 49.8926315 126.537369 20.4026318 75.003685 111.875786
      31.6089478 83.7768402 106.527893 36.7373657 0. 0. 0. 0. 0. 0. 0.
      0. 0. 0. 0. 0. 0. 0. 0. 23.4799995 22.1000004 61.7799988
      9.97999954 2.68000007 2.26999998 50.7299995 126.080002 21.2999992
      75.8700027 111.32 32.6300011 87.3899994 102.849998 38.1899986 0.
      0. 0. 0. 0. 0. 0. 0. 0. 0. 0. 0. 0. 0. 0.</_>
    <_>
      20.3999996 27.1100006 67.5599976 11.0500002 1.69000006 2.27999997
      39.9300003 135.559998 22.4300003 57.1500015 128.759995 34.0999985
      67.0400009 123.169998 40.5900002 0. 0. 0. 0. 0. 0. 0. 0. 0. 0. 0.
      0. 0. 0. 0. 22.2126331 27.7236843 67.1705322 11.3426313 1.99473679
      2.61000013 38.110527 137.937363 23.5836849 56.1657906 129.887375
      35.8210526 66.7352676 123.309998 40.9947357 0. 0. 0. 0. 0. 0. 0.
      0. 0. 0. 0. 0. 0. 0. 0. 22.6000004 27.7510529 68.5084229
      10.7799997 1.96000004 2.28947377 38.6952629 137.539993 22.3021069
      58.0710526 128.20369 34.70895 67.8726273 122.627892 40.2584229 0.
      0. 0. 0. 0. 0. 0. 0. 0. 0. 0. 0. 0. 0. 0. 26.1268425 26.4699993
      52.9542084 10.4989471 2.27999997 1.99526322 38.5452652 137.969467
      21.7378941 59.4289474 126.957375 33.3205261 70.3210526 119.500526
      37.8768425 0. 0. 0. 0. 0. 0. 0. 0. 0. 0. 0. 0. 0. 0. 0. 24.1226311
      25.6515789 64.6494751 10.5636845 2.24578953 2.76473689 41.2115784
      135.229996 22.6836853 63.7752609 122.377373 35.9642105 72.154213
      117.506844 39.2736855 0. 0. 0. 0. 0. 0. 0. 0. 0. 0. 0. 0. 0. 0. 0.
      22.3905258 27.2094746 67.8505249 11.0721054 2.51684213 2.79842091
      39.2010536 137.038956 24.7863159 58.3715782 127.565788 37.4610519
      66.086319 123.484734 39.3763161 0. 0. 0. 0. 0. 0. 0. 0. 0. 0. 0.
      0. 0. 0. 0. 23.7621059 26.1221066 63.9231567 10.9742107 1.73105264
      2.75947356 39.3831596 136.346832 22.6463165 56.8589478 129.064209
      34.6957893 66.0105286 124.032631 40.8836861 0. 0. 0. 0. 0. 0. 0.
      0. 0. 0. 0. 0. 0. 0. 0. 23.5394726 27.1405258 53.9189453
      10.5763159 1.97263157 2.47052646 36.6168404 139.747894 22.3194752
      52.5673676 133.687378 32.9952621 60.9610519 130.143158 37.5584183
      0. 0. 0. 0. 0. 0. 0. 0. 0. 0. 0. 0. 0. 0. 0. 23.5415783 25.5252628
      53.512104 11.3326321 2.24263167 2.20684218 35.6226311 140.611588
      23.2957897 50.6347351 135.353149 34.182106 59.7568436 130.19632
      37.5421028 0. 0. 0. 0. 0. 0. 0. 0. 0. 0. 0. 0. 0. 0. 0. 22.8736839
      25.7747364 60.776844 11.3721056 2.13684201 2.99789476 34.9926338
      140.520004 23.0321045 48.3310509 136.600525 34.2863159 54.3584213
      134.997894 36.5126305 0. 0. 0. 0. 0. 0. 0. 0. 0. 0. 0. 0. 0. 0. 0.
      24.3826313 21.706316 54.3873672 11.9857893 2.32315779 3.63894725
      34.2815781 141.335785 23.0347366 47.5742111 137.453156 33.1452637
      53.1047363 135.907364 34.7147369 0. 0. 0. 0. 0. 0. 0. 0. 0. 0. 0.
      0. 0. 0. 0. 23.2663155 23.8126316 66.25 11.4568415 2.1305263
      3.33736825 35.7136841 140.052109 23.5684204 48.9873657 136.464737
      34.8094749 55.2157898 134.015793 37.4431572 0. 0. 0. 0. 0. 0. 0.
      0. 0. 0. 0. 0. 0. 0. 0. 24.0247383 24.777895 60.1826324 12.0815792
      1.65947366 3.07999992 35.3057899 140.515778 23.4457893 48.837368
      136.342636 34.4778938 54.0663147 134.224747 35.3100014 0. 0. 0. 0.
      0. 0. 0. 0. 0. 0. 0. 0. 0. 0. 0. 24.1668415 23.8873672 52.9021034
      10.5989475 2.27999997 2.76263165 35.4005241 141.04631 22.3231583
      50.0831566 136.034744 32.5405235 57.3489456 132.628418 35.29105 0.
      0. 0. 0. 0. 0. 0. 0. 0. 0. 0. 0. 0. 0. 0. 23.3236847 23.7605267
      58.5557899 11.4952631 1.63684213 2.62473702 34.4631577 141.279999
      21.4468422 47.8342133 137.61264 31.8578949 54.1268425 135.518417
      34.6926308 0. 0. 0. 0. 0. 0. 0. 0. 0. 0. 0. 0. 0. 0. 0. 24.0678959
      24.5900002 54.6426315 11.1863155 2.50263166 2.77421045 34.6594734
      141.228943 23.0178947 48.4668427 136.783157 33.4415779 55.1673698
      133.971573 34.9647369 0. 0. 0. 0. 0. 0. 0. 0. 0. 0. 0. 0. 0. 0. 0.
      23.9757881 24.7484207 53.3868408 11.9294729 2.25263166 2.92894745
      33.2331581 142.532623 22.9163151 47.8626289 137.36264 34.3184204
      54.9315796 134.04895 35.2842102 0. 0. 0. 0. 0. 0. 0. 0. 0. 0. 0.
      0. 0. 0. 0. 23.1315784 21.7647381 48.6847382 11.3778944 3.23421049
      3.03105283 35.2884216 141.7742 24.5673676 50.4389496 136.44368
      34.8936844 57.5652657 132.768936 37.1826324 0. 0. 0. 0. 0. 0. 0.
      0. 0. 0. 0. 0. 0. 0. 0. 22.7215786 25.2768421 55.8547363 11.718421
      2.31736851 2.58315802 34.7847366 141.357895 23.9242115 49.0631599
      136.76474 34.9852638 57.2626305 132.119995 37.4457893 0. 0. 0. 0.
      0. 0. 0. 0. 0. 0. 0. 0. 0. 0. 0. 23.2800007 24.4599991 48.2200012
      11.0299997 1.92999995 2.25999999 36.5400009 139.080002 22.5100002
      51.2200012 134.270004 33.2400017 57.5600014 131.389999 35.7099991
      0. 0. 0. 0. 0. 0. 0. 0. 0. 0. 0. 0. 0. 0. 0.</_>
    <_>
      26.2199993 28.6200008 61.2999992 11. 1.51999998 2.01999998
      35.3199997 140.660004 21.3799992 49.6599998 135.880005 31.7299995
      58.3199997 131.160004 34.5900002 0. 0. 0. 0. 0. 0. 0. 0. 0. 0. 0.
      0. 0. 0. 0. 24.5815792 24.6631565 54.8384209 11.328948 1.70473683
      2.82789469 35.6963158 140.442108 22.0205269 48.7852631 137.071579
      31.5405273 54.8110504 134.76947 33.6231575 0. 0. 0. 0. 0. 0. 0. 0.
      0. 0. 0. 0. 0. 0. 0. 25.0078945 26.2994728 64.25737 11.1405268
      2.44473672 2.57631564 35.9631577 140.79158 22.3442097 50.2752609
      135.891052 32.2815781 56.6010551 132.937897 34.1484222 0. 0. 0. 0.
      0. 0. 0. 0. 0. 0. 0. 0. 0. 0. 0. 23.3473682 26.087368 61.1047363
      10.5057888 1.25631583 2.1726315 36.1405258 139.372635 20.0363159
      50.4394722 135.106842 29.6631584 59.1289482 130.768936 34.1142082
      0. 0. 0. 0. 0. 0. 0. 0. 0. 0. 0. 0. 0. 0. 0. 24.7099991 26.5878944
      62.0494728 10.7926311 1.65421057 2.33315778 36.3563156 139.808426
      21.5252628 51.0805244 134.809464 31.8426304 58.7363167 131.176834
      34.9542084 0. 0. 0. 0. 0. 0. 0. 0. 0. 0. 0. 0. 0. 0. 0. 25.1931572
      26.6657887 49.8642082 11.0615788 1.60631573 2.52315784 35.3768425
      140.172638 21.4557896 49.2894745 135.967377 31.2173672 56.837368
      132.515259 33.4178963 0. 0. 0. 0. 0. 0. 0. 0. 0. 0. 0. 0. 0. 0. 0.
      23.7773685 26.936842 59.3978958 10.825263 1.80526316 2.44999981
      36.0931587 140.006317 22.1036854 49.7494736 136.156845 32.5431595
      56.844738 133.335266 34.6926308 0. 0. 0. 0. 0. 0. 0. 0. 0. 0. 0.
      0. 0. 0. 0. 25.0184212 25.7810516 52.9131584 11.171052 1.64894736
      2.3599999 35.7615814 140.366302 21.729475 51.2131577 134.536835
      32.9031601 59.2273674 130.388947 35.0573654 0. 0. 0. 0. 0. 0. 0.
      0. 0. 0. 0. 0. 0. 0. 0. 25.6115799 25.8342094 59.2626305
      10.7436848 1.61263156 2.59263158 36.705265 139.131577 20.6515789
      51.8257904 133.845261 30.9184208 59.7310524 130.078949 34.0310516
      0. 0. 0. 0. 0. 0. 0. 0. 0. 0. 0. 0. 0. 0. 0. 26.2889481 26.7578945
      66.2605286 10.8115788 1.37421048 2.91947365 37.7063141 138.141571
      21.4757881 55.2931595 129.877365 32.8352623 62.9442101 125.878952
      34.6578941 0. 0. 0. 0. 0. 0. 0. 0. 0. 0. 0. 0. 0. 0. 0. 25.5257893
      26.5410519 59.1878929 10.6415787 2.20684195 2.35263157 37.2394753
      139.397888 21.7142105 52.1573677 133.886307 31.9736843 60.4500008
      129.618408 34.6978951 0. 0. 0. 0. 0. 0. 0. 0. 0. 0. 0. 0. 0. 0. 0.
      24.8042088 26.3152637 56.7847366 10.8673687 2.33315802 2.28157902
      37.1621056 139.112106 22.3836842 52.610527 133.43631 33.3915787
      59.6510544 129.910522 35.4700012 0. 0. 0. 0. 0. 0. 0. 0. 0. 0. 0.
      0. 0. 0. 0. 22.4499989 22.9826317 57.5373688 11.2678947 2.24789476
      2.07473683 38.5278969 138.118942 24.7073669 53.1963158 133.456833
      34.8157883 62.1268425 127.911583 38.205265 0. 0. 0. 0. 0. 0. 0. 0.
      0. 0. 0. 0. 0. 0. 0. 24.1978951 26.3315792 64.2589493 10.7705269
      2.2384212 2.79473686 38.3810539 137.901047 23.527895 55.2142105
      130.358948 36.3315811 61.8189468 127.163155 37.5278931 0. 0. 0. 0.
      0. 0. 0. 0. 0. 0. 0. 0. 0. 0. 0. 21.9294739 23.5973682 56.2968407
      11.4626322 2.25842118 2.60789466 37.1473694 139.315262 24.8842106
      54.0673714 132.155792 35.8910522 62.5494766 126.64579 36.7705269
      0. 0. 0. 0. 0. 0. 0. 0. 0. 0. 0. 0. 0. 0. 0. 22.5810528 26.2247372
      66.0768433 10.5121059 2.25684214 2.50526333 37.9931564 138.467361
      23.515789 53.7605286 132.253677 34.9589462 60.1542091 129.413162
      35.6273689 0. 0. 0. 0. 0. 0. 0. 0. 0. 0. 0. 0. 0. 0. 0. 24.0626316
      26.3415775 63.8615799 10.5668421 1.89210534 2.84473681 38.4378929
      137.555801 23.154211 54.265789 131.367889 34.4931602 61.4178925
      127.734215 35.6968422 0. 0. 0. 0. 0. 0. 0. 0. 0. 0. 0. 0. 0. 0. 0.
      25.4215775 27.460001 61.3905258 10.9931574 1.83210528 3.01999998
      38.1384201 138.550003 24.1263161 53.9226303 131.866837 36.3757896
      60.9847374 128.057373 36.0499992 0. 0. 0. 0. 0. 0. 0. 0. 0. 0. 0.
      0. 0. 0. 0. 24.6405258 25.2763157 56.8352661 10.9815788 1.8168422
      3.09105253 38.5563164 137.684219 23.7878952 54.7431564 131.122101
      35.0526314 62.2142105 126.893158 35.4668427 0. 0. 0. 0. 0. 0. 0.
      0. 0. 0. 0. 0. 0. 0. 0. 23.2600002 27.9200001 68.0199966
      10.4200001 2.58999991 2.4000001 39.0999985 137.649994 24.2000008
      55.0400009 130.979996 35.6399994 60.1899986 129. 35.7000008 0. 0.
      0. 0. 0. 0. 0. 0. 0. 0. 0. 0. 0. 0. 0.</_>
    <_>
      25.4699993 10.1999998 5.01999998 22.4500008 95.5 33.0200005 111.18
      66.0899963 57.9199982 122.629997 66.1800003 73.3499985 124.18
      60.4300003 74.0899963 0. 0. 0. 0. 0. 0. 0. 0. 0. 0. 0. 0. 0. 0. 0.
      26.1810513 10.2905264 4.56947374 22.2478943 94.0363159 35.0852661
      109.503685 67.1663132 58.1163139 121.857895 66.4631577 74.4710541
      124.503685 59.8336868 76.7410507 0. 0. 0. 0. 0. 0. 0. 0. 0. 0. 0.
      0. 0. 0. 0. 25.6852627 10.0421057 5.1452632 22.1384201 93.4089508
      35.356842 110.271057 66.5842133 57.2005272 122.138947 66.3231583
      73.7226334 124.343689 59.7842102 75.928421 0. 0. 0. 0. 0. 0. 0. 0.
      0. 0. 0. 0. 0. 0. 0. 25.8078957 9.82999992 4.91473675 22.6410522
      94.1836853 33.6473694 110.682625 66.4421082 56.4536858 122.410522
      66.5389481 72.4700012 124.543686 59.8152618 74.7831573 0. 0. 0. 0.
      0. 0. 0. 0. 0. 0. 0. 0. 0. 0. 0. 25.5094738 9.84000015 4.13736868
      22.4963169 94.9226303 33.6447372 109.897369 66.9447403 59.3789482
      121.696312 66.8694763 74.3557892 123.413681 60.8868446 75.424736
      0. 0. 0. 0. 0. 0. 0. 0. 0. 0. 0. 0. 0. 0. 0. 26.0731583 9.89947414
      3.67526317 22.396841 94.3736877 33.8736839 110.074211 66.7778931
      57.7521057 121.705788 66.8715744 73.7273712 123.144211 61.04842
      75.3089447 0. 0. 0. 0. 0. 0. 0. 0. 0. 0. 0. 0. 0. 0. 0. 26.1573677
      9.97736835 3.03736854 22.1694736 93.4073715 35.578949 109.726845
      67.2494736 57.5205269 121.945793 66.7810516 73.2621078 123.527367
      61.1978951 75.7110519 0. 0. 0. 0. 0. 0. 0. 0. 0. 0. 0. 0. 0. 0. 0.
      26.4905262 10.1357899 3.1889472 22.634737 94.6231537 33.3505287
      109.807365 67.1494751 58.1252632 121.960526 66.7336807 73.8147354
      123.762634 61.082634 76.4215775 0. 0. 0. 0. 0. 0. 0. 0. 0. 0. 0.
      0. 0. 0. 0. 27.4057903 10.4105263 3.04421043 22.7810516 93.4384232
      33.7952614 110.632629 66.3021088 60.5389481 122.705795 65.8600006
      75.8431625 125.099998 59.8873672 79.3510513 0. 0. 0. 0. 0. 0. 0.
      0. 0. 0. 0. 0. 0. 0. 0. 26.0789471 9.97473717 2.60421062
      22.7926311 93.4589462 33.2363129 111.547363 66.1557846 60.4121056
      123.106316 66.0800018 74.3057861 124.974731 60.1673698 76.3573685
      0. 0. 0. 0. 0. 0. 0. 0. 0. 0. 0. 0. 0. 0. 0. 26.7126312 10.0557899
      3.80526304 23.3747368 92.1547394 33.3468437 111.097893 66.1042099
      60.6405258 122.487366 66.0063171 75.845787 124.19368 59.9757919
      77.7278976 0. 0. 0. 0. 0. 0. 0. 0. 0. 0. 0. 0. 0. 0. 0. 26.7521057
      10.262105 2.91368413 23.3426323 92.0289459 33.5499992 111.207893
      65.9152603 59.8036842 122.887901 65.9542084 76.3542099 124.786842
      60.1484222 79.3368378 0. 0. 0. 0. 0. 0. 0. 0. 0. 0. 0. 0. 0. 0. 0.
      26.2952633 10.5084209 3.12789464 22.9400005 94.1605225 32.6289482
      111.703156 65.5068436 60.5673676 122.727371 66.0599976 75.9742126
      124.075264 60.1410561 77.2815781 0. 0. 0. 0. 0. 0. 0. 0. 0. 0. 0.
      0. 0. 0. 0. 25.6426315 10.2173681 3.18315792 22.8042107 94.2542114
      32.6705284 111.325264 66.056839 58.9821053 122.512634 66.4794693
      74.2768478 123.620529 60.6421051 74.7326279 0. 0. 0. 0. 0. 0. 0.
      0. 0. 0. 0. 0. 0. 0. 0. 26.0657902 10.4742107 2.82315803
      22.8589478 94.1573639 33.00737 111.447372 65.8442154 59.0599976
      122.647369 66.2605286 74.8410568 123.845795 60.4947357 76.2926331
      0. 0. 0. 0. 0. 0. 0. 0. 0. 0. 0. 0. 0. 0. 0. 26.2415791 10.2563162
      2.94789457 22.3757896 95.1199951 33.1663132 110.758423 66.5884171
      59.4584198 122.024734 66.9947357 74.0852661 123.638947 61.1215782
      75.3005295 0. 0. 0. 0. 0. 0. 0. 0. 0. 0. 0. 0. 0. 0. 0. 25.8110523
      10.1631584 4.2126317 22.4036846 92.2399979 35.5531578 110.312103
      66.8126373 59.6226311 122.064217 66.5389481 75.1242065 123.511055
      60.8247375 76.0226364 0. 0. 0. 0. 0. 0. 0. 0. 0. 0. 0. 0. 0. 0. 0.
      26.3584213 9.99578953 2.55315781 22.4747353 94.6526337 33.8463173
      110.812103 66.3600006 59.9363174 122.407372 66.3657913 75.6247406
      123.967896 60.3726311 77.0736847 0. 0. 0. 0. 0. 0. 0. 0. 0. 0. 0.
      0. 0. 0. 0. 26.3236847 9.93578911 2.54052639 22.381052 93.8726349
      34.117897 111.347893 66.0421066 58.9700012 122.872635 66.2057877
      75.2068405 124.746841 59.9568405 77.5652618 0. 0. 0. 0. 0. 0. 0.
      0. 0. 0. 0. 0. 0. 0. 0. 25.4300003 9.89999962 3.75999999
      22.2299995 95.1500015 33.1100006 110.32 66.9199982 59.4700012
      122.190002 66.6600037 75.0599976 123.699997 60.6800003 75.5299988
      0. 0. 0. 0. 0. 0. 0. 0. 0. 0. 0. 0. 0. 0. 0.</_>
    <_>
      29.8199997 11.7299995 9.09000015 29.1299992 79.5599976 29.3799992
      114.650002 64.7799988 54.3699989 126.150002 65.1399994 75.
      129.169998 57.5900002 80.9100037 0. 0. 0. 0. 0. 0. 0. 0. 0. 0. 0.
      0. 0. 0. 0. 29.3415794 11.944211 8.86157894 28.9899998 81.2578888
      28.5468426 114.313156 65.7010498 54.6978951 126.239998 65.8984222
      75.174736 129.098953 58.1263161 81.0042114 0. 0. 0. 0. 0. 0. 0. 0.
      0. 0. 0. 0. 0. 0. 0. 31.6184216 12.1557894 9.04368401 27.4205265
      85.6147385 29.4310513 115.124741 64.1989441 57.3947372 127.123161
      64.4036865 78.4378967 130.38736 56.9442101 85.3936844 0. 0. 0. 0.
      0. 0. 0. 0. 0. 0. 0. 0. 0. 0. 0. 29.7568417 11.8363161 11.6026316
      27.4836845 84.9257889 30.2021046 115.598419 64.3300018 56.5499992
      125.707367 66.5157928 74.4952621 128.21106 58.3026314 78.9531555
      0. 0. 0. 0. 0. 0. 0. 0. 0. 0. 0. 0. 0. 0. 0. 29.2600002 11.5305262
      8.66842079 27.2600002 86.4236832 29.9784203 116.038422 63.8431549
      57.6726303 125.693153 65.9636841 73.8721085 127.26947 57.503685
      75.6563187 0. 0. 0. 0. 0. 0. 0. 0. 0. 0. 0. 0. 0. 0. 0. 29.5894737
      11.6363163 11.4289474 27.4210529 85.0173721 30.0863152 116.105263
      63.8478966 58.2152634 126.06263 65.5321045 74.9715805 128.741577
      56.9521065 79.128418 0. 0. 0. 0. 0. 0. 0. 0. 0. 0. 0. 0. 0. 0. 0.
      29.6084213 12.0657892 9.31315804 28.2968407 84.3394775 29.9852638
      116.515793 63.4584198 58.4657898 126.424736 65.4921036 75.5421066
      128.421585 56.9731598 79.0589447 0. 0. 0. 0. 0. 0. 0. 0. 0. 0. 0.
      0. 0. 0. 0. 29.789999 12.0668421 12.3342113 27.8321037 85.1315765
      29.547369 116.178421 63.7036819 56.6436844 125.91526 66.132103
      74.2163162 128.339996 57.9473686 78.1721039 0. 0. 0. 0. 0. 0. 0.
      0. 0. 0. 0. 0. 0. 0. 0. 29.6200008 11.416316 11.571579 28.1089478
      83.9536896 29.1289463 115.45842 64.5189438 55.6100006 125.167892
      66.8836823 73.8021011 127.541054 58.4000015 77.7089462 0. 0. 0. 0.
      0. 0. 0. 0. 0. 0. 0. 0. 0. 0. 0. 29.7110519 11.6721048 8.54894733
      27.900526 85.2873688 29.1931572 115.904732 63.9531593 57.5205269
      126.141052 65.9821091 75.3668442 128.45105 57.666317 78.9694748 0.
      0. 0. 0. 0. 0. 0. 0. 0. 0. 0. 0. 0. 0. 0. 29.8657894 11.5689478
      11.29 27.9815788 87.2252655 28.4415798 115.492104 64.3142166
      57.2257919 125.639999 66.3284225 75.2710495 128.45105 57.9610558
      80.3768387 0. 0. 0. 0. 0. 0. 0. 0. 0. 0. 0. 0. 0. 0. 0. 29.0868435
      11.7642107 10.0326319 28.9984207 84.371582 29.6652641 116.479469
      63.8010521 60.4463158 126.083679 66.3805237 75.7789459 128.057373
      58.1278954 78.3573685 0. 0. 0. 0. 0. 0. 0. 0. 0. 0. 0. 0. 0. 0. 0.
      30.0710526 12.0405264 9.01368427 28.9715786 82.1810532 30.4584217
      115.585266 64.1873703 58.2194748 125.375786 65.8263168 75.3421097
      127.076843 57.9910507 77.0010529 0. 0. 0. 0. 0. 0. 0. 0. 0. 0. 0.
      0. 0. 0. 0. 29.337368 11.8610525 9.8957901 28.2421055 83.8815765
      29.5305271 115.231056 64.7336807 57.7163162 125.864204 65.9236832
      75.849472 128.44368 57.8547363 79.3789444 0. 0. 0. 0. 0. 0. 0. 0.
      0. 0. 0. 0. 0. 0. 0. 29.6489487 11.9515791 9.10000038 27.9894733
      83.0984192 30.6547375 115.576317 64.3926315 56.8699989 125.824211
      65.860527 74.4221115 128.511063 57.8505287 78.8631592 0. 0. 0. 0.
      0. 0. 0. 0. 0. 0. 0. 0. 0. 0. 0. 29.5347366 12.1705265 8.58947372
      28.0442104 83.3752594 29.8089466 117.295258 63.1194725 59.0168419
      126.244209 65.8257904 74.682106 127.769997 58.0557899 76.7652664
      0. 0. 0. 0. 0. 0. 0. 0. 0. 0. 0. 0. 0. 0. 0. 30.2331581 12.4710522
      6.82000017 28.0294743 81.4984207 32.0568428 117.405792 62.606842
      55.2099991 126.591057 65.2836838 70.8005295 128.484207 57.0363159
      73.0605316 0. 0. 0. 0. 0. 0. 0. 0. 0. 0. 0. 0. 0. 0. 0. 31.7394733
      12.6221056 6.0326314 28.3973675 81.9642105 32.2810516 117.203682
      62.7526321 57.0831566 127.3479 64.3878937 73.9052582 130.169998
      56.0568428 78.5205231 0. 0. 0. 0. 0. 0. 0. 0. 0. 0. 0. 0. 0. 0. 0.
      30.6110535 12.9442101 6.14210558 29.519474 78.6715775 31.3842106
      117.035263 63.2926292 57.1010513 127.25 64.7321014 73.7157898
      129.359482 56.8147392 77.3805237 0. 0. 0. 0. 0. 0. 0. 0. 0. 0. 0.
      0. 0. 0. 0. 29.5 11.8500004 7.26000023 30.8700008 75.2900009
      31.8799992 116.379997 64.1500015 58.1199989 126.550003 65.5599976
      76.0599976 128.830002 57.9000015 80.3600006 0. 0. 0. 0. 0. 0. 0.
      0. 0. 0. 0. 0. 0. 0. 0.</_>
    <_>
      30.4599991 12.2600002 8.06000042 28.2399998 79.3899994 32.4599991
      116.93 62.7099991 53.4399986 126.010002 65.7699966 70.3399963
      128.179993 57.8899994 74.4100037 0. 0. 0. 0. 0. 0. 0. 0. 0. 0. 0.
      0. 0. 0. 0. 29.3473682 12.6531582 8.45526314 29.2215786 80.3926315
      31.9215794 116.699471 63.2452621 57.3036842 127.455788 64.700531
      74.5505219 130.284744 56.353157 79.9105225 0. 0. 0. 0. 0. 0. 0. 0.
      0. 0. 0. 0. 0. 0. 0. 29.7252636 13.0531578 7.37526321 29.9994736
      79.9789429 30.3584213 116.223686 63.882103 55.9078941 127.356842
      64.8773727 73.8652573 129.97316 56.4447365 77.7768402 0. 0. 0. 0.
      0. 0. 0. 0. 0. 0. 0. 0. 0. 0. 0. 30.8684216 12.2684212 7.43684244
      29.472105 79.8626328 32.3815804 116.713684 63.3673668 57.3478966
      127.286842 64.7026291 75.0931549 130.657898 56.4278946 81.5578918
      0. 0. 0. 0. 0. 0. 0. 0. 0. 0. 0. 0. 0. 0. 0. 30.4094734 12.3384209
      8.40684223 28.5415783 83.7594757 30.6647377 117.450531 62.2989502
      57.0978928 126.982635 64.5705261 72.5152664 129.101578 56.7394753
      75.8731613 0. 0. 0. 0. 0. 0. 0. 0. 0. 0. 0. 0. 0. 0. 0. 29.4642105
      11.9678946 8.78052616 28.5578957 81.981575 31.4557896 117.28421
      62.9252625 56.8036842 127.091583 65.4626312 73.2768478 129.763153
      57.0378952 77.9147339 0. 0. 0. 0. 0. 0. 0. 0. 0. 0. 0. 0. 0. 0. 0.
      29.5568428 11.9026318 8.70473671 29.6926308 79.4847336 31.3189468
      117.212631 62.984211 57.8899994 126.413689 65.7489471 74.3463135
      128.48526 57.856842 78.1484222 0. 0. 0. 0. 0. 0. 0. 0. 0. 0. 0. 0.
      0. 0. 0. 29.8678932 12.3868418 6.73473692 29.7726307 79.1631546
      32.3952637 116.842102 62.9915771 56.7326317 127.045792 64.7373657
      73.5210571 129.577362 56.2299995 76.7210541 0. 0. 0. 0. 0. 0. 0.
      0. 0. 0. 0. 0. 0. 0. 0. 30.3915787 12.3126316 7.3310523 30.2621059
      78.7936783 31.2542095 118.096313 62.1384201 57.1026306 127.150528
      64.9557953 73.6015778 129.316849 56.9289474 76.5410538 0. 0. 0. 0.
      0. 0. 0. 0. 0. 0. 0. 0. 0. 0. 0. 29.1636848 12.5215788 7.97842121
      31.0878944 79.1789474 30.5694733 116.260529 63.8342094 57.6921043
      126.965263 65.1715775 75.0999985 129.682632 56.7321053 79.6268387
      0. 0. 0. 0. 0. 0. 0. 0. 0. 0. 0. 0. 0. 0. 0. 28.9352627 12.0942106
      8.03736877 31.1689472 78.4421082 31.158947 116.621574 63.4142113
      58.1121025 126.729469 65.1715775 75.6084213 129.00473 57.1447372
      79.8184204 0. 0. 0. 0. 0. 0. 0. 0. 0. 0. 0. 0. 0. 0. 0. 29.6473694
      11.428421 10.0678949 30.2757893 80.632103 30.472105 116.410004
      63.3173676 56.9910507 126.48526 65.1615829 76.0247345 128.84053
      56.9789467 80.4073715 0. 0. 0. 0. 0. 0. 0. 0. 0. 0. 0. 0. 0. 0. 0.
      30.0452633 12.0247364 8.85368443 29.592104 81.2642136 30.729475
      116.737366 63.2984238 56.9910507 126.791054 65.3778915 74.814209
      129.718948 57.1405258 80.5394745 0. 0. 0. 0. 0. 0. 0. 0. 0. 0. 0.
      0. 0. 0. 0. 30.0200005 11.4768419 7.0278945 29.5073681 81.2763214
      30.3610535 116.106316 64.1321106 56.4573669 126.603683 65.8110504
      75.5015793 129.491058 57.0931587 80.0047379 0. 0. 0. 0. 0. 0. 0.
      0. 0. 0. 0. 0. 0. 0. 0. 29.571579 11.801053 6.78578949 29.2842102
      81.4531631 31.253685 116.274742 63.8099976 56.5647354 126.66053
      65.5373688 74.7984238 128.853165 57.1773682 77.8236847 0. 0. 0. 0.
      0. 0. 0. 0. 0. 0. 0. 0. 0. 0. 0. 29.9831581 12.5326319 4.77473688
      28.8500004 79.7994766 33.6794739 116.196838 63.7163162 55.2894745
      126.838417 65.2852631 71.9347382 129.536316 57.1500015 75.8036804
      0. 0. 0. 0. 0. 0. 0. 0. 0. 0. 0. 0. 0. 0. 0. 30.3736839 12.7289476
      3.04578948 29.4247379 77.7063141 33.2236824 115.947365 64.336319
      57.1289482 127.080002 65.1526337 74.2215805 129.327896 57.3394737
      77.7505264 0. 0. 0. 0. 0. 0. 0. 0. 0. 0. 0. 0. 0. 0. 0. 28.6121044
      11.4115782 4.2689476 30.1831589 74.3394699 33.0505257 115.888947
      64.4300003 59.5689468 127.444214 64.9042053 78.2515793 130.364212
      56.496315 83.1836853 0. 0. 0. 0. 0. 0. 0. 0. 0. 0. 0. 0. 0. 0. 0.
      30.4036846 12.618947 4.52999973 28.8189468 79.171051 32.3052635
      115.518417 64.6194763 55.0384216 127.277893 65.0768356 74.7147369
      130.264206 56.5426331 80.0847397 0. 0. 0. 0. 0. 0. 0. 0. 0. 0. 0.
      0. 0. 0. 0. 29.5799999 12.79 4.48999977 29.1599998 77.4300003
      34.7400017 117.050003 63.0600014 57.4099998 127.540001 64.3700027
      73.5299988 129.869995 56.5699997 77.3799973 0. 0. 0. 0. 0. 0. 0.
      0. 0. 0. 0. 0. 0. 0. 0.</_>
    <_>
      29. 11.29 3.5999999 26.9899998 81.4000015 34.1100006 117.510002
      61.3499985 52.9900017 126.480003 64.6100006 71.3600006 128.350006
      57.4000015 79.0400009 0. 0. 0. 0. 0. 0. 0. 0. 0. 0. 0. 0. 0. 0. 0.
      29.4515781 11.5173683 3.32947373 25.4884205 83.6294708 34.7531586
      116.04158 62.6199989 52.5763168 125.867371 65.4063187 71.1847382
      128.694733 57.2542114 79.9573669 0. 0. 0. 0. 0. 0. 0. 0. 0. 0. 0.
      0. 0. 0. 0. 29.3263149 12.0247374 3.40315795 27.3999996 79.7484207
      34.3173676 116.800522 62.341053 53.3194733 126.245262 65.4852676
      72.8342056 128.689468 58.0247345 81.8489532 0. 0. 0. 0. 0. 0. 0.
      0. 0. 0. 0. 0. 0. 0. 0. 30.595789 11.2226315 2.198421 27.9831581
      77.6336823 35.3526306 117.283157 61.8300018 53.8100014 126.928421
      64.5252686 74.2831573 129.753159 57.1678925 85.5373688 0. 0. 0. 0.
      0. 0. 0. 0. 0. 0. 0. 0. 0. 0. 0. 31.559473 11.2142105 1.74473691
      27.4205265 82.5989456 33.8552628 118.596313 60.6599998 53.2105255
      127.189476 64.3499985 71.7778931 129.106323 57.4626312 81.5957947
      0. 0. 0. 0. 0. 0. 0. 0. 0. 0. 0. 0. 0. 0. 0. 30.6652641 11.293685
      2.40894747 26.9815788 79.7173691 34.9536858 117.067894 62.3294754
      51.6057892 126.405785 65.7263184 71.0757828 128.986313 58.1531601
      80.5747375 0. 0. 0. 0. 0. 0. 0. 0. 0. 0. 0. 0. 0. 0. 0. 30.5073681
      11.2115784 2.67421055 25.1436844 84.3005219 35.4694748 118.18158
      60.8473701 52.2394714 127.353157 63.9157906 69.4736862 129.801056
      56.378418 78.3263168 0. 0. 0. 0. 0. 0. 0. 0. 0. 0. 0. 0. 0. 0. 0.
      29.9736843 11.5778952 2.82052636 25.97579 81.4142075 35.4484215
      116.20842 62.2773666 52.7405243 125.962631 64.885788 72.4168396
      128.49527 57.4194756 81.7700043 0. 0. 0. 0. 0. 0. 0. 0. 0. 0. 0.
      0. 0. 0. 0. 29.9447365 11.5773687 3.18315792 25.1863155 80.2952652
      38.5042114 117.691055 61.3573685 53.7799988 126.519478 64.5284195
      70.4263229 128.622101 57.0526314 78.1589432 0. 0. 0. 0. 0. 0. 0.
      0. 0. 0. 0. 0. 0. 0. 0. 29.9810524 11.4242105 2.55999994
      25.9668427 81.0315781 36.8668404 118.529472 60.4142113 53.3600006
      127.197365 63.8136864 69.8726349 128.879471 56.5600014 76.9589462
      0. 0. 0. 0. 0. 0. 0. 0. 0. 0. 0. 0. 0. 0. 0. 30.0400009 11.8663158
      3.22315788 25.5247364 81.3263168 37.662632 117.077896 61.5931587
      53.3747368 127.057373 64.3736877 71.2947388 129.675262 56.6852608
      79.4789505 0. 0. 0. 0. 0. 0. 0. 0. 0. 0. 0. 0. 0. 0. 0. 29.6121044
      12.1763163 4.45105267 25.9273682 80.9373703 38.1889458 116.633156
      62.2768402 52.7710533 126.859474 64.8242111 71.4078903 129.460526
      57.1236839 79.8436813 0. 0. 0. 0. 0. 0. 0. 0. 0. 0. 0. 0. 0. 0. 0.
      28.8268433 11.6394739 5.39947367 26.0578938 80.0384216 38.6005249
      116.904739 61.991581 53.9684219 126.593681 64.6421051 71.6152649
      128.93158 57.2842102 79.8221054 0. 0. 0. 0. 0. 0. 0. 0. 0. 0. 0.
      0. 0. 0. 0. 28.7268429 10.9089479 7.00052643 24.5826321 82.8394699
      37.8336868 116.575264 62.3273659 53.8989449 126.466843 64.9736862
      73.1657867 129.01683 57.082634 81.5757904 0. 0. 0. 0. 0. 0. 0. 0.
      0. 0. 0. 0. 0. 0. 0. 29.2384205 11.5363159 3.77947378 25.9973679
      78.4289474 38.4147377 117.04895 61.7400017 51.4505272 126.544731
      64.5863113 69.9952621 128.964218 57.0699997 78.9610519 0. 0. 0. 0.
      0. 0. 0. 0. 0. 0. 0. 0. 0. 0. 0. 29.4899998 11.0510521 4.94684172
      27.0073681 81.6494751 36.6510544 117.183685 61.7994728 54.8610535
      127.135262 64.3063202 73.0684204 129.698425 56.5847359 82.1036835
      0. 0. 0. 0. 0. 0. 0. 0. 0. 0. 0. 0. 0. 0. 0. 29.4047375 11.4136839
      4.86210537 26.2800007 78.7247314 38.9715805 116.854736 62.1242104
      55.1931572 127.08474 64.2584229 74.4615784 130.161591 56.1794739
      84.5421066 0. 0. 0. 0. 0. 0. 0. 0. 0. 0. 0. 0. 0. 0. 0. 30.2468414
      11.2168417 3.77473688 26.0710526 83.1115799 35.9884224 117.729996
      61.6110535 54.0694733 127.023155 64.4294739 71.4179001 129.679474
      56.4142113 80.8610535 0. 0. 0. 0. 0. 0. 0. 0. 0. 0. 0. 0. 0. 0. 0.
      29.3573685 11.2505264 6.11473656 26.1478958 82.2442093 36.3557892
      116.281578 62.5815773 56.4884186 126.401054 64.8789444 75.056839
      129.583679 56.6205254 84.1621017 0. 0. 0. 0. 0. 0. 0. 0. 0. 0. 0.
      0. 0. 0. 0. 29.2800007 11.3500004 4.17000008 26.2900009 79.1399994
      37.7900009 116.870003 62.0600014 51.7799988 126.589996 64.5899963
      69.5800018 129.410004 56.7200012 79.3300018 0. 0. 0. 0. 0. 0. 0.
      0. 0. 0. 0. 0. 0. 0. 0.</_>
    <_>
      30.5300007 10.9899998 5.48000002 24.5400009 83.1500015 36.2999992
      115.940002 62.1100006 55.2900009 126.879997 64.3600006 75.6500015
      129.830002 57.0200005 85.1100006 0. 0. 0. 0. 0. 0. 0. 0. 0. 0. 0.
      0. 0. 0. 0. 31.2647381 11.7210531 4.38105249 24.1300011 81.332634
      40.2299995 115.434738 62.6205254 56.082634 126.669998 64.3157883
      76.0447311 129.321579 57.0994759 84.8384247 0. 0. 0. 0. 0. 0. 0.
      0. 0. 0. 0. 0. 0. 0. 0. 30.6047363 11.5642109 4.91157866
      25.4678955 78.5263214 40.5857887 115.985268 62.1257896 54.5415802
      126.741577 63.8852615 74.8226318 129.156326 56.9047356 83.7521057
      0. 0. 0. 0. 0. 0. 0. 0. 0. 0. 0. 0. 0. 0. 0. 31.103159 11.4300003
      4.57368422 25.1663151 79.2263184 40.5757904 115.626839 62.7836838
      55.9331589 126.856316 64.1926346 75.8499985 129.716324 57.0589447
      85.6415787 0. 0. 0. 0. 0. 0. 0. 0. 0. 0. 0. 0. 0. 0. 0. 30.2005272
      11.9078941 5.44684219 25.9589462 77.6605301 41.2710533 116.989998
      61.5347366 55.4605255 126.966843 63.8705292 72.836319 128.993683
      56.7647362 80.8247375 0. 0. 0. 0. 0. 0. 0. 0. 0. 0. 0. 0. 0. 0. 0.
      30.3736839 11.6878948 6.1705265 25.7052631 79.7526321 38.6800003
      117.933685 60.9689484 57.9610519 127.555786 63.8657913 75.1631546
      129.455795 56.6100006 83.3942108 0. 0. 0. 0. 0. 0. 0. 0. 0. 0. 0.
      0. 0. 0. 0. 30.594738 11.8626318 5.82736874 25.3915787 80.4957886
      38.3221054 116.942108 61.8173676 56.2010536 126.892632 64.5647354
      74.1589508 128.99263 57.3889503 82.5563202 0. 0. 0. 0. 0. 0. 0. 0.
      0. 0. 0. 0. 0. 0. 0. 30.4015789 11.4742107 4.79315805 25.9921055
      77.3321075 38.6968422 116.790001 61.6973686 54.734211 126.248421
      64.3442078 73.6205292 127.69474 57.6342087 81.3221054 0. 0. 0. 0.
      0. 0. 0. 0. 0. 0. 0. 0. 0. 0. 0. 30.5742111 12.2094736 5.70157909
      26.496315 77.7394791 40.0710526 117.576317 60.9178925 57.2505264
      127.017899 63.6084213 74.74263 129.082108 56.1452637 82.9842072 0.
      0. 0. 0. 0. 0. 0. 0. 0. 0. 0. 0. 0. 0. 0. 30.893158 12.3410521
      5.10526323 25.8163166 78.5768433 40.670002 116.614738 61.7726326
      56.0352631 126.714737 63.7705269 72.8426285 128.943161 56.7399979
      81.932106 0. 0. 0. 0. 0. 0. 0. 0. 0. 0. 0. 0. 0. 0. 0. 32.0352631
      11.7147369 4.84736872 24.408947 82.6442108 37.8626328 116.430527
      61.6547356 56.1973686 126.412628 64.1315842 74.4636841 128.943161
      56.9536858 83.9805222 0. 0. 0. 0. 0. 0. 0. 0. 0. 0. 0. 0. 0. 0. 0.
      31.0152626 11.4226313 5.17894745 24.9599991 83.5115738 36.0742111
      115.668945 62.0505257 51.8984222 126.097893 64.4615784 72.7247391
      128.605789 57.2278938 82.8268433 0. 0. 0. 0. 0. 0. 0. 0. 0. 0. 0.
      0. 0. 0. 0. 30.5089474 11.7705259 5.15263176 25.138422 83.3052597
      36.1873665 116.539474 61.7005272 50.0905266 126.863159 64.128952
      69.3321075 129.350006 56.6384201 79.2915802 0. 0. 0. 0. 0. 0. 0.
      0. 0. 0. 0. 0. 0. 0. 0. 29.6768417 11.4636841 5.3547368 25.5721054
      82.0710526 36.4989471 115.761047 62.4684219 50.7647362 126.07
      64.8715744 70.7052612 128.189468 57.8115768 79.571579 0. 0. 0. 0.
      0. 0. 0. 0. 0. 0. 0. 0. 0. 0. 0. 30.015789 11.0784206 4.74842119
      25.2078953 80.8310547 37.9705276 115.194733 62.7315788 53.3394737
      126.156319 64.4842148 73.2842102 128.926315 56.6284218 83.3336792
      0. 0. 0. 0. 0. 0. 0. 0. 0. 0. 0. 0. 0. 0. 0. 30.1668415 10.7726316
      5.31578922 25.1026325 81.7510529 37.6615791 114.488419 62.9300003
      50.5773697 126.218422 64.4389496 72.8168411 129.414734 56.678421
      83.7894745 0. 0. 0. 0. 0. 0. 0. 0. 0. 0. 0. 0. 0. 0. 0. 30.436842
      11.8205271 5.05684233 25.6094723 80.8526306 39.1731567 116.193161
      61.8800011 54.2457886 126.809471 63.8736839 72.6699982 129.107361
      56.1942101 81.0836792 0. 0. 0. 0. 0. 0. 0. 0. 0. 0. 0. 0. 0. 0. 0.
      31.9547367 11.2194738 4.20421076 24.8799992 80.6173706 38.9889488
      113.092628 64.2942123 55.1478958 125.776321 64.6900024 77.6447372
      129.763687 56.7542076 89.1657867 0. 0. 0. 0. 0. 0. 0. 0. 0. 0. 0.
      0. 0. 0. 0. 29.9010525 11.3900003 6.06631565 24.8694744 82.3899994
      39.0900002 114.383156 63.1942101 52.519474 126.101578 64.3342133
      73.0963211 129.135269 56.6899986 82.7489471 0. 0. 0. 0. 0. 0. 0.
      0. 0. 0. 0. 0. 0. 0. 0. 29.6200008 11.9700003 5.84000015
      25.4599991 79.5599976 38.6500015 117.129997 61.2900009 50.7799988
      127.5 63.3600006 69.2699966 129.199997 55.4399986 76.6500015 0. 0.
      0. 0. 0. 0. 0. 0. 0. 0. 0. 0. 0. 0. 0.</_>
    <_>
      30.9899998 11.6199999 11.5699997 28.2299995 89.6800003 29.7199993
      113.25 64.2699966 53.0699997 125.309998 65.1399994 75.0100021
      128.529999 57.0600014 86.0599976 0. 0. 0. 0. 0. 0. 0. 0. 0. 0. 0.
      0. 0. 0. 0. 30.5668411 11.8305264 11.6321049 28.6894741 84.1936874
      30.9257889 114.409477 64.0189514 52.9257889 125.932632 65.4678955
      74.3294754 128.493683 57.2815781 83.738945 0. 0. 0. 0. 0. 0. 0. 0.
      0. 0. 0. 0. 0. 0. 0. 31.9436836 11.8273687 9.80368423 28.841053
      83.0726318 31.2994728 115.236847 63.5473671 54.1436844 126.802109
      65.5247345 77.0105286 129.826309 57.6194725 88.3936844 0. 0. 0. 0.
      0. 0. 0. 0. 0. 0. 0. 0. 0. 0. 0. 30.8705273 11.3942108 10.015789
      29.1142101 83.02211 30.5947361 115.088425 63.2863159 53.0936852
      126.532631 64.974205 75.5899963 129.354202 56.9610519 84.4221039
      0. 0. 0. 0. 0. 0. 0. 0. 0. 0. 0. 0. 0. 0. 0. 31.960001 11.1331577
      10.1705265 28.8642101 80.4368439 32.1889496 113.983162 64.3863144
      52.614212 126.179474 64.821579 75.5521088 129.459473 56.920002
      85.7873688 0. 0. 0. 0. 0. 0. 0. 0. 0. 0. 0. 0. 0. 0. 0. 30.8389473
      11.2589474 9.17684174 28.4105263 81.310524 30.2763157 115.316841
      63.2589455 54.6131592 126.967896 64.9268417 77.0621033 129.854736
      57.2436829 87.2631607 0. 0. 0. 0. 0. 0. 0. 0. 0. 0. 0. 0. 0. 0. 0.
      31.3926315 11.5705261 8.05473709 29.3873692 80.2726288 32.5499992
      115.580002 63.6252632 51.6026306 127.170006 65.0321045 75.1378937
      129.858948 56.6121063 84.943161 0. 0. 0. 0. 0. 0. 0. 0. 0. 0. 0.
      0. 0. 0. 0. 31.1931572 11.3826313 7.38999987 30.2905254 79.5736847
      29.8557911 117.61158 61.9889488 54.7073669 127.482101 64.9747391
      75.159996 129.5 57.1715813 83.7394714 0. 0. 0. 0. 0. 0. 0. 0. 0.
      0. 0. 0. 0. 0. 0. 31.3921051 11.2294731 4.92263174 30.8757896
      74.5015793 32.0163155 118.14579 62.0857887 54.3163185 127.726845
      64.8421021 75.1984177 129.423157 58.2389488 84.5015793 0. 0. 0. 0.
      0. 0. 0. 0. 0. 0. 0. 0. 0. 0. 0. 30.436842 11.8347368 4.8921051
      31.4557896 74.4268417 34.1457901 118.354736 61.8026314 55.3026314
      128.113678 64.3615799 73.5357895 130.02684 57.0131569 82.0052643
      0. 0. 0. 0. 0. 0. 0. 0. 0. 0. 0. 0. 0. 0. 0. 30.3999996 11.7831583
      4.4205265 32.2294731 71.9731598 34.4184189 117.536842 62.5542107
      55.5015755 127.649467 64.4352646 73.7568436 129.872101 56.924736
      82.2484207 0. 0. 0. 0. 0. 0. 0. 0. 0. 0. 0. 0. 0. 0. 0. 31.7168427
      11.6794739 5.41157913 31.6373692 73.9700012 34.7010536 118.067894
      61.8542099 58.1094742 127.511047 63.8584213 76.6736832 129.557373
      56.6442108 84.654213 0. 0. 0. 0. 0. 0. 0. 0. 0. 0. 0. 0. 0. 0. 0.
      30.7878952 10.9363155 4.47105265 31.2484207 76.9821091 33.4457893
      118.156837 61.6973686 56.4542084 127.617363 64.121048 75.3636856
      129.22052 56.9189491 83.6184235 0. 0. 0. 0. 0. 0. 0. 0. 0. 0. 0.
      0. 0. 0. 0. 30.8184204 10.7926311 3.34631562 31.5794735 76.8063126
      33.1042099 118.677368 61.0342102 56.6615791 127.623688 63.8221054
      75.75737 129.035263 56.6163177 83.7910538 0. 0. 0. 0. 0. 0. 0. 0.
      0. 0. 0. 0. 0. 0. 0. 29.3257885 10.6452637 4.53578949 32.5647354
      75.7010498 32.3589478 117.879471 62.234211 57.0973701 127.206841
      64.5315781 76.1363144 129.043686 57.1173706 84.3321075 0. 0. 0. 0.
      0. 0. 0. 0. 0. 0. 0. 0. 0. 0. 0. 29.7789459 10.8347368 4.41263151
      31.5857906 76.8726349 32.8405266 117.241051 62.3731575 56.8478966
      127.268944 64.4278946 75.7963181 129.400009 57.4442101 83.7115784
      0. 0. 0. 0. 0. 0. 0. 0. 0. 0. 0. 0. 0. 0. 0. 31.5884228 11.0126314
      2.00368428 32.6357918 76.7557907 32.1168442 119.285789 60.6810532
      54.3899994 128.689468 63.3168411 75.614212 130.516327 56.5757904
      84.8221054 0. 0. 0. 0. 0. 0. 0. 0. 0. 0. 0. 0. 0. 0. 0. 32.6373711
      10.2573681 1.40578949 31.4273701 79.4163208 30.6694736 118.728943
      61.0152626 52.2557907 128.273163 63.5178947 74.4747391 130.547897
      56.5105247 85.6552658 0. 0. 0. 0. 0. 0. 0. 0. 0. 0. 0. 0. 0. 0. 0.
      31.9121056 10.1478949 1.5994736 33.4389458 78.1226273 27.5042114
      118.125793 61.2163162 49.9336853 127.497368 64.4705276 72.5473709
      129.280533 57.9873657 83.2552643 0. 0. 0. 0. 0. 0. 0. 0. 0. 0. 0.
      0. 0. 0. 0. 31.5900002 10.9499998 2.06999993 33.4300003 77.8000031
      27.1200008 117.629997 61.3600006 49.2299995 127.68 64.6699982
      72.25 130.009995 57.5900002 83.4000015 0. 0. 0. 0. 0. 0. 0. 0. 0.
      0. 0. 0. 0. 0. 0.</_>
    <_>
      0. 0. 0. 0. 0. 0. 0. 0. 0. 0. 0. 0. 0. 0. 0. 23.7000008 15.4499998
      8.94999981 10.8299999 3.18000007 2.5999999 104.5 61.7400017
      18.7099991 116.760002 62.3800011 29.9699993 113.730003 66.1999969
      33.1100006 0. 0. 0. 0. 0. 0. 0. 0. 0. 0. 0. 0. 0. 0. 0. 23.7831593
      14.9473686 8.28105259 11.0100002 3.00210524 2.51736832 101.954735
      63.146843 17.8110523 114.375259 64.0410538 26.8521042 112.283684
      66.9442139 31.2715797 0. 0. 0. 0. 0. 0. 0. 0. 0. 0. 0. 0. 0. 0. 0.
      23.8663158 15.5642109 8.32842064 10.8899994 3.00736833 2.50368428
      103.163155 62.5499992 18.416317 115.858421 63.0378952 29.0268421
      113.193161 66.5136871 32.7210541 0. 0. 0. 0. 0. 0. 0. 0. 0. 0. 0.
      0. 0. 0. 0. 23.7315788 15.4663153 8.43684196 10.9705267 2.89578962
      2.36631584 102.168953 62.8068428 17.5 114.537895 63.8226318
      26.5847378 113.064735 66.0478897 31.0015793 0. 0. 0. 0. 0. 0. 0.
      0. 0. 0. 0. 0. 0. 0. 0. 22.9826317 15.1436834 8.49631596
      10.8584213 2.73789477 2.46578956 103.277893 61.587368 17.4105263
      115.243156 63.1778946 25.4468422 113.436317 65.5710526 29.0636845
      0. 0. 0. 0. 0. 0. 0. 0. 0. 0. 0. 0. 0. 0. 0. 23.5257893 15.190526
      7.71947384 10.8742104 2.74736857 2.5257895 103.494209 60.8963165
      17.2889462 115.00737 62.9384232 25.5063152 112.830002 65.8536835
      29.3857899 0. 0. 0. 0. 0. 0. 0. 0. 0. 0. 0. 0. 0. 0. 0. 23.3342113
      14.7505264 8.40578938 10.9689474 2.78736854 2.45842099 102.948944
      61.8499985 17.5647373 114.897896 63.2036858 26.2157898 113.168945
      65.3463135 29.7542114 0. 0. 0. 0. 0. 0. 0. 0. 0. 0. 0. 0. 0. 0. 0.
      23.7684212 15.7089472 7.83684206 10.4636841 2.91789484 2.52315784
      102.82737 62.4510536 17.7389469 115.523682 63.04842 26.8773689
      114.191048 64.768425 30.4726315 0. 0. 0. 0. 0. 0. 0. 0. 0. 0. 0.
      0. 0. 0. 0. 24.0968418 15.7315788 7.49684191 10.3900003 2.88578963
      2.4789474 102.537895 62.45158 17.3421059 115.810524 62.6684189
      26.6463146 114.506317 64.5784225 30.9457893 0. 0. 0. 0. 0. 0. 0.
      0. 0. 0. 0. 0. 0. 0. 0. 23.0010529 15.7531576 7.9905262 10.7721052
      2.99368405 2.56473684 102.57737 62.2031593 17.6194744 115.331573
      62.3352623 26.5605259 115.523689 62.5663185 30.4263153 0. 0. 0. 0.
      0. 0. 0. 0. 0. 0. 0. 0. 0. 0. 0. 23.4873695 15.6721048 6.71578932
      10.4994736 2.9273684 2.49105263 101.83316 62.674736 17.5310516
      115.361053 62.2689476 26.4205265 115.545792 62.4484215 30.6326313
      0. 0. 0. 0. 0. 0. 0. 0. 0. 0. 0. 0. 0. 0. 0. 23.2099991 16.6536846
      6.9000001 10.3421059 2.89894748 2.46736836 103.432632 60.8368416
      17.1489468 116.194733 61.2821045 25.1142101 115.856842 61.893158
      29.456316 0. 0. 0. 0. 0. 0. 0. 0. 0. 0. 0. 0. 0. 0. 0. 23.70158
      16.6578941 7.10421038 10.131053 3.02473688 2.44736838 103.226318
      61.1326332 17.2673683 116.275787 61.25 26.5336838 116.376312
      61.6047363 31.5394745 0. 0. 0. 0. 0. 0. 0. 0. 0. 0. 0. 0. 0. 0. 0.
      22.5047379 17.6294727 7.6594739 10.3136835 3.36105275 2.43789482
      102.407898 62.8357887 17.2857895 116.308426 61.9236832 26.9136848
      116.804741 61.5 32.3978958 0. 0. 0. 0. 0. 0. 0. 0. 0. 0. 0. 0. 0.
      0. 0. 22.1994743 16.4463158 7.88473701 10.4252634 2.98210526
      2.40421057 103.334206 61.3136826 17.186842 115.828423 61.8605232
      25.4210529 115.434212 62.4073677 29.0505276 0. 0. 0. 0. 0. 0. 0.
      0. 0. 0. 0. 0. 0. 0. 0. 22.7626324 16.7589474 7.3499999 10.4399996
      2.86999989 2.44368434 103.332634 60.7163162 17.0615788 116.37368
      61.325264 25.8026314 116.527374 61.606842 29.7468414 0. 0. 0. 0.
      0. 0. 0. 0. 0. 0. 0. 0. 0. 0. 0. 22.7021065 16.2557888 6.9094739
      10.3473682 2.93947363 2.39578962 102.467369 61.7636833 17.0536842
      115.827896 61.6921043 26.1489468 116.61158 61.2784195 30.484211 0.
      0. 0. 0. 0. 0. 0. 0. 0. 0. 0. 0. 0. 0. 0. 22.0168419 16.4778938
      6.69105291 10.328948 2.86684203 2.46105266 102.445793 62.0168419
      17.2189465 115.415787 62.1810493 26.2836838 115.792107 62.1568413
      30.8094749 0. 0. 0. 0. 0. 0. 0. 0. 0. 0. 0. 0. 0. 0. 0. 22.9178944
      16.5136852 7.81947374 10.496316 2.94263172 2.448421 102.939476
      61.6115761 17.2463169 115.99263 61.674736 26.9257889 116.043686
      61.7126312 31.2084217 0. 0. 0. 0. 0. 0. 0. 0. 0. 0. 0. 0. 0. 0. 0.
      23.4500008 16.6599998 7.34000015 10.2200003 3.1099999 2.54999995
      102.510002 62.0699997 17.1100006 116.300003 61.6100006 27.2099991
      117.330002 60.7999992 32.4000015</_>
    <_>
      0. 0. 0. 0. 0. 0. 0. 0. 0. 0. 0. 0. 0. 0. 0. 22.7299995 15.8000002
      7.26999998 10.5699997 3.30999994 2.46000004 102.080002 62.9300003
      17.2800007 115.940002 62.1899986 27.7700005 117.279999 61.1500015
      32.8699989 0. 0. 0. 0. 0. 0. 0. 0. 0. 0. 0. 0. 0. 0. 0. 23.2884216
      16.1989479 6.43842077 10.1842108 3.06421065 2.45894742 102.633682
      61.6852646 17.2926311 116.32737 61.3942108 26.095789 116.828949
      61.1621056 30.7189465 0. 0. 0. 0. 0. 0. 0. 0. 0. 0. 0. 0. 0. 0. 0.
      24.0673695 16.7978954 6.75210524 10.2178946 3.28421044 2.47052646
      102.789474 61.6694756 17.2073689 116.68737 61.2878952 27.3515778
      117.685791 60.8105278 32.7842102 0. 0. 0. 0. 0. 0. 0. 0. 0. 0. 0.
      0. 0. 0. 0. 23.0068417 16.0805264 7.15210533 10.393158 3.25210524
      2.49000001 102.712631 62.1010551 17.3726311 116.42263 61.54842
      27.2610531 117.375259 60.723156 31.7484207 0. 0. 0. 0. 0. 0. 0. 0.
      0. 0. 0. 0. 0. 0. 0. 23.1578941 16.0615788 6.86842108 10.5221052
      3.19105268 2.49000001 102.336319 62.1836815 17.3005276 115.970528
      61.761055 27.071579 117.031052 60.837368 31.662632 0. 0. 0. 0. 0.
      0. 0. 0. 0. 0. 0. 0. 0. 0. 0. 22.9110527 16.8347359 7.85684204
      10.2052631 3.1163156 2.36578941 103.636314 60.3421059 16.849474
      117.148949 60.3626328 25.8573685 118.450531 59.0352631 30.5852642
      0. 0. 0. 0. 0. 0. 0. 0. 0. 0. 0. 0. 0. 0. 0. 22.479475 16.4410534
      7.72421074 10.3926315 3.1352632 2.45210528 103.86158 60.4705238
      17.3147373 116.664734 60.8910522 26.3100014 118.145264 59.273159
      30.5094738 0. 0. 0. 0. 0. 0. 0. 0. 0. 0. 0. 0. 0. 0. 0. 22.313158
      16.6836853 7.92473698 10.1289473 2.91157889 2.41052651 103.95842
      59.9868431 17.1236839 116.676842 60.4415779 25.0136852 118.09053
      58.901577 29.7668419 0. 0. 0. 0. 0. 0. 0. 0. 0. 0. 0. 0. 0. 0. 0.
      22.2978954 16.7452621 7.8342104 10.2294731 2.96842098 2.4531579
      103.226318 60.4221077 17.0978947 116.428947 60.5810509 24.8657894
      118.263687 58.6852646 29.7178936 0. 0. 0. 0. 0. 0. 0. 0. 0. 0. 0.
      0. 0. 0. 0. 22.3826313 16.4773674 7.64842081 9.89894772 2.87789464
      2.48526311 104.508949 59.3184204 17.3394737 117.29158 59.8052635
      24.7410526 118.510529 58.3921051 28.6873684 0. 0. 0. 0. 0. 0. 0.
      0. 0. 0. 0. 0. 0. 0. 0. 22.4784203 16.5142117 8.56947327 9.7736845
      2.99578953 2.58842087 103.941574 60.1289482 17.8994732 116.657898
      60.1294708 26.3031578 117.994736 58.8489456 30.5368423 0. 0. 0. 0.
      0. 0. 0. 0. 0. 0. 0. 0. 0. 0. 0. 22.9236832 17. 8.19578934
      9.81368351 3.0210526 2.64789486 103.796318 60.4821053 18.127367
      116.482635 60.5042114 27.349474 117.762634 59.2589455 30.8173676
      0. 0. 0. 0. 0. 0. 0. 0. 0. 0. 0. 0. 0. 0. 0. 23.111578 16.2768421
      8.72736835 9.76947403 2.95684218 2.59210515 103.519997 60.6673698
      17.9910526 116.625786 60.5268402 27.0494747 117.802635 59.4194717
      31.4115791 0. 0. 0. 0. 0. 0. 0. 0. 0. 0. 0. 0. 0. 0. 0. 22.8984203
      16.2405262 7.05578947 9.69421101 2.84157896 2.46789479 103.957367
      59.864212 17.7284203 116.755264 59.7652626 25.8752632 117.976837
      58.7347374 30.9389458 0. 0. 0. 0. 0. 0. 0. 0. 0. 0. 0. 0. 0. 0. 0.
      22.8184204 16.3731575 6.603158 9.72578907 2.82473683 2.43421054
      102.862633 60.7884216 17.4105263 116.407898 60.4536858 26.012104
      117.463158 59.7726326 31.4084206 0. 0. 0. 0. 0. 0. 0. 0. 0. 0. 0.
      0. 0. 0. 0. 23.0252628 16.8189468 6.03526306 9.77842045 2.72631574
      2.45894742 103.481049 60.1447372 17.5757904 116.358948 60.3784218
      25.9884205 117.10421 60.0200005 30.8173676 0. 0. 0. 0. 0. 0. 0. 0.
      0. 0. 0. 0. 0. 0. 0. 22.5752621 16.6084213 7.47263145 9.99315834
      2.92105269 2.53684211 102.925789 61.1026306 17.7057896 116.380531
      60.4736824 26.7294731 117.985794 58.9926338 31.1673679 0. 0. 0. 0.
      0. 0. 0. 0. 0. 0. 0. 0. 0. 0. 0. 23.1589489 16.5599995 9.18157864
      9.86421108 2.95947361 2.61526299 102.615265 61.3100014 18.1094742
      116.092628 60.2431564 27.3578949 117.454742 58.7131577 31.5421047
      0. 0. 0. 0. 0. 0. 0. 0. 0. 0. 0. 0. 0. 0. 0. 22.1989479 16.8242111
      8.00368404 9.66421032 2.8805263 2.54052639 104.228951 59.2447357
      17.3589478 117.002106 59.1726303 24.97579 118.122108 57.8910522
      29.325264 0. 0. 0. 0. 0. 0. 0. 0. 0. 0. 0. 0. 0. 0. 0. 22.4200001
      17.1299992 7.71999979 9.85999966 2.8900001 2.48000002 104.010002
      59.7599983 17.7999992 116.589996 59.5800018 25.9899998 118.239998
      57.6800003 29.8400002</_>
    <_>
      0. 0. 0. 0. 0. 0. 0. 0. 0. 0. 0. 0. 0. 0. 0. 23.0699997 15.9799995
      8.42000008 10.2399998 3.01999998 2.6400001 102.440002 62.3600006
      17.75 116.239998 62.4000015 28.4400005 115.620003 63.6399994
      32.6300011 0. 0. 0. 0. 0. 0. 0. 0. 0. 0. 0. 0. 0. 0. 0. 22.8247356
      16.2626305 8.09421062 10.3273678 2.77263165 2.5468421 103.836845
      60.5784225 17.1510525 116.545258 61.6005249 26.0363159 115.328949
      63.3036842 30.3115788 0. 0. 0. 0. 0. 0. 0. 0. 0. 0. 0. 0. 0. 0. 0.
      23.1168404 16.8084202 7.86105299 10.4168415 2.92263174 2.49315786
      103.542633 61.496315 17.4742107 116.141052 62.1905289 28.0684204
      115.267891 63.3978958 32.3752632 0. 0. 0. 0. 0. 0. 0. 0. 0. 0. 0.
      0. 0. 0. 0. 23.2968426 16.5478954 7.59263182 10.1968422 2.93526316
      2.57894731 103.06842 61.2384224 17.5094738 115.888947 61.932106
      27.3526306 114.567368 63.8426323 31.6936836 0. 0. 0. 0. 0. 0. 0.
      0. 0. 0. 0. 0. 0. 0. 0. 22.646841 18.325264 9.01736832 10.0900002
      2.595263 2.69684219 100.593681 63.3542137 17.4178944 113.068947
      63.8499985 27.0605259 110.988945 67.106842 31.2294731 0. 0. 0. 0.
      0. 0. 0. 0. 0. 0. 0. 0. 0. 0. 0. 21.8136845 19.0610523 11.5578947
      9.78263187 2.75368428 2.82736826 94.1057892 69.9126358 17.1100006
      110.110001 67.5189514 27.2642097 107.363686 71.4278946 31.0289478
      0. 0. 0. 0. 0. 0. 0. 0. 0. 0. 0. 0. 0. 0. 0. 22.6794739 19.2663155
      11.0189476 10.1573687 3.16894722 2.77947354 90.7378922 74.2678909
      16.9042091 108.546318 70.0099945 28.9094734 105.861053 74.1873703
      33.1873703 0. 0. 0. 0. 0. 0. 0. 0. 0. 0. 0. 0. 0. 0. 0. 22.3347359
      18.3563156 11.2315788 10.5589466 3.64894748 2.77947354 92.4615784
      73.114212 17.650526 108.56105 70.3094788 30.9478951 106.301582
      73.6826324 34.9857903 0. 0. 0. 0. 0. 0. 0. 0. 0. 0. 0. 0. 0. 0. 0.
      22.8226318 19.6036854 14.4515791 10.4689474 3.41526318 2.50947356
      93.0384216 71.996315 17.5189476 108.656319 69.9405289 30.5300007
      106.465263 73.1426315 34.9110527 0. 0. 0. 0. 0. 0. 0. 0. 0. 0. 0.
      0. 0. 0. 0. 21.9868431 20.4673691 14.4863157 10.1415787 3.47315788
      2.61999989 91.8368378 73.0394745 17.3315792 106.915268 71.8652649
      31.22579 104.790527 75.2742081 36.0647354 0. 0. 0. 0. 0. 0. 0. 0.
      0. 0. 0. 0. 0. 0. 0. 22.868948 20.666317 16.047369 10.2215786
      3.36157894 2.69105268 91.663681 72.7757874 17.3178959 106.080521
      72.3168411 31.4578953 105.236839 74.7799988 37.1263161 0. 0. 0. 0.
      0. 0. 0. 0. 0. 0. 0. 0. 0. 0. 0. 23.8868427 19.7473698 15.4957895
      10.6910524 4.10894728 2.63157892 94.6836853 70.3636856 17.9894753
      108.076317 70.5426331 31.7531567 107.274734 72.7942123 36.8689461
      0. 0. 0. 0. 0. 0. 0. 0. 0. 0. 0. 0. 0. 0. 0. 23.5205269 19.9110527
      14.79 10.7473688 3.88473678 2.60157895 96.2857895 68.5810471
      17.4273682 110.158424 68.628418 31.2210522 108.593155 71.4510498
      36.821579 0. 0. 0. 0. 0. 0. 0. 0. 0. 0. 0. 0. 0. 0. 0. 23.8621063
      20.1384201 16.2626324 10.6673689 3.95157909 2.79631567 95.5
      69.8221054 18.1015797 109.865265 68.9784164 32.5494728 108.676315
      71.48526 37.6215782 0. 0. 0. 0. 0. 0. 0. 0. 0. 0. 0. 0. 0. 0. 0.
      23.6410522 19.3273697 14.9968424 10.8515787 3.73684216 2.74368429
      94.8552628 70.2136841 17.9789467 109.914215 68.928421 32.496315
      109.574211 70.8694763 38.3010521 0. 0. 0. 0. 0. 0. 0. 0. 0. 0. 0.
      0. 0. 0. 0. 23.3357887 19.5757885 13.8947372 10.6231585 3.77842093
      2.65526319 95.1968384 69.6989441 16.7289467 111.312637 67.8231583
      30.9584217 110.41053 70.0142059 37.1426315 0. 0. 0. 0. 0. 0. 0. 0.
      0. 0. 0. 0. 0. 0. 0. 23.7573681 19.8110542 14.003684 10.7878942
      3.80526304 2.61368418 97.9899979 66.4710541 17.7484207 111.552628
      66.8284225 31.1826324 110.75737 68.9578934 36.6794739 0. 0. 0. 0.
      0. 0. 0. 0. 0. 0. 0. 0. 0. 0. 0. 23.7531586 20.396843 13.4394741
      10.3226318 3.89473701 2.70736837 96.0299988 68.942627 16.9431572
      112.295792 66.8284149 32.0378952 111.047371 69.2047348 38.1268425
      0. 0. 0. 0. 0. 0. 0. 0. 0. 0. 0. 0. 0. 0. 0. 23.6731586 20.8773689
      14.0789471 10.2715788 3.78789473 2.71052623 94.6078949 70.3842087
      17.6278954 110.846313 67.9705276 33.0363159 110.567368 69.5931625
      38.8147354 0. 0. 0. 0. 0. 0. 0. 0. 0. 0. 0. 0. 0. 0. 0. 23.4099998
      21.2199993 15.1199999 10.0900002 3.72000003 2.55999994 95.8300018
      68.8899994 17.4400005 110.620003 67.9199982 31.1299992 110.360001
      69.8000031 37.3300018</_>
    <_>
      0. 0. 0. 0. 0. 0. 0. 0. 0. 0. 0. 0. 0. 0. 0. 23.3999996 19.8199997
      15.6899996 10.5600004 3.82999992 2.57999992 96.8499985 67.6699982
      17.1000004 111.559998 67.1600037 30.6100006 110.760002 69.5299988
      36.5099983 0. 0. 0. 0. 0. 0. 0. 0. 0. 0. 0. 0. 0. 0. 0. 24.1852627
      19.8836842 14.0921049 10.889473 3.90052652 2.65105271 96.5015793
      68.1415787 17.5357895 111.042099 67.7278976 32.0463142 109.738945
      70.5199966 37.8436813 0. 0. 0. 0. 0. 0. 0. 0. 0. 0. 0. 0. 0. 0. 0.
      23.9668427 20.0052643 14.5610523 10.912632 3.87631583 2.73842096
      96.3152618 68.4626312 17.7310524 111.056313 67.6873703 32.262104
      110.18895 70.0489502 38.6157913 0. 0. 0. 0. 0. 0. 0. 0. 0. 0. 0.
      0. 0. 0. 0. 23.881052 20.412632 14.6294737 10.940526 4.08736849
      2.70368433 96.6552582 68.6815796 17.5947361 111.474213 67.5031586
      33.0978928 110.435791 69.7178955 38.7299995 0. 0. 0. 0. 0. 0. 0.
      0. 0. 0. 0. 0. 0. 0. 0. 23.7036839 19.7884197 14.6899996
      10.9321051 3.97052646 2.80421042 95.1752625 69.9399948 17.5284214
      111.014732 67.9721069 32.579998 110.404739 70.0194778 38.5505257
      0. 0. 0. 0. 0. 0. 0. 0. 0. 0. 0. 0. 0. 0. 0. 24.0068417 19.1915779
      15.1436844 11.1805267 3.9742105 2.7194736 95.0747375 69.8294754
      17.7684212 110.588951 68.2394714 32.7194748 109.191048 71.0531616
      38.6347389 0. 0. 0. 0. 0. 0. 0. 0. 0. 0. 0. 0. 0. 0. 0. 23.746315
      19.4352627 13.5968428 10.77421 4.04157925 2.74736834 96.3673706
      68.7599945 17.472105 110.817894 68.2310486 32.2889481 108.577888
      71.7336884 37.4273682 0. 0. 0. 0. 0. 0. 0. 0. 0. 0. 0. 0. 0. 0. 0.
      23.9215775 19.9326305 14.0089474 11.1294737 4.37315798 2.68105268
      96.4621048 68.9921036 16.6147366 111.282104 67.9847336 32.6963158
      109.226845 71.2268372 38.3084221 0. 0. 0. 0. 0. 0. 0. 0. 0. 0. 0.
      0. 0. 0. 0. 23.9836845 19.384737 12.9210529 11.0799999 4.11578941
      2.68526316 96.8863144 68.1763153 17.6642094 110.867371 68.00737
      32.8731575 109.314217 70.8552628 38.5331573 0. 0. 0. 0. 0. 0. 0.
      0. 0. 0. 0. 0. 0. 0. 0. 23.9931583 19.3026314 13.4373684
      11.1005268 4.21684217 2.62210512 97.9410553 67.0157928 17.4194736
      111.246315 67.5652618 31.202631 109.510002 70.5647354 36.8736839
      0. 0. 0. 0. 0. 0. 0. 0. 0. 0. 0. 0. 0. 0. 0. 23.7557888 19.4294739
      12.6673689 11.4142103 4.18631554 2.54578948 98.5768433 66.27211
      17.0015793 112.363159 66.6326294 31.7942104 110.669472 69.8310547
      38.0299988 0. 0. 0. 0. 0. 0. 0. 0. 0. 0. 0. 0. 0. 0. 0. 23.8884201
      19.2178955 10.8200006 11.5184212 3.97157907 2.46684217 98.9652634
      65.6152649 17.0315781 112.41526 66.4968414 31.7847366 110.82737
      69.595787 38.0994759 0. 0. 0. 0. 0. 0. 0. 0. 0. 0. 0. 0. 0. 0. 0.
      24.0263157 18.8926315 10.3357897 11.5563164 4.0563159 2.43894744
      97.9184189 66.9389496 17.0799999 112.362106 66.7789536 32.8157883
      111.173157 69.5363159 39.0900002 0. 0. 0. 0. 0. 0. 0. 0. 0. 0. 0.
      0. 0. 0. 0. 24.6373692 19.4610519 11.9273682 10.845789 4.12263155
      2.43421054 100.39579 64.632103 17.0989475 113.650528 65.400528
      31.9110546 112.17263 68.1863174 37.9768448 0. 0. 0. 0. 0. 0. 0. 0.
      0. 0. 0. 0. 0. 0. 0. 24.3394737 19.3026314 12.0068426 10.9178944
      3.73000002 2.55736828 100.594215 64.2763138 16.8068428 113.854736
      65.0905228 30.5921059 111.939476 68.3094711 36.9205246 0. 0. 0. 0.
      0. 0. 0. 0. 0. 0. 0. 0. 0. 0. 0. 24.7821045 19.6852646 11.6842108
      10.9889479 3.96210527 2.5889473 99.6831589 65.635788 17.1726322
      113.406837 65.7205276 33.2926331 112.196838 68.1694794 40.2973709
      0. 0. 0. 0. 0. 0. 0. 0. 0. 0. 0. 0. 0. 0. 0. 24.6215782 19.7889481
      12.5173683 11.29 3.96578956 2.5563159 98.1610565 67.0515823
      17.1852627 112.317894 66.7252655 33.9184227 111.550003 68.9252625
      41.4410553 0. 0. 0. 0. 0. 0. 0. 0. 0. 0. 0. 0. 0. 0. 0. 24.0489483
      19.4173679 10.8842106 11.0457897 3.85578942 2.57999992 98.1236877
      67.1547394 17.2468414 112.646843 66.5157928 32.2942085 111.186317
      69.3552628 39.2815781 0. 0. 0. 0. 0. 0. 0. 0. 0. 0. 0. 0. 0. 0. 0.
      24.0978947 19.8805256 12.0426311 11.3189478 4.07894707 2.56842089
      98.7747421 66.4468384 17.0968418 112.80368 66.5284195 32.3400002
      111.222099 69.356842 39.5068398 0. 0. 0. 0. 0. 0. 0. 0. 0. 0. 0.
      0. 0. 0. 0. 24.3899994 20.25 13.1400003 11.2600002 4.17000008
      2.50999999 98.8600006 66.1900024 16.6399994 112.160004 66.9899979
      31.7399998 110.639999 69.6699982 38.6699982</_>
    <_>
      0. 0. 0. 0. 0. 0. 0. 0. 0. 0. 0. 0. 0. 0. 0. 23.4899998 21.3600006
      10.6999998 10.3000002 4.03000021 2.8499999 106. 58.2700005
      16.7700005 117.989998 60.8600006 31.8199997 118. 62.0400009
      38.3199997 0. 0. 0. 0. 0. 0. 0. 0. 0. 0. 0. 0. 0. 0. 0. 22.5057888
      20.106842 10.6952629 10.368947 4.04736853 3.051579 106.06842
      58.8300018 17.5005264 118.493156 60.4647369 34.3068428 118.813156
      61.6226311 40.0557899 0. 0. 0. 0. 0. 0. 0. 0. 0. 0. 0. 0. 0. 0. 0.
      22.9121056 20.5268421 12.4810524 10.2068424 4.0563159 3.07315779
      106.470528 58.9784203 18.6863155 118.573685 60.5047379 38.4094734
      119.228424 61.2368431 42.7136841 0. 0. 0. 0. 0. 0. 0. 0. 0. 0. 0.
      0. 0. 0. 0. 22.365263 20.4047356 12.0615797 10.2021055 4.13684225
      2.94947362 105.699997 58.9473686 17.3910522 118.245789 60.3726311
      34.2242088 118.900002 61.1847343 39.662632 0. 0. 0. 0. 0. 0. 0. 0.
      0. 0. 0. 0. 0. 0. 0. 22.1894741 20.5742111 11.7594738 10.2994738
      3.86736846 2.87894726 105.689476 58.9599991 17.337368 118.040001
      60.6263161 33.5252647 118.400528 61.6147346 38.920002 0. 0. 0. 0.
      0. 0. 0. 0. 0. 0. 0. 0. 0. 0. 0. 21.6073685 20.0321064 10.2726316
      10.2015781 3.73473692 2.81842113 106.072105 58.6189461 17.1268425
      118.18 60.5505257 32.4778976 117.766312 62.2384224 37.2294731 0.
      0. 0. 0. 0. 0. 0. 0. 0. 0. 0. 0. 0. 0. 0. 22.7626324 21.0563164
      10.4363155 10.2894735 3.61105275 2.95842099 105.976845 59.2189445
      17.634737 118.523155 60.3563156 33.9942131 118.972107 61.2526321
      39.2673683 0. 0. 0. 0. 0. 0. 0. 0. 0. 0. 0. 0. 0. 0. 0. 22.5968418
      20.3552628 10.6115789 10.412632 4.12736845 3.05789471 107.838417
      57.5042076 17.7247353 119.224213 59.9442101 33.5300026 119.692101
      61.0536842 39.2721062 0. 0. 0. 0. 0. 0. 0. 0. 0. 0. 0. 0. 0. 0. 0.
      23.2215786 20.5673676 10.321579 10.349474 3.64157891 3.02999997
      105.834213 59.1242104 17.6547375 118.200005 60.5494728 33.6284218
      119.00737 61.4352608 40.178421 0. 0. 0. 0. 0. 0. 0. 0. 0. 0. 0. 0.
      0. 0. 0. 23.1742115 20.4378948 11.4647369 10.3257895 3.85631585 3.
      106.241585 59.2110519 17.9673691 118.391052 60.7152634 34.4984207
      119.075264 61.5363159 41.1336861 0. 0. 0. 0. 0. 0. 0. 0. 0. 0. 0.
      0. 0. 0. 0. 22.7121048 20.2394733 10.5747366 10.3226318 3.79421043
      2.80789471 106.63842 58.523159 17.5400009 118.639473 60.4021034
      34.3499985 119.359474 61.0142097 39.6805267 0. 0. 0. 0. 0. 0. 0.
      0. 0. 0. 0. 0. 0. 0. 0. 22.8621063 21.0163155 10.2605257
      10.3447371 3.9157896 2.86315799 107.675789 57.6973686 17.5210533
      118.994736 60.3421059 33.0378952 119.272629 61.4468422 39.110527
      0. 0. 0. 0. 0. 0. 0. 0. 0. 0. 0. 0. 0. 0. 0. 22.9136848 20.8352642
      10.4731579 10.4389467 3.63842106 2.87631583 106.288422 59.0568428
      17.793684 118.262627 60.9026299 33.9094734 118.742104 61.8536835
      40.5636826 0. 0. 0. 0. 0. 0. 0. 0. 0. 0. 0. 0. 0. 0. 0. 22.3263168
      20.9536839 11.8326321 10.2115793 3.65736842 2.85736847 107.32579
      57.9105263 18.0352631 119.205261 59.6568413 34.7005272 119.589996
      60.4278946 40.146843 0. 0. 0. 0. 0. 0. 0. 0. 0. 0. 0. 0. 0. 0. 0.
      22.1968422 21.9915791 11.9315786 10.4573679 3.79368424 2.80263162
      107.686836 57.693161 17.5826321 118.753159 60.1294708 33.276844
      118.073685 61.7147369 38.0010529 0. 0. 0. 0. 0. 0. 0. 0. 0. 0. 0.
      0. 0. 0. 0. 22.5357895 21.952631 11.5210524 10.0810528 3.44473672
      2.88368416 107.175789 57.8352623 17.7547359 119.07579 59.3642082
      33.9205246 119.96579 59.7163162 38.7426338 0. 0. 0. 0. 0. 0. 0. 0.
      0. 0. 0. 0. 0. 0. 0. 22.3189468 22.2063141 13.2168427 9.97842121
      3.6500001 2.83315778 108.212105 56.9242096 17.9673672 119.633156
      58.8163147 34.6273689 120.648422 58.9094734 40.4031601 0. 0. 0. 0.
      0. 0. 0. 0. 0. 0. 0. 0. 0. 0. 0. 21.8305264 22.2357903 13.2157898
      9.74894714 3.98105264 2.75999999 108.878426 56.7057877 18.4831581
      119.883682 58.7563133 35.1221046 120.865265 59.0152626 39.8889465
      0. 0. 0. 0. 0. 0. 0. 0. 0. 0. 0. 0. 0. 0. 0. 22.5026321 22.6415787
      11.8100004 10.1394739 4.46631575 2.86421061 108.773682 56.9152641
      18.4363155 119.501053 59.0463142 35.8110542 120.232628 59.2231598
      40.1278954 0. 0. 0. 0. 0. 0. 0. 0. 0. 0. 0. 0. 0. 0. 0. 21.8400002
      21.9500008 13.6700001 9.92000008 4.19000006 2.83999991 109.190002
      56.6800003 19.4699993 119.459999 59.1899986 37.25 120.330002
      58.9900017 40.2400017</_>
    <_>
      0. 0. 0. 0. 0. 0. 0. 0. 0. 0. 0. 0. 0. 0. 0. 22.7000008 21.7199993
      13.0900002 9.81000042 3.94000006 2.8499999 108.610001 56.5900002
      18.0200005 119.279999 59.2700005 33.7999992 119.82 59.7299995
      37.4900017 0. 0. 0. 0. 0. 0. 0. 0. 0. 0. 0. 0. 0. 0. 0. 22.2415791
      22.3231583 13.7963161 9.74315739 4.20210552 2.90368438 108.732628
      56.9184227 18.6357899 119.081581 59.6452637 35.0015793 119.347893
      60.3694763 38.6673698 0. 0. 0. 0. 0. 0. 0. 0. 0. 0. 0. 0. 0. 0. 0.
      22.2657909 21.7484207 14.150527 9.82157898 4.58631563 3.02052617
      108.962105 55.9336815 17.9436836 119.009995 59.2363129 32.3478966
      119.044739 60.3242111 36.8478966 0. 0. 0. 0. 0. 0. 0. 0. 0. 0. 0.
      0. 0. 0. 0. 22.2410526 21.4410534 11.222105 9.87368393 4.61894703
      2.82684207 107.82 56.9421043 17.5284214 118.700523 59.8163147
      32.8342094 119.180527 60.5352631 38.135788 0. 0. 0. 0. 0. 0. 0. 0.
      0. 0. 0. 0. 0. 0. 0. 23.2142105 21.7405262 13.0131578 9.54578972
      4.26684237 2.80789471 108.368416 56.893158 18.5821056 119.102104
      59.4263191 35.0810509 119.585793 60.0952644 39.7247391 0. 0. 0. 0.
      0. 0. 0. 0. 0. 0. 0. 0. 0. 0. 0. 22.3999996 21.5642109 13.8431578
      9.92631531 4.64263153 2.92210531 108.301575 57.4057884 18.8526325
      118.830002 60.0289497 35.9784203 119.138947 60.4447365 40.397892
      0. 0. 0. 0. 0. 0. 0. 0. 0. 0. 0. 0. 0. 0. 0. 22.8878956 21.7673683
      12.5721054 9.86210537 4.23105288 2.84210515 107.78421 57.6342087
      18.0973682 118.721581 60.0373688 33.3463135 119.377892 60.2247391
      38.5968399 0. 0. 0. 0. 0. 0. 0. 0. 0. 0. 0. 0. 0. 0. 0. 22.8642101
      21.3647366 11.9363165 9.60105228 4.13684225 2.86842108 107.705261
      57.9973679 18.8068428 118.577896 60.3394737 34.0168419 118.983681
      60.7778931 38.7805252 0. 0. 0. 0. 0. 0. 0. 0. 0. 0. 0. 0. 0. 0. 0.
      22.5757904 20.634737 9.46157837 9.7831583 4.29368448 2.88210511
      107.387894 58.5168419 18.9068432 118.296844 60.8315811 34.9489479
      119.083679 60.7821045 38.6510544 0. 0. 0. 0. 0. 0. 0. 0. 0. 0. 0.
      0. 0. 0. 0. 22.1673679 20.6410522 11.9763165 10.1847363 4.11526299
      2.94421053 106.029472 59.4615822 18.0463161 116.913155 61.9352646
      33.2857895 117.038422 63.0457878 38.1984215 0. 0. 0. 0. 0. 0. 0.
      0. 0. 0. 0. 0. 0. 0. 0. 21.8526306 20.3842106 13.1199999
      10.0900002 4.02315807 2.76842093 105.925262 59.0857887 17.4215775
      116.916313 62.0536842 32.8978958 117.233154 62.6510544 37.2857895
      0. 0. 0. 0. 0. 0. 0. 0. 0. 0. 0. 0. 0. 0. 0. 21.2447357 21.0636845
      15.1542101 10.0173683 4.10157919 2.81210518 105.298943 59.4731598
      17.6021061 116.445786 62.1731606 32.8505287 116.384743 63.1378937
      36.2884216 0. 0. 0. 0. 0. 0. 0. 0. 0. 0. 0. 0. 0. 0. 0. 22.793684
      21.9300003 12.0789471 10.2347364 3.90999985 2.8578949 105.612106
      59.2000008 17.5131588 117.054733 61.7273674 33.0042076 117.410522
      62.6978951 38.2973671 0. 0. 0. 0. 0. 0. 0. 0. 0. 0. 0. 0. 0. 0. 0.
      23.143158 22.246315 11.8736839 10.1668425 4.01473713 2.93631577
      104.769997 60.8242111 17.9447365 116.173683 62.8442078 34.7168427
      115.992111 64.1842117 39.1531563 0. 0. 0. 0. 0. 0. 0. 0. 0. 0. 0.
      0. 0. 0. 0. 21.6994743 21.6215801 12.7852631 10.067894 4.14105272
      2.79894733 106.170525 59.3168411 17.6142101 117.191055 61.5642128
      33.6852646 116.886314 63.0831566 37.8936844 0. 0. 0. 0. 0. 0. 0.
      0. 0. 0. 0. 0. 0. 0. 0. 21.8426323 22.9815788 17.5531578
      9.26210499 3.5210526 2.92315793 106.376839 59.1289444 19.2584209
      117.542107 60.939476 35.9047394 118.122627 61.0205269 38.3821068
      0. 0. 0. 0. 0. 0. 0. 0. 0. 0. 0. 0. 0. 0. 0. 21.6994743 23.5810528
      15.6415796 9.31894779 3.73578954 2.70894742 106.581055 58.9431572
