<?xml version="1.0"?>
<opencv_storage>
<opencv_ml_svm>
  <format>3</format>
  <svmType>C_SVC</svmType>
  <kernel>
    <type>RBF</type>
    <gamma>1.8239577457279665e-06</gamma></kernel>
  <C>50.</C>
  <term_criteria><epsilon>1.1920928955078125e-07</epsilon>
    <iterations>1000</iterations></term_criteria>
  <var_count>600</var_count>
  <class_count>9</class_count>
  <class_labels type_id="opencv-matrix">
    <rows>9</rows>
    <cols>1</cols>
    <dt>i</dt>
    <data>
      0 1 2 3 4 5 6 7 8</data></class_labels>
  <sv_total>183</sv_total>
  <support_vectors>
    <_>
      23.5799999 30.6599998 15.1199999 8.60999966 4.01999998 4.01000023
      14.29 4.05999994 3.51999998 15.4399996 2.00999999 6.11000013
      21.2800007 3.18000007 9.81999969 0. 0. 0. 0. 0. 0. 0. 0. 0. 0. 0.
      0. 0. 0. 0. 21.9073696 29.3526325 15.1052637 7.2778945 4.01894712
      3.92894745 13.6963158 4.01894712 2.97789478 14.7173681 1.87736845
      5.698421 20.6463165 2.75736856 9.21789455 0. 0. 0. 0. 0. 0. 0. 0.
      0. 0. 0. 0. 0. 0. 0. 23.9389477 30.2763157 14.5552635 7.70842123
      3.97157907 4.03315783 13.765789 3.94894743 3.1936841 14.7368422
      1.72631586 5.77999973 20.8152637 3.41526318 9.53578949 0. 0. 0. 0.
      0. 0. 0. 0. 0. 0. 0. 0. 0. 0. 0. 23.8889484 30.3536854 14.6289473
      7.95894718 3.92947364 4.11736822 14.2057896 3.82736826 2.94947362
      15.0484219 1.64473689 5.54526329 20.9531574 2.98105264 9.17105293
      0. 0. 0. 0. 0. 0. 0. 0. 0. 0. 0. 0. 0. 0. 0. 23.3973694 31.2731571
      14.972105 8.10947323 3.82736826 3.92842102 13.6589479 3.82894731
      3.30578947 14.809473 1.79368424 5.81157875 21.0757885 3.17842102
      9.46894741 0. 0. 0. 0. 0. 0. 0. 0. 0. 0. 0. 0. 0. 0. 0. 22.424736
      31.4200001 14.9884214 8.20157909 3.86052632 3.89210534 13.8778944
      4.0142107 3.50631571 14.8842106 1.67368424 6.18473673 20.7415791
      2.91526318 9.67157936 0. 0. 0. 0. 0. 0. 0. 0. 0. 0. 0. 0. 0. 0. 0.
      21.2352619 30.5605278 15.9984217 7.9857893 4.01526356 4.06421041
      14.4557896 3.93789482 3.21736836 15.1210527 1.83684206 5.91421032
      20.9115791 2.69315791 9.23210526 0. 0. 0. 0. 0. 0. 0. 0. 0. 0. 0.
      0. 0. 0. 0. 21.6194725 30.8884201 15.6236839 7.48894739 4.16263151
      4.04526329 14.0063152 4.00894737 3.15947366 14.9499998 1.58000004
      5.75052643 20.7352619 2.69578958 9.13000011 0. 0. 0. 0. 0. 0. 0.
      0. 0. 0. 0. 0. 0. 0. 0. 21.7905254 30.6515789 15.5842104
      7.65473652 4.00736856 3.7663157 13.7194738 3.96684217 3.22000003
      14.9131575 1.61157894 5.71368408 20.8563156 2.72210526 9.17736816
      0. 0. 0. 0. 0. 0. 0. 0. 0. 0. 0. 0. 0. 0. 0. 22.3836842 30.2926311
      15.3426313 7.02421045 4.13684225 3.85157895 13.6089478 4.20210505
      2.54368424 14.9894743 2.13684201 5.23263168 21.1410522 2.61684203
      8.50421047 0. 0. 0. 0. 0. 0. 0. 0. 0. 0. 0. 0. 0. 0. 0. 22.4921055
      32.1147385 15.1526318 8.01105309 3.80789471 4.04105282 13.8594732
      4.02578974 3.22105265 14.9378948 1.96263158 5.88684177 20.7136841
      2.96052623 9.26263142 0. 0. 0. 0. 0. 0. 0. 0. 0. 0. 0. 0. 0. 0. 0.
      22.8763161 31.3789482 15.1063156 7.73999977 3.71842098 3.77421045
      13.9357891 4.05315781 3.01210523 15.2868423 2.09631586 5.63526344
      21.5415783 2.83999991 8.78473663 0. 0. 0. 0. 0. 0. 0. 0. 0. 0. 0.
      0. 0. 0. 0. 22.6947365 30.5421047 14.6878948 7.72947359 3.67894745
      3.65315795 14.012105 4.00578976 2.98315787 15.1736841 1.99631584
      5.65105295 21.2310524 2.68736839 8.79526329 0. 0. 0. 0. 0. 0. 0.
      0. 0. 0. 0. 0. 0. 0. 0. 22.4689465 30.7084198 15.1968422
      7.65052605 3.63684201 3.82105255 14.412631 3.66842127 3.11789465
      14.7826319 1.5726316 5.8484211 20.1026306 2.74736834 8.97578907 0.
      0. 0. 0. 0. 0. 0. 0. 0. 0. 0. 0. 0. 0. 0. 21.5105267 30.1952629
      15.5984211 7.47578955 3.85578942 4.12789488 14.3315792 3.91842103
      3.15052629 15.1610527 1.44684207 5.97052622 20.5036831 2.63157892
      9.03263092 0. 0. 0. 0. 0. 0. 0. 0. 0. 0. 0. 0. 0. 0. 0. 19.9905262
      30.4421043 15.4915791 7.15263176 3.8273685 4.13631582 14.0168419
      3.98157907 3.40421057 14.762105 1.14631581 6.20210552 19.5042114
      2.46526313 9.13789463 0. 0. 0. 0. 0. 0. 0. 0. 0. 0. 0. 0. 0. 0. 0.
      19.6926308 30.1773682 16.5915794 7.77315807 3.58684206 3.92842102
      14.2984209 4.07684231 3.93947363 14.4573679 0.58684206 6.20842075
      19.8821049 3.11368442 9.24578953 0. 0. 0. 0. 0. 0. 0. 0. 0. 0. 0.
      0. 0. 0. 0. 20.7442112 31.3100014 16.4436855 7.23105288 4.10684204
      3.98842096 14.2957897 4.22947359 3.49631572 14.6010523 0.820526302
      5.97789478 20.6547375 2.70263171 9.30578995 0. 0. 0. 0. 0. 0. 0.
      0. 0. 0. 0. 0. 0. 0. 0. 20.5821056 31.3589478 16.5115795
      7.11631584 4.20421028 4.23578978 14.5521049 4.21842098 3.62315798
      14.503684 0.921052635 6.22052622 20.5089474 2.75526309 9.48315811
      0. 0. 0. 0. 0. 0. 0. 0. 0. 0. 0. 0. 0. 0. 0. 20.7399998 31.1800003
      15.5 7.03999996 4.05000019 3.75 14.5 4.26000023 3.80999994
      14.3999996 0.660000026 6.3499999 20.4400005 2.98000002 9.77999973
      0. 0. 0. 0. 0. 0. 0. 0. 0. 0. 0. 0. 0. 0. 0.</_>
    <_>
      0. 0. 0. 0. 0. 0. 0. 0. 0. 0. 0. 0. 0. 0. 0. 23.5799999 30.6599998
      15.1199999 8.60999966 4.01999998 4.01000023 14.29 4.05999994
      3.51999998 15.4399996 2.00999999 6.11000013 21.2800007 3.18000007
      9.81999969 0. 0. 0. 0. 0. 0. 0. 0. 0. 0. 0. 0. 0. 0. 0. 21.9073696
      29.3526325 15.1052637 7.2778945 4.01894712 3.92894745 13.6963158
      4.01894712 2.97789478 14.7173681 1.87736845 5.698421 20.6463165
      2.75736856 9.21789455 0. 0. 0. 0. 0. 0. 0. 0. 0. 0. 0. 0. 0. 0. 0.
      23.9389477 30.2763157 14.5552635 7.70842123 3.97157907 4.03315783
      13.765789 3.94894743 3.1936841 14.7368422 1.72631586 5.77999973
      20.8152637 3.41526318 9.53578949 0. 0. 0. 0. 0. 0. 0. 0. 0. 0. 0.
      0. 0. 0. 0. 23.8889484 30.3536854 14.6289473 7.95894718 3.92947364
      4.11736822 14.2057896 3.82736826 2.94947362 15.0484219 1.64473689
      5.54526329 20.9531574 2.98105264 9.17105293 0. 0. 0. 0. 0. 0. 0.
      0. 0. 0. 0. 0. 0. 0. 0. 23.3973694 31.2731571 14.972105 8.10947323
      3.82736826 3.92842102 13.6589479 3.82894731 3.30578947 14.809473
      1.79368424 5.81157875 21.0757885 3.17842102 9.46894741 0. 0. 0. 0.
      0. 0. 0. 0. 0. 0. 0. 0. 0. 0. 0. 22.424736 31.4200001 14.9884214
      8.20157909 3.86052632 3.89210534 13.8778944 4.0142107 3.50631571
      14.8842106 1.67368424 6.18473673 20.7415791 2.91526318 9.67157936
      0. 0. 0. 0. 0. 0. 0. 0. 0. 0. 0. 0. 0. 0. 0. 21.2352619 30.5605278
      15.9984217 7.9857893 4.01526356 4.06421041 14.4557896 3.93789482
      3.21736836 15.1210527 1.83684206 5.91421032 20.9115791 2.69315791
      9.23210526 0. 0. 0. 0. 0. 0. 0. 0. 0. 0. 0. 0. 0. 0. 0. 21.6194725
      30.8884201 15.6236839 7.48894739 4.16263151 4.04526329 14.0063152
      4.00894737 3.15947366 14.9499998 1.58000004 5.75052643 20.7352619
      2.69578958 9.13000011 0. 0. 0. 0. 0. 0. 0. 0. 0. 0. 0. 0. 0. 0. 0.
      21.7905254 30.6515789 15.5842104 7.65473652 4.00736856 3.7663157
      13.7194738 3.96684217 3.22000003 14.9131575 1.61157894 5.71368408
      20.8563156 2.72210526 9.17736816 0. 0. 0. 0. 0. 0. 0. 0. 0. 0. 0.
      0. 0. 0. 0. 22.3836842 30.2926311 15.3426313 7.02421045 4.13684225
      3.85157895 13.6089478 4.20210505 2.54368424 14.9894743 2.13684201
      5.23263168 21.1410522 2.61684203 8.50421047 0. 0. 0. 0. 0. 0. 0.
      0. 0. 0. 0. 0. 0. 0. 0. 22.4921055 32.1147385 15.1526318
      8.01105309 3.80789471 4.04105282 13.8594732 4.02578974 3.22105265
      14.9378948 1.96263158 5.88684177 20.7136841 2.96052623 9.26263142
      0. 0. 0. 0. 0. 0. 0. 0. 0. 0. 0. 0. 0. 0. 0. 22.8763161 31.3789482
      15.1063156 7.73999977 3.71842098 3.77421045 13.9357891 4.05315781
      3.01210523 15.2868423 2.09631586 5.63526344 21.5415783 2.83999991
      8.78473663 0. 0. 0. 0. 0. 0. 0. 0. 0. 0. 0. 0. 0. 0. 0. 22.6947365
      30.5421047 14.6878948 7.72947359 3.67894745 3.65315795 14.012105
      4.00578976 2.98315787 15.1736841 1.99631584 5.65105295 21.2310524
      2.68736839 8.79526329 0. 0. 0. 0. 0. 0. 0. 0. 0. 0. 0. 0. 0. 0. 0.
      22.4689465 30.7084198 15.1968422 7.65052605 3.63684201 3.82105255
      14.412631 3.66842127 3.11789465 14.7826319 1.5726316 5.8484211
      20.1026306 2.74736834 8.97578907 0. 0. 0. 0. 0. 0. 0. 0. 0. 0. 0.
      0. 0. 0. 0. 21.5105267 30.1952629 15.5984211 7.47578955 3.85578942
      4.12789488 14.3315792 3.91842103 3.15052629 15.1610527 1.44684207
      5.97052622 20.5036831 2.63157892 9.03263092 0. 0. 0. 0. 0. 0. 0.
      0. 0. 0. 0. 0. 0. 0. 0. 19.9905262 30.4421043 15.4915791
      7.15263176 3.8273685 4.13631582 14.0168419 3.98157907 3.40421057
      14.762105 1.14631581 6.20210552 19.5042114 2.46526313 9.13789463
      0. 0. 0. 0. 0. 0. 0. 0. 0. 0. 0. 0. 0. 0. 0. 19.6926308 30.1773682
      16.5915794 7.77315807 3.58684206 3.92842102 14.2984209 4.07684231
      3.93947363 14.4573679 0.58684206 6.20842075 19.8821049 3.11368442
      9.24578953 0. 0. 0. 0. 0. 0. 0. 0. 0. 0. 0. 0. 0. 0. 0. 20.7442112
      31.3100014 16.4436855 7.23105288 4.10684204 3.98842096 14.2957897
      4.22947359 3.49631572 14.6010523 0.820526302 5.97789478 20.6547375
      2.70263171 9.30578995 0. 0. 0. 0. 0. 0. 0. 0. 0. 0. 0. 0. 0. 0. 0.
      20.5821056 31.3589478 16.5115795 7.11631584 4.20421028 4.23578978
      14.5521049 4.21842098 3.62315798 14.503684 0.921052635 6.22052622
      20.5089474 2.75526309 9.48315811 0. 0. 0. 0. 0. 0. 0. 0. 0. 0. 0.
      0. 0. 0. 0. 20.7399998 31.1800003 15.5 7.03999996 4.05000019 3.75
      14.5 4.26000023 3.80999994 14.3999996 0.660000026 6.3499999
      20.4400005 2.98000002 9.77999973</_>
    <_>
      32.3199997 38.1399994 12.6199999 7.26999998 3.95000005 3.78999996
      8.69999981 4.65999985 1.59000003 10.1800003 2.94000006 4.0999999
      12.7399998 2.11999989 5.55000019 0. 0. 0. 0. 0. 0. 0. 0. 0. 0. 0.
      0. 0. 0. 0. 33.1557884 37.1752625 12.8731585 7.12473679 4.51105261
      3.93105268 9.31000042 4.79421043 1.40315795 10.5357895 3.13578939
      4.09315777 13.0463161 2.25315785 5.60578966 0. 0. 0. 0. 0. 0. 0.
      0. 0. 0. 0. 0. 0. 0. 0. 32.3378944 38.0731583 12.9836845
      7.24421024 4.3436842 3.85210514 9.11421108 4.74105263 1.56526315
      9.98789501 2.93526316 4.14421034 12.8857889 1.95052636 5.59578943
      0. 0. 0. 0. 0. 0. 0. 0. 0. 0. 0. 0. 0. 0. 0. 32.8831558 37.4657898
      13.1389475 7.30789471 4.39315796 3.83947349 9.23684216 4.72052622
      1.49473691 10.0652628 2.92157912 4.12263155 12.9168425 1.92157888
      5.5984211 0. 0. 0. 0. 0. 0. 0. 0. 0. 0. 0. 0. 0. 0. 0. 32.4773712
      37.3042107 12.9647369 7.21578932 4.39631605 3.93578959 9.01947308
      4.71684217 1.5257895 9.93368435 2.89894724 4.11578941 12.9552631
      1.96684206 5.60421038 0. 0. 0. 0. 0. 0. 0. 0. 0. 0. 0. 0. 0. 0. 0.
      32.0915794 37.2436867 13.0126314 7.24263191 4.30684185 3.83526325
      8.98999977 4.77947378 1.5410527 9.84157944 2.93947363 4.14263153
      12.9389467 1.91842103 5.68263149 0. 0. 0. 0. 0. 0. 0. 0. 0. 0. 0.
      0. 0. 0. 0. 31.8321056 37.4878922 13.0884209 7.26578951 4.28999996
      3.81947351 8.83789444 4.79473686 1.60947371 9.97473621 2.84736824
      4.24631596 13.1736841 1.82947373 5.79526329 0. 0. 0. 0. 0. 0. 0.
      0. 0. 0. 0. 0. 0. 0. 0. 30.8615799 37.5563164 13.9236841
      7.37421036 4.45263147 3.654737 8.56894779 4.60947371 1.49947369
      9.95684147 2.91421032 4.13000011 13.3757896 1.89842105 5.63631582
      0. 0. 0. 0. 0. 0. 0. 0. 0. 0. 0. 0. 0. 0. 0. 30.5247364 38.0852623
      13.6526318 7.35842085 4.46842098 3.57578945 8.88473701 4.66736841
      1.38631582 9.79631519 3.02736831 3.97736835 13.2257891 1.74578953
      5.66263151 0. 0. 0. 0. 0. 0. 0. 0. 0. 0. 0. 0. 0. 0. 0. 31.4289474
      37.6968422 13.9778948 7.46473646 4.49894762 3.85105276 9.24789524
      4.72105265 1.38736844 9.78052616 3.12315798 4.05894709 13.1136847
      1.63947368 5.63947344 0. 0. 0. 0. 0. 0. 0. 0. 0. 0. 0. 0. 0. 0. 0.
      31.4889469 37.2389488 13.0452623 7.41315794 4.49684238 3.86105275
      9.01105309 4.71315813 1.48210526 9.93263149 3.1099999 4.13473701
      13.4205265 1.71947372 5.76315832 0. 0. 0. 0. 0. 0. 0. 0. 0. 0. 0.
      0. 0. 0. 0. 30.1526318 37.0352631 14.4831581 7.28315783 4.28684235
      3.73157907 9.00263119 4.66368437 1.39263165 9.8863163 3.12894726
      4.17421055 13.3794737 1.59473681 5.70894766 0. 0. 0. 0. 0. 0. 0.
      0. 0. 0. 0. 0. 0. 0. 0. 29.8631573 36.7405281 13.4910526
      7.26210546 4.55789471 3.88947368 8.62368393 4.67684221 1.4742105
      9.90999985 3.19736838 4.24526358 13.2399998 1.30526316 5.70105267
      0. 0. 0. 0. 0. 0. 0. 0. 0. 0. 0. 0. 0. 0. 0. 29.5394726 37.0747375
      14.7373686 7.14578962 4.1936841 3.86052632 9.07368469 4.66684198
      1.42210519 10.0231581 3.38315797 4.2031579 13.4621048 1.35947371
      5.63368416 0. 0. 0. 0. 0. 0. 0. 0. 0. 0. 0. 0. 0. 0. 0. 30.21842
      37.3826332 14.0794735 7.27578974 4.21315765 3.97947359 8.96263123
      4.51368427 1.41052639 9.87894726 3.28368425 4.16263151 13.4731579
      1.53263164 5.77526331 0. 0. 0. 0. 0. 0. 0. 0. 0. 0. 0. 0. 0. 0. 0.
      29.293684 36.8989487 14.6005268 7.21105289 4.33052635 3.99052644
      8.73842144 4.46526337 1.23000002 9.60157871 3.16157889 3.93736863
      13.3847361 1.87368429 5.64052629 0. 0. 0. 0. 0. 0. 0. 0. 0. 0. 0.
      0. 0. 0. 0. 28.7168407 36.9052658 16.1531563 7.21052647 3.98052621
      3.93631577 9.02210522 4.55684233 1.53052628 10. 3.2031579
      4.39894724 13.5389471 1.85631573 5.74736834 0. 0. 0. 0. 0. 0. 0.
      0. 0. 0. 0. 0. 0. 0. 0. 28.8699989 37.2247353 15.3178949
      7.30105257 3.83947372 3.73421049 8.84000015 4.63210535 1.53999996
      9.59631538 3.37000012 4.35421038 13.1126318 1.35631573 5.68157864
      0. 0. 0. 0. 0. 0. 0. 0. 0. 0. 0. 0. 0. 0. 0. 29.03158 37.1926308
      15.6878948 7.51526308 4.04052639 3.6868422 9.16894722 4.74157906
      1.51947367 9.82999992 3.50315785 4.37157917 13.1552629 1.15473688
      5.69789457 0. 0. 0. 0. 0. 0. 0. 0. 0. 0. 0. 0. 0. 0. 0. 30.1100006
      37.5699997 15.2700005 7.76999998 3.81999993 3.53999996 9.27999973
      4.80999994 1.36000001 9.81999969 3.82999992 4.40999985 12.4499998
      0.699999988 5.57000017 0. 0. 0. 0. 0. 0. 0. 0. 0. 0. 0. 0. 0. 0.
      0.</_>
    <_>
      0. 0. 0. 0. 0. 0. 0. 0. 0. 0. 0. 0. 0. 0. 0. 32.3199997 38.1399994
      12.6199999 7.26999998 3.95000005 3.78999996 8.69999981 4.65999985
      1.59000003 10.1800003 2.94000006 4.0999999 12.7399998 2.11999989
      5.55000019 0. 0. 0. 0. 0. 0. 0. 0. 0. 0. 0. 0. 0. 0. 0. 33.1557884
      37.1752625 12.8731585 7.12473679 4.51105261 3.93105268 9.31000042
      4.79421043 1.40315795 10.5357895 3.13578939 4.09315777 13.0463161
      2.25315785 5.60578966 0. 0. 0. 0. 0. 0. 0. 0. 0. 0. 0. 0. 0. 0. 0.
      32.3378944 38.0731583 12.9836845 7.24421024 4.3436842 3.85210514
      9.11421108 4.74105263 1.56526315 9.98789501 2.93526316 4.14421034
      12.8857889 1.95052636 5.59578943 0. 0. 0. 0. 0. 0. 0. 0. 0. 0. 0.
      0. 0. 0. 0. 32.8831558 37.4657898 13.1389475 7.30789471 4.39315796
      3.83947349 9.23684216 4.72052622 1.49473691 10.0652628 2.92157912
      4.12263155 12.9168425 1.92157888 5.5984211 0. 0. 0. 0. 0. 0. 0. 0.
      0. 0. 0. 0. 0. 0. 0. 32.4773712 37.3042107 12.9647369 7.21578932
      4.39631605 3.93578959 9.01947308 4.71684217 1.5257895 9.93368435
      2.89894724 4.11578941 12.9552631 1.96684206 5.60421038 0. 0. 0. 0.
      0. 0. 0. 0. 0. 0. 0. 0. 0. 0. 0. 32.0915794 37.2436867 13.0126314
      7.24263191 4.30684185 3.83526325 8.98999977 4.77947378 1.5410527
      9.84157944 2.93947363 4.14263153 12.9389467 1.91842103 5.68263149
      0. 0. 0. 0. 0. 0. 0. 0. 0. 0. 0. 0. 0. 0. 0. 31.8321056 37.4878922
      13.0884209 7.26578951 4.28999996 3.81947351 8.83789444 4.79473686
      1.60947371 9.97473621 2.84736824 4.24631596 13.1736841 1.82947373
      5.79526329 0. 0. 0. 0. 0. 0. 0. 0. 0. 0. 0. 0. 0. 0. 0. 30.8615799
      37.5563164 13.9236841 7.37421036 4.45263147 3.654737 8.56894779
      4.60947371 1.49947369 9.95684147 2.91421032 4.13000011 13.3757896
      1.89842105 5.63631582 0. 0. 0. 0. 0. 0. 0. 0. 0. 0. 0. 0. 0. 0. 0.
      30.5247364 38.0852623 13.6526318 7.35842085 4.46842098 3.57578945
      8.88473701 4.66736841 1.38631582 9.79631519 3.02736831 3.97736835
      13.2257891 1.74578953 5.66263151 0. 0. 0. 0. 0. 0. 0. 0. 0. 0. 0.
      0. 0. 0. 0. 31.4289474 37.6968422 13.9778948 7.46473646 4.49894762
      3.85105276 9.24789524 4.72105265 1.38736844 9.78052616 3.12315798
      4.05894709 13.1136847 1.63947368 5.63947344 0. 0. 0. 0. 0. 0. 0.
      0. 0. 0. 0. 0. 0. 0. 0. 31.4889469 37.2389488 13.0452623
      7.41315794 4.49684238 3.86105275 9.01105309 4.71315813 1.48210526
      9.93263149 3.1099999 4.13473701 13.4205265 1.71947372 5.76315832
      0. 0. 0. 0. 0. 0. 0. 0. 0. 0. 0. 0. 0. 0. 0. 30.1526318 37.0352631
      14.4831581 7.28315783 4.28684235 3.73157907 9.00263119 4.66368437
      1.39263165 9.8863163 3.12894726 4.17421055 13.3794737 1.59473681
      5.70894766 0. 0. 0. 0. 0. 0. 0. 0. 0. 0. 0. 0. 0. 0. 0. 29.8631573
      36.7405281 13.4910526 7.26210546 4.55789471 3.88947368 8.62368393
      4.67684221 1.4742105 9.90999985 3.19736838 4.24526358 13.2399998
      1.30526316 5.70105267 0. 0. 0. 0. 0. 0. 0. 0. 0. 0. 0. 0. 0. 0. 0.
      29.5394726 37.0747375 14.7373686 7.14578962 4.1936841 3.86052632
      9.07368469 4.66684198 1.42210519 10.0231581 3.38315797 4.2031579
      13.4621048 1.35947371 5.63368416 0. 0. 0. 0. 0. 0. 0. 0. 0. 0. 0.
      0. 0. 0. 0. 30.21842 37.3826332 14.0794735 7.27578974 4.21315765
      3.97947359 8.96263123 4.51368427 1.41052639 9.87894726 3.28368425
      4.16263151 13.4731579 1.53263164 5.77526331 0. 0. 0. 0. 0. 0. 0.
      0. 0. 0. 0. 0. 0. 0. 0. 29.293684 36.8989487 14.6005268 7.21105289
      4.33052635 3.99052644 8.73842144 4.46526337 1.23000002 9.60157871
      3.16157889 3.93736863 13.3847361 1.87368429 5.64052629 0. 0. 0. 0.
      0. 0. 0. 0. 0. 0. 0. 0. 0. 0. 0. 28.7168407 36.9052658 16.1531563
      7.21052647 3.98052621 3.93631577 9.02210522 4.55684233 1.53052628
      10. 3.2031579 4.39894724 13.5389471 1.85631573 5.74736834 0. 0. 0.
      0. 0. 0. 0. 0. 0. 0. 0. 0. 0. 0. 0. 28.8699989 37.2247353
      15.3178949 7.30105257 3.83947372 3.73421049 8.84000015 4.63210535
      1.53999996 9.59631538 3.37000012 4.35421038 13.1126318 1.35631573
      5.68157864 0. 0. 0. 0. 0. 0. 0. 0. 0. 0. 0. 0. 0. 0. 0. 29.03158
      37.1926308 15.6878948 7.51526308 4.04052639 3.6868422 9.16894722
      4.74157906 1.51947367 9.82999992 3.50315785 4.37157917 13.1552629
      1.15473688 5.69789457 0. 0. 0. 0. 0. 0. 0. 0. 0. 0. 0. 0. 0. 0. 0.
      30.1100006 37.5699997 15.2700005 7.76999998 3.81999993 3.53999996
      9.27999973 4.80999994 1.36000001 9.81999969 3.82999992 4.40999985
      12.4499998 0.699999988 5.57000017</_>
    <_>
      21.8500004 32.5099983 15.3100004 5.03000021 3.8599999 3.70000005
      2.48000002 3.22000003 2.30999994 5.4000001 2.6500001 5.32000017
      6.44999981 2.47000003 7.80000019 0. 0. 0. 0. 0. 0. 0. 0. 0. 0. 0.
      0. 0. 0. 0. 21.5447369 32.5721054 16.0968418 5.0468421 3.60947371
      3.78368425 2.43105268 3.1078949 2.40210533 5.2921052 2.3789475
      5.27421045 6.2547369 2.62157893 7.5905261 0. 0. 0. 0. 0. 0. 0. 0.
      0. 0. 0. 0. 0. 0. 0. 21.4026318 32.8563156 16.154211 5.01473665
      3.57947373 3.74473691 2.3647368 3.05368423 2.48157907 5.32736874
      2.29631567 5.36631584 5.97894716 2.47157907 7.57894707 0. 0. 0. 0.
      0. 0. 0. 0. 0. 0. 0. 0. 0. 0. 0. 20.7357883 32.7952614 16.3431587
      5.05684185 3.36052632 3.89105272 2.31210518 3.12578964 2.62315798
      5.3294735 2.29999995 5.2031579 5.88789463 2.78947353 7.27157879 0.
      0. 0. 0. 0. 0. 0. 0. 0. 0. 0. 0. 0. 0. 0. 21.5163155 32.9689484
      16.4268436 4.70000029 3.6078949 3.68789482 2.3805263 3.08052635
      2.50526309 4.95526314 2.31473684 5.4015789 5.63421011 2.16263175
      7.68736839 0. 0. 0. 0. 0. 0. 0. 0. 0. 0. 0. 0. 0. 0. 0. 20.9152622
      32.904213 15.6005259 4.84578943 3.76210523 3.82578945 2.25842094
      3.20263147 2.54894733 4.89473677 2.24210525 5.36736822 5.43842077
      2.28578949 7.61526299 0. 0. 0. 0. 0. 0. 0. 0. 0. 0. 0. 0. 0. 0. 0.
      20.2915783 32.9000015 15.7489481 4.76052618 3.59315777 3.68631577
      2.21421051 3.09105253 2.52526307 4.80421066 2.12842107 5.25473642
      5.49263144 2.27157903 7.41052628 0. 0. 0. 0. 0. 0. 0. 0. 0. 0. 0.
      0. 0. 0. 0. 20.4810524 33.117897 16.8989468 4.68631554 3.45263171
      3.66052628 2.09421039 2.89842105 2.52315784 4.52947378 1.93421054
      5.18842077 5.29473686 2.34578967 7.32157898 0. 0. 0. 0. 0. 0. 0.
      0. 0. 0. 0. 0. 0. 0. 0. 20.4810524 32.741581 15.6515789 4.68105268
      3.40526319 3.56052637 2.1915791 2.96157908 2.52315784 4.83473682
      2.13684201 5.28842068 5.63157892 2.33263159 7.56894732 0. 0. 0. 0.
      0. 0. 0. 0. 0. 0. 0. 0. 0. 0. 0. 20.5189476 32.8736839 16.6242104
      4.72263145 3.37052631 3.55315781 2.1047368 2.91421056 2.46210527
      4.73157883 2.09421039 5.20684195 5.65684223 2.52894735 7.40684223
      0. 0. 0. 0. 0. 0. 0. 0. 0. 0. 0. 0. 0. 0. 0. 21.0710526 33.3452606
      16.6289482 4.33210516 3.59157896 3.60526299 2.00631571 2.93578959
      2.40947366 4.60157871 2.23578954 5.1889472 5.49736834 2.50421047
      7.42947388 0. 0. 0. 0. 0. 0. 0. 0. 0. 0. 0. 0. 0. 0. 0. 21.2547379
      33.7273674 17.1521053 4.43210554 3.50052643 3.57999992 2.35526299
      3.15736842 2.46578956 5.08631563 2.33999991 5.26736832 5.9905262
      2.19473672 7.48473692 0. 0. 0. 0. 0. 0. 0. 0. 0. 0. 0. 0. 0. 0. 0.
      20.9705257 34.0457878 17.0442104 4.52684212 3.56368423 3.55631566
      2.61052632 3.0889473 2.64210534 5.44157887 2.48473692 5.34894753
      6.35631561 2.57631588 7.42684174 0. 0. 0. 0. 0. 0. 0. 0. 0. 0. 0.
      0. 0. 0. 0. 20.9300003 33.6857872 16.9736843 4.5984211 3.55052638
      3.63842106 2.48157883 3.15736842 2.65684223 5.51999998 2.49684215
      5.30526352 6.25263166 2.91842103 7.27736855 0. 0. 0. 0. 0. 0. 0.
      0. 0. 0. 0. 0. 0. 0. 0. 20.3173676 33.439476 16.4536839 4.46631575
      3.40684199 3.48947358 2.31157899 2.96578932 2.6047368 5.1842103
      2.20736837 5.22210503 6.26157904 2.54052639 7.26684237 0. 0. 0. 0.
      0. 0. 0. 0. 0. 0. 0. 0. 0. 0. 0. 20.3436832 33.2457886 16.5747375
      4.49368429 3.50421047 3.5305264 2.41000009 3.01947355 2.54789472
      5.13105297 2.1610527 5.19894743 6.27157879 2.55947351 7.37789488
      0. 0. 0. 0. 0. 0. 0. 0. 0. 0. 0. 0. 0. 0. 0. 20.368948 32.6815796
      16.6773682 4.38789463 3.62368441 3.6452632 2.58999991 3.0936842
      2.63894725 5.4094739 2.41789484 5.2310524 6.60894728 2.88263154
      7.20263147 0. 0. 0. 0. 0. 0. 0. 0. 0. 0. 0. 0. 0. 0. 0. 19.8331585
      33.1473694 16.4473686 4.48578978 3.38894725 3.74000001 2.58999991
      3.05315781 2.94684219 5.93263149 2.2921052 5.47789478 6.81789494
      3.24631572 7.14736843 0. 0. 0. 0. 0. 0. 0. 0. 0. 0. 0. 0. 0. 0. 0.
      20.4352627 33.3826332 16.7726307 4.4578948 3.49684215 3.64421058
      2.50105262 2.87684226 2.81473684 5.48894739 2.33368421 5.55315781
      6.52368402 3.19263148 7.47842121 0. 0. 0. 0. 0. 0. 0. 0. 0. 0. 0.
      0. 0. 0. 0. 20.1599998 33.4199982 17.0300007 4.32000017 3.48000002
      3.5 2.33999991 2.94000006 2.51999998 5.15999985 2.41000009
      5.32999992 6.44999981 2.8900001 7.46000004 0. 0. 0. 0. 0. 0. 0. 0.
      0. 0. 0. 0. 0. 0. 0.</_>
    <_>
      0. 0. 0. 0. 0. 0. 0. 0. 0. 0. 0. 0. 0. 0. 0. 21.8500004 32.5099983
      15.3100004 5.03000021 3.8599999 3.70000005 2.48000002 3.22000003
      2.30999994 5.4000001 2.6500001 5.32000017 6.44999981 2.47000003
      7.80000019 0. 0. 0. 0. 0. 0. 0. 0. 0. 0. 0. 0. 0. 0. 0. 21.5447369
      32.5721054 16.0968418 5.0468421 3.60947371 3.78368425 2.43105268
      3.1078949 2.40210533 5.2921052 2.3789475 5.27421045 6.2547369
      2.62157893 7.5905261 0. 0. 0. 0. 0. 0. 0. 0. 0. 0. 0. 0. 0. 0. 0.
      21.4026318 32.8563156 16.154211 5.01473665 3.57947373 3.74473691
      2.3647368 3.05368423 2.48157907 5.32736874 2.29631567 5.36631584
      5.97894716 2.47157907 7.57894707 0. 0. 0. 0. 0. 0. 0. 0. 0. 0. 0.
      0. 0. 0. 0. 20.7357883 32.7952614 16.3431587 5.05684185 3.36052632
      3.89105272 2.31210518 3.12578964 2.62315798 5.3294735 2.29999995
      5.2031579 5.88789463 2.78947353 7.27157879 0. 0. 0. 0. 0. 0. 0. 0.
      0. 0. 0. 0. 0. 0. 0. 21.5163155 32.9689484 16.4268436 4.70000029
      3.6078949 3.68789482 2.3805263 3.08052635 2.50526309 4.95526314
      2.31473684 5.4015789 5.63421011 2.16263175 7.68736839 0. 0. 0. 0.
      0. 0. 0. 0. 0. 0. 0. 0. 0. 0. 0. 20.9152622 32.904213 15.6005259
      4.84578943 3.76210523 3.82578945 2.25842094 3.20263147 2.54894733
      4.89473677 2.24210525 5.36736822 5.43842077 2.28578949 7.61526299
      0. 0. 0. 0. 0. 0. 0. 0. 0. 0. 0. 0. 0. 0. 0. 20.2915783 32.9000015
      15.7489481 4.76052618 3.59315777 3.68631577 2.21421051 3.09105253
      2.52526307 4.80421066 2.12842107 5.25473642 5.49263144 2.27157903
      7.41052628 0. 0. 0. 0. 0. 0. 0. 0. 0. 0. 0. 0. 0. 0. 0. 20.4810524
      33.117897 16.8989468 4.68631554 3.45263171 3.66052628 2.09421039
      2.89842105 2.52315784 4.52947378 1.93421054 5.18842077 5.29473686
      2.34578967 7.32157898 0. 0. 0. 0. 0. 0. 0. 0. 0. 0. 0. 0. 0. 0. 0.
      20.4810524 32.741581 15.6515789 4.68105268 3.40526319 3.56052637
      2.1915791 2.96157908 2.52315784 4.83473682 2.13684201 5.28842068
      5.63157892 2.33263159 7.56894732 0. 0. 0. 0. 0. 0. 0. 0. 0. 0. 0.
      0. 0. 0. 0. 20.5189476 32.8736839 16.6242104 4.72263145 3.37052631
      3.55315781 2.1047368 2.91421056 2.46210527 4.73157883 2.09421039
      5.20684195 5.65684223 2.52894735 7.40684223 0. 0. 0. 0. 0. 0. 0.
      0. 0. 0. 0. 0. 0. 0. 0. 21.0710526 33.3452606 16.6289482
      4.33210516 3.59157896 3.60526299 2.00631571 2.93578959 2.40947366
      4.60157871 2.23578954 5.1889472 5.49736834 2.50421047 7.42947388
      0. 0. 0. 0. 0. 0. 0. 0. 0. 0. 0. 0. 0. 0. 0. 21.2547379 33.7273674
      17.1521053 4.43210554 3.50052643 3.57999992 2.35526299 3.15736842
      2.46578956 5.08631563 2.33999991 5.26736832 5.9905262 2.19473672
      7.48473692 0. 0. 0. 0. 0. 0. 0. 0. 0. 0. 0. 0. 0. 0. 0. 20.9705257
      34.0457878 17.0442104 4.52684212 3.56368423 3.55631566 2.61052632
      3.0889473 2.64210534 5.44157887 2.48473692 5.34894753 6.35631561
      2.57631588 7.42684174 0. 0. 0. 0. 0. 0. 0. 0. 0. 0. 0. 0. 0. 0. 0.
      20.9300003 33.6857872 16.9736843 4.5984211 3.55052638 3.63842106
      2.48157883 3.15736842 2.65684223 5.51999998 2.49684215 5.30526352
      6.25263166 2.91842103 7.27736855 0. 0. 0. 0. 0. 0. 0. 0. 0. 0. 0.
      0. 0. 0. 0. 20.3173676 33.439476 16.4536839 4.46631575 3.40684199
      3.48947358 2.31157899 2.96578932 2.6047368 5.1842103 2.20736837
      5.22210503 6.26157904 2.54052639 7.26684237 0. 0. 0. 0. 0. 0. 0.
      0. 0. 0. 0. 0. 0. 0. 0. 20.3436832 33.2457886 16.5747375
      4.49368429 3.50421047 3.5305264 2.41000009 3.01947355 2.54789472
      5.13105297 2.1610527 5.19894743 6.27157879 2.55947351 7.37789488
      0. 0. 0. 0. 0. 0. 0. 0. 0. 0. 0. 0. 0. 0. 0. 20.368948 32.6815796
      16.6773682 4.38789463 3.62368441 3.6452632 2.58999991 3.0936842
      2.63894725 5.4094739 2.41789484 5.2310524 6.60894728 2.88263154
      7.20263147 0. 0. 0. 0. 0. 0. 0. 0. 0. 0. 0. 0. 0. 0. 0. 19.8331585
      33.1473694 16.4473686 4.48578978 3.38894725 3.74000001 2.58999991
      3.05315781 2.94684219 5.93263149 2.2921052 5.47789478 6.81789494
      3.24631572 7.14736843 0. 0. 0. 0. 0. 0. 0. 0. 0. 0. 0. 0. 0. 0. 0.
      20.4352627 33.3826332 16.7726307 4.4578948 3.49684215 3.64421058
      2.50105262 2.87684226 2.81473684 5.48894739 2.33368421 5.55315781
      6.52368402 3.19263148 7.47842121 0. 0. 0. 0. 0. 0. 0. 0. 0. 0. 0.
      0. 0. 0. 0. 20.1599998 33.4199982 17.0300007 4.32000017 3.48000002
      3.5 2.33999991 2.94000006 2.51999998 5.15999985 2.41000009
      5.32999992 6.44999981 2.8900001 7.46000004</_>
    <_>
      20.2600002 33.4900017 15.7600002 4.23999977 3.49000001 3.56999993
      2.22000003 3.11999989 2.55999994 4.96999979 2.16000009 5.19000006
      6.25 2.61999989 7.5 0. 0. 0. 0. 0. 0. 0. 0. 0. 0. 0. 0. 0. 0. 0.
      19.7668419 33.7894707 15.087369 4.40052652 3.55421042 3.64368415
      2.10578942 2.97105265 2.66789484 4.89157915 1.99315786 5.19999981
      6.12631607 2.91526318 7.35947371 0. 0. 0. 0. 0. 0. 0. 0. 0. 0. 0.
      0. 0. 0. 0. 19.6510525 33.6199989 15.3189468 4.31631565 3.48894739
      3.71526313 2.26578951 2.92684221 2.64789462 5.04842091 1.97105265
      5.1842103 6.07052612 3.16263151 7.2826314 0. 0. 0. 0. 0. 0. 0. 0.
      0. 0. 0. 0. 0. 0. 0. 19.0589466 33.3278961 15.4626312 4.44263124
      3.38315773 3.70421052 2.26736832 3.01526308 2.8547368 5.22052622
      1.94105268 5.27263165 5.89842081 3.34105277 7.11368418 0. 0. 0. 0.
      0. 0. 0. 0. 0. 0. 0. 0. 0. 0. 0. 19.6689472 33.3705254 14.8268423
      4.35736847 3.29157901 3.67842102 2.75631571 2.97526312 2.85052633
      5.66894722 2.36210513 5.41578913 6.32894707 3.5305264 7.31526327
      0. 0. 0. 0. 0. 0. 0. 0. 0. 0. 0. 0. 0. 0. 0. 19.0373688 33.3168411
      14.9278955 4.78684187 3.39263153 3.79526305 2.6868422 2.99105263
      3.06842113 5.83631563 2.45052648 5.58631563 6.29105282 3.82105255
      7.30894756 0. 0. 0. 0. 0. 0. 0. 0. 0. 0. 0. 0. 0. 0. 0. 19.4205265
      33.3073692 14.3199997 4.61526346 3.49210525 3.83000016 2.59315801
      2.87210536 3.08947372 5.60684204 2.54842091 5.66631556 6.08210516
      3.70421052 7.52631569 0. 0. 0. 0. 0. 0. 0. 0. 0. 0. 0. 0. 0. 0. 0.
      19.9257889 33.2147369 14.5726318 4.46368408 3.46684217 3.90157914
      2.59736824 2.89315796 3.07684207 5.37947369 2.396842 5.67052603
      5.98526287 3.39263177 7.66947365 0. 0. 0. 0. 0. 0. 0. 0. 0. 0. 0.
      0. 0. 0. 0. 19.4010525 33.5968399 14.6573687 4.59157896 3.53789473
      3.85947347 2.66315794 2.94421053 3.11105251 5.69421053 2.37052631
      5.7168417 6.18157911 3.41157889 7.59263134 0. 0. 0. 0. 0. 0. 0. 0.
      0. 0. 0. 0. 0. 0. 0. 19.317894 33.5694733 14.1473684 4.5610528
      3.41315794 3.71842098 2.5421052 2.99842095 3.1678946 5.32368422
      2.18684196 5.67894745 5.87736845 3.28842092 7.57421064 0. 0. 0. 0.
      0. 0. 0. 0. 0. 0. 0. 0. 0. 0. 0. 19.0021057 33.8284225 14.8736839
      4.34000015 3.19210529 3.51631594 2.53578949 2.9226315 3.12368417
      5.10894728 1.94684207 5.59052658 5.75736856 3.06105256 7.56157923
      0. 0. 0. 0. 0. 0. 0. 0. 0. 0. 0. 0. 0. 0. 0. 19.0710526 33.845787
      15.6373682 4.34000015 3.13421059 3.18157911 2.58157897 3.03894734
      2.85315776 4.98736858 2.18736839 5.45157909 5.75894737 2.90842104
      7.40263128 0. 0. 0. 0. 0. 0. 0. 0. 0. 0. 0. 0. 0. 0. 0. 18.9315796
      33.8826332 15.4384212 4.20842123 2.41000009 2.91315794 2.92421055
      3.08631563 2.95842099 5.31157923 2.05894732 5.45368385 6.16789484
      3.27789474 7.3499999 0. 0. 0. 0. 0. 0. 0. 0. 0. 0. 0. 0. 0. 0. 0.
      18.7168427 33.5289459 14.4194736 4.20842075 2.34684205 2.95526314
      2.73473692 3.06947351 2.92473674 5.44631577 2.20210528 5.47052622
      5.97000027 3.30736852 7.19421053 0. 0. 0. 0. 0. 0. 0. 0. 0. 0. 0.
      0. 0. 0. 0. 19.0826321 33.5542107 14.8310528 4.26105261 2.7547369
      3.07210517 2.79631567 3.08210516 2.66315794 5.29736853 2.198421
      5.3063159 5.76421022 2.98789477 7.22736835 0. 0. 0. 0. 0. 0. 0. 0.
      0. 0. 0. 0. 0. 0. 0. 19.3889465 33.487896 15.2952633 4.14736843
      2.70421052 3.06263161 2.89421058 3.2242105 2.83052635 5.44894743
      2.02789474 5.37578964 6.30736876 2.58052635 7.47684193 0. 0. 0. 0.
      0. 0. 0. 0. 0. 0. 0. 0. 0. 0. 0. 19.1952629 33.8278961 14.8326311
      3.87631583 2.57736826 3.00157905 2.78105259 3.14421058 2.75789475
      5.26578951 2.02210522 5.29736853 6.30263138 2.79999995 7.28157902
      0. 0. 0. 0. 0. 0. 0. 0. 0. 0. 0. 0. 0. 0. 0. 18.6205254 33.7821045
      14.6273689 3.85578942 2.63421059 3.08842111 2.77157903 3.08578944
      2.85894728 5.51368427 1.90368414 5.33052635 6.27421045 2.85368419
      7.10947371 0. 0. 0. 0. 0. 0. 0. 0. 0. 0. 0. 0. 0. 0. 0. 18.5563164
      33.7621078 14.6873684 4.22105265 2.63210511 3.22736835 2.93578959
      3.14789486 3.08315778 5.7873683 2.01105261 5.56736851 6.08684206
      3.24210525 7.17157888 0. 0. 0. 0. 0. 0. 0. 0. 0. 0. 0. 0. 0. 0. 0.
      19.0200005 33.5999985 14.5900002 4.01999998 2.63000011 3.02999997
      2.97000003 3. 2.8900001 5.59000015 1.91999996 5.53999996
      6.30000019 3.04999995 7.30999994 0. 0. 0. 0. 0. 0. 0. 0. 0. 0. 0.
      0. 0. 0. 0.</_>
    <_>
      0. 0. 0. 0. 0. 0. 0. 0. 0. 0. 0. 0. 0. 0. 0. 20.2600002 33.4900017
      15.7600002 4.23999977 3.49000001 3.56999993 2.22000003 3.11999989
      2.55999994 4.96999979 2.16000009 5.19000006 6.25 2.61999989 7.5 0.
      0. 0. 0. 0. 0. 0. 0. 0. 0. 0. 0. 0. 0. 0. 19.7668419 33.7894707
      15.087369 4.40052652 3.55421042 3.64368415 2.10578942 2.97105265
      2.66789484 4.89157915 1.99315786 5.19999981 6.12631607 2.91526318
      7.35947371 0. 0. 0. 0. 0. 0. 0. 0. 0. 0. 0. 0. 0. 0. 0. 19.6510525
      33.6199989 15.3189468 4.31631565 3.48894739 3.71526313 2.26578951
      2.92684221 2.64789462 5.04842091 1.97105265 5.1842103 6.07052612
      3.16263151 7.2826314 0. 0. 0. 0. 0. 0. 0. 0. 0. 0. 0. 0. 0. 0. 0.
      19.0589466 33.3278961 15.4626312 4.44263124 3.38315773 3.70421052
      2.26736832 3.01526308 2.8547368 5.22052622 1.94105268 5.27263165
      5.89842081 3.34105277 7.11368418 0. 0. 0. 0. 0. 0. 0. 0. 0. 0. 0.
      0. 0. 0. 0. 19.6689472 33.3705254 14.8268423 4.35736847 3.29157901
      3.67842102 2.75631571 2.97526312 2.85052633 5.66894722 2.36210513
      5.41578913 6.32894707 3.5305264 7.31526327 0. 0. 0. 0. 0. 0. 0. 0.
      0. 0. 0. 0. 0. 0. 0. 19.0373688 33.3168411 14.9278955 4.78684187
      3.39263153 3.79526305 2.6868422 2.99105263 3.06842113 5.83631563
      2.45052648 5.58631563 6.29105282 3.82105255 7.30894756 0. 0. 0. 0.
      0. 0. 0. 0. 0. 0. 0. 0. 0. 0. 0. 19.4205265 33.3073692 14.3199997
      4.61526346 3.49210525 3.83000016 2.59315801 2.87210536 3.08947372
      5.60684204 2.54842091 5.66631556 6.08210516 3.70421052 7.52631569
      0. 0. 0. 0. 0. 0. 0. 0. 0. 0. 0. 0. 0. 0. 0. 19.9257889 33.2147369
      14.5726318 4.46368408 3.46684217 3.90157914 2.59736824 2.89315796
      3.07684207 5.37947369 2.396842 5.67052603 5.98526287 3.39263177
      7.66947365 0. 0. 0. 0. 0. 0. 0. 0. 0. 0. 0. 0. 0. 0. 0. 19.4010525
      33.5968399 14.6573687 4.59157896 3.53789473 3.85947347 2.66315794
      2.94421053 3.11105251 5.69421053 2.37052631 5.7168417 6.18157911
      3.41157889 7.59263134 0. 0. 0. 0. 0. 0. 0. 0. 0. 0. 0. 0. 0. 0. 0.
      19.317894 33.5694733 14.1473684 4.5610528 3.41315794 3.71842098
      2.5421052 2.99842095 3.1678946 5.32368422 2.18684196 5.67894745
      5.87736845 3.28842092 7.57421064 0. 0. 0. 0. 0. 0. 0. 0. 0. 0. 0.
      0. 0. 0. 0. 19.0021057 33.8284225 14.8736839 4.34000015 3.19210529
      3.51631594 2.53578949 2.9226315 3.12368417 5.10894728 1.94684207
      5.59052658 5.75736856 3.06105256 7.56157923 0. 0. 0. 0. 0. 0. 0.
      0. 0. 0. 0. 0. 0. 0. 0. 19.0710526 33.845787 15.6373682 4.34000015
      3.13421059 3.18157911 2.58157897 3.03894734 2.85315776 4.98736858
      2.18736839 5.45157909 5.75894737 2.90842104 7.40263128 0. 0. 0. 0.
      0. 0. 0. 0. 0. 0. 0. 0. 0. 0. 0. 18.9315796 33.8826332 15.4384212
      4.20842123 2.41000009 2.91315794 2.92421055 3.08631563 2.95842099
      5.31157923 2.05894732 5.45368385 6.16789484 3.27789474 7.3499999
      0. 0. 0. 0. 0. 0. 0. 0. 0. 0. 0. 0. 0. 0. 0. 18.7168427 33.5289459
      14.4194736 4.20842075 2.34684205 2.95526314 2.73473692 3.06947351
      2.92473674 5.44631577 2.20210528 5.47052622 5.97000027 3.30736852
      7.19421053 0. 0. 0. 0. 0. 0. 0. 0. 0. 0. 0. 0. 0. 0. 0. 19.0826321
      33.5542107 14.8310528 4.26105261 2.7547369 3.07210517 2.79631567
      3.08210516 2.66315794 5.29736853 2.198421 5.3063159 5.76421022
      2.98789477 7.22736835 0. 0. 0. 0. 0. 0. 0. 0. 0. 0. 0. 0. 0. 0. 0.
      19.3889465 33.487896 15.2952633 4.14736843 2.70421052 3.06263161
      2.89421058 3.2242105 2.83052635 5.44894743 2.02789474 5.37578964
      6.30736876 2.58052635 7.47684193 0. 0. 0. 0. 0. 0. 0. 0. 0. 0. 0.
      0. 0. 0. 0. 19.1952629 33.8278961 14.8326311 3.87631583 2.57736826
      3.00157905 2.78105259 3.14421058 2.75789475 5.26578951 2.02210522
      5.29736853 6.30263138 2.79999995 7.28157902 0. 0. 0. 0. 0. 0. 0.
      0. 0. 0. 0. 0. 0. 0. 0. 18.6205254 33.7821045 14.6273689
      3.85578942 2.63421059 3.08842111 2.77157903 3.08578944 2.85894728
      5.51368427 1.90368414 5.33052635 6.27421045 2.85368419 7.10947371
      0. 0. 0. 0. 0. 0. 0. 0. 0. 0. 0. 0. 0. 0. 0. 18.5563164 33.7621078
      14.6873684 4.22105265 2.63210511 3.22736835 2.93578959 3.14789486
      3.08315778 5.7873683 2.01105261 5.56736851 6.08684206 3.24210525
      7.17157888 0. 0. 0. 0. 0. 0. 0. 0. 0. 0. 0. 0. 0. 0. 0. 19.0200005
      33.5999985 14.5900002 4.01999998 2.63000011 3.02999997 2.97000003
      3. 2.8900001 5.59000015 1.91999996 5.53999996 6.30000019
      3.04999995 7.30999994</_>
    <_>
      13.5 26.7700005 19.6900005 5.38999987 2.53999996 4.38000011
      11.3000002 3.31999993 5.86999989 12.71 1.28999996 7.53999996
      18.5699997 2.58999991 7.94999981 0. 0. 0. 0. 0. 0. 0. 0. 0. 0. 0.
      0. 0. 0. 0. 13.3542109 25.9699993 19.2878952 5.52210522 2.74210525
      4.41736841 11.3736839 3.36210513 5.845263 12.7247372 1.27684212
      7.41052628 18.6342106 2.72684216 7.96052599 0. 0. 0. 0. 0. 0. 0.
      0. 0. 0. 0. 0. 0. 0. 0. 13.3542099 25.6768417 19.2526321
      5.38315773 2.84052634 4.42526293 11.2931576 3.45421052 5.83315802
      12.634737 1.2031579 7.28894711 18.6405258 2.75157905 7.8389473 0.
      0. 0. 0. 0. 0. 0. 0. 0. 0. 0. 0. 0. 0. 0. 14.0847368 25.2405262
      19.4494724 5.23631573 2.86999989 4.28473711 11.2352629 3.31894732
      5.86052656 13.012105 1.15473688 7.27736855 19.4031582 3.10157895
      8.04526329 0. 0. 0. 0. 0. 0. 0. 0. 0. 0. 0. 0. 0. 0. 0. 14.2931576
      26.4621048 18.9031582 4.75157881 2.7242105 4.00105286 11.2089472
      3.33052635 5.72736835 12.6210527 0.995263159 7.48210526 18.6526318
      2.93789482 8.15315723 0. 0. 0. 0. 0. 0. 0. 0. 0. 0. 0. 0. 0. 0. 0.
      13.9952631 26.2142105 19.3315792 4.51842117 2.81894755 3.98947358
      11.2947369 3.23157907 5.53368425 12.7194738 1.16736841 7.33263159
      18.5663166 2.61736846 8.11947346 0. 0. 0. 0. 0. 0. 0. 0. 0. 0. 0.
      0. 0. 0. 0. 14.1242104 25.9873676 18.9968414 4.50052595 2.74105263
      3.98631573 10.9705267 3.14157915 5.65210533 12.4921055 1.11736846
      7.42789459 18.4300003 2.91736841 8.23263168 0. 0. 0. 0. 0. 0. 0.
      0. 0. 0. 0. 0. 0. 0. 0. 14.7226315 25.2842102 19.9152622 4.6268425
      2.87526321 3.95526314 11.0489473 3.19052649 5.57736874 12.7478943
      1.14947367 7.17999983 18.5099983 3.18263149 8.48157883 0. 0. 0. 0.
      0. 0. 0. 0. 0. 0. 0. 0. 0. 0. 0. 14.4515791 25.5052624 19.4099998
      4.58210516 2.72789478 3.9368422 10.809474 3.24052644 5.59315825
      12.3321056 0.996842086 7.19052601 18.1178951 2.85368419 8.32631588
      0. 0. 0. 0. 0. 0. 0. 0. 0. 0. 0. 0. 0. 0. 0. 15.0078945 25.1247368
      19.722105 4.49315786 2.89789486 4.05421066 10.968421 3.37631583
      5.62473679 12.496316 0.928947389 7.25894737 18.4478951 2.81052637
      8.49315834 0. 0. 0. 0. 0. 0. 0. 0. 0. 0. 0. 0. 0. 0. 0. 13.9831581
      25.7321053 19.6131573 4.82684183 2.83263159 3.90368438 10.8178949
      3.31999993 5.71526337 12.3368425 1.03105259 7.3389473 18.2447357
      2.56263161 8.4810524 0. 0. 0. 0. 0. 0. 0. 0. 0. 0. 0. 0. 0. 0. 0.
      14.2831583 25.924736 19.5931568 5.01842117 2.9000001 4.05368423
      10.7947369 3.3389473 5.58684206 12.305789 0.934736848 7.16263151
      18.3589478 2.65842104 8.42736816 0. 0. 0. 0. 0. 0. 0. 0. 0. 0. 0.
      0. 0. 0. 0. 14.6489477 25.4826317 19.5010529 4.90263176 2.8131578
      3.89052629 10.73421 3.41526318 5.61052608 12.0926313 0.837368429
      7.21789455 18.2563152 2.63473678 8.40894794 0. 0. 0. 0. 0. 0. 0.
      0. 0. 0. 0. 0. 0. 0. 0. 13.9184217 25.3484211 19.7031574 5.1747365
      2.82684207 3.96210527 10.8142109 3.39736843 5.88105249 12.0373688
      1.10263157 7.31684208 18.019474 2.64947367 8.50736809 0. 0. 0. 0.
      0. 0. 0. 0. 0. 0. 0. 0. 0. 0. 0. 14.2947369 25.5257893 19.6157894
      4.97684193 2.85052633 3.81263161 10.6447372 3.45157909 5.73684216
      12.2078953 0.928947389 7.23526287 18.2642097 2.64263153 8.35210514
      0. 0. 0. 0. 0. 0. 0. 0. 0. 0. 0. 0. 0. 0. 0. 14.1557894 26.1636848
      19.3126316 4.96315765 2.82421041 3.67421055 10.6089468 3.54315782
      5.81157875 12.1700001 1.12052631 7.29263163 18.0626316 2.65842104
      8.46842098 0. 0. 0. 0. 0. 0. 0. 0. 0. 0. 0. 0. 0. 0. 0. 14.8705263
      25.9989471 19.6947365 4.57684183 3.01052618 3.82421041 10.7442102
      3.54473686 5.35842133 12.1463156 1.11210525 6.99000025 18.0331573
      2.78526306 8.23157883 0. 0. 0. 0. 0. 0. 0. 0. 0. 0. 0. 0. 0. 0. 0.
      14.4105263 25.7189465 19.3026314 5.04842091 2.83999991 3.76421046
      10.6694736 3.59315801 5.66789484 11.8747368 0.999473691 7.22157907
      17.7378941 2.32578945 8.4110527 0. 0. 0. 0. 0. 0. 0. 0. 0. 0. 0.
      0. 0. 0. 0. 14.2036839 25.8400002 19.143158 4.79526281 2.80578947
      3.7921052 10.6584215 3.52999997 5.79421043 12.1673689 1.20052624
      7.32368422 17.9505253 2.37736845 8.46473694 0. 0. 0. 0. 0. 0. 0.
      0. 0. 0. 0. 0. 0. 0. 0. 14.3299999 24.8799992 19.5 4.17000008
      2.8499999 4.01999998 10.1899996 3.33999991 5.6500001 11.9099998
      1.17999995 7.05000019 18.0499992 2.75 8.14999962 0. 0. 0. 0. 0. 0.
      0. 0. 0. 0. 0. 0. 0. 0. 0.</_>
    <_>
      0. 0. 0. 0. 0. 0. 0. 0. 0. 0. 0. 0. 0. 0. 0. 13.5 26.7700005
      19.6900005 5.38999987 2.53999996 4.38000011 11.3000002 3.31999993
      5.86999989 12.71 1.28999996 7.53999996 18.5699997 2.58999991
      7.94999981 0. 0. 0. 0. 0. 0. 0. 0. 0. 0. 0. 0. 0. 0. 0. 13.3542109
      25.9699993 19.2878952 5.52210522 2.74210525 4.41736841 11.3736839
      3.36210513 5.845263 12.7247372 1.27684212 7.41052628 18.6342106
      2.72684216 7.96052599 0. 0. 0. 0. 0. 0. 0. 0. 0. 0. 0. 0. 0. 0. 0.
      13.3542099 25.6768417 19.2526321 5.38315773 2.84052634 4.42526293
      11.2931576 3.45421052 5.83315802 12.634737 1.2031579 7.28894711
      18.6405258 2.75157905 7.8389473 0. 0. 0. 0. 0. 0. 0. 0. 0. 0. 0.
      0. 0. 0. 0. 14.0847368 25.2405262 19.4494724 5.23631573 2.86999989
      4.28473711 11.2352629 3.31894732 5.86052656 13.012105 1.15473688
      7.27736855 19.4031582 3.10157895 8.04526329 0. 0. 0. 0. 0. 0. 0.
      0. 0. 0. 0. 0. 0. 0. 0. 14.2931576 26.4621048 18.9031582
      4.75157881 2.7242105 4.00105286 11.2089472 3.33052635 5.72736835
      12.6210527 0.995263159 7.48210526 18.6526318 2.93789482 8.15315723
      0. 0. 0. 0. 0. 0. 0. 0. 0. 0. 0. 0. 0. 0. 0. 13.9952631 26.2142105
      19.3315792 4.51842117 2.81894755 3.98947358 11.2947369 3.23157907
      5.53368425 12.7194738 1.16736841 7.33263159 18.5663166 2.61736846
      8.11947346 0. 0. 0. 0. 0. 0. 0. 0. 0. 0. 0. 0. 0. 0. 0. 14.1242104
      25.9873676 18.9968414 4.50052595 2.74105263 3.98631573 10.9705267
      3.14157915 5.65210533 12.4921055 1.11736846 7.42789459 18.4300003
      2.91736841 8.23263168 0. 0. 0. 0. 0. 0. 0. 0. 0. 0. 0. 0. 0. 0. 0.
      14.7226315 25.2842102 19.9152622 4.6268425 2.87526321 3.95526314
      11.0489473 3.19052649 5.57736874 12.7478943 1.14947367 7.17999983
      18.5099983 3.18263149 8.48157883 0. 0. 0. 0. 0. 0. 0. 0. 0. 0. 0.
      0. 0. 0. 0. 14.4515791 25.5052624 19.4099998 4.58210516 2.72789478
      3.9368422 10.809474 3.24052644 5.59315825 12.3321056 0.996842086
      7.19052601 18.1178951 2.85368419 8.32631588 0. 0. 0. 0. 0. 0. 0.
      0. 0. 0. 0. 0. 0. 0. 0. 15.0078945 25.1247368 19.722105 4.49315786
      2.89789486 4.05421066 10.968421 3.37631583 5.62473679 12.496316
      0.928947389 7.25894737 18.4478951 2.81052637 8.49315834 0. 0. 0.
      0. 0. 0. 0. 0. 0. 0. 0. 0. 0. 0. 0. 13.9831581 25.7321053
      19.6131573 4.82684183 2.83263159 3.90368438 10.8178949 3.31999993
      5.71526337 12.3368425 1.03105259 7.3389473 18.2447357 2.56263161
      8.4810524 0. 0. 0. 0. 0. 0. 0. 0. 0. 0. 0. 0. 0. 0. 0. 14.2831583
      25.924736 19.5931568 5.01842117 2.9000001 4.05368423 10.7947369
      3.3389473 5.58684206 12.305789 0.934736848 7.16263151 18.3589478
      2.65842104 8.42736816 0. 0. 0. 0. 0. 0. 0. 0. 0. 0. 0. 0. 0. 0. 0.
      14.6489477 25.4826317 19.5010529 4.90263176 2.8131578 3.89052629
      10.73421 3.41526318 5.61052608 12.0926313 0.837368429 7.21789455
      18.2563152 2.63473678 8.40894794 0. 0. 0. 0. 0. 0. 0. 0. 0. 0. 0.
      0. 0. 0. 0. 13.9184217 25.3484211 19.7031574 5.1747365 2.82684207
      3.96210527 10.8142109 3.39736843 5.88105249 12.0373688 1.10263157
      7.31684208 18.019474 2.64947367 8.50736809 0. 0. 0. 0. 0. 0. 0. 0.
      0. 0. 0. 0. 0. 0. 0. 14.2947369 25.5257893 19.6157894 4.97684193
      2.85052633 3.81263161 10.6447372 3.45157909 5.73684216 12.2078953
      0.928947389 7.23526287 18.2642097 2.64263153 8.35210514 0. 0. 0.
      0. 0. 0. 0. 0. 0. 0. 0. 0. 0. 0. 0. 14.1557894 26.1636848
      19.3126316 4.96315765 2.82421041 3.67421055 10.6089468 3.54315782
      5.81157875 12.1700001 1.12052631 7.29263163 18.0626316 2.65842104
      8.46842098 0. 0. 0. 0. 0. 0. 0. 0. 0. 0. 0. 0. 0. 0. 0. 14.8705263
      25.9989471 19.6947365 4.57684183 3.01052618 3.82421041 10.7442102
      3.54473686 5.35842133 12.1463156 1.11210525 6.99000025 18.0331573
      2.78526306 8.23157883 0. 0. 0. 0. 0. 0. 0. 0. 0. 0. 0. 0. 0. 0. 0.
      14.4105263 25.7189465 19.3026314 5.04842091 2.83999991 3.76421046
      10.6694736 3.59315801 5.66789484 11.8747368 0.999473691 7.22157907
      17.7378941 2.32578945 8.4110527 0. 0. 0. 0. 0. 0. 0. 0. 0. 0. 0.
      0. 0. 0. 0. 14.2036839 25.8400002 19.143158 4.79526281 2.80578947
      3.7921052 10.6584215 3.52999997 5.79421043 12.1673689 1.20052624
      7.32368422 17.9505253 2.37736845 8.46473694 0. 0. 0. 0. 0. 0. 0.
      0. 0. 0. 0. 0. 0. 0. 0. 14.3299999 24.8799992 19.5 4.17000008
      2.8499999 4.01999998 10.1899996 3.33999991 5.6500001 11.9099998
      1.17999995 7.05000019 18.0499992 2.75 8.14999962</_>
    <_>
      24.4699993 24.1499996 20.7700005 7.48999977 2.21000004 2.50999999
      5.48000002 4.01000023 1.62 7.30000019 3.86999989 4.80999994
      10.2799997 1.71000004 5.32999992 0. 0. 0. 0. 0. 0. 0. 0. 0. 0. 0.
      0. 0. 0. 0. 24.8157902 23.6857891 20.9968414 7.54105282 2.40052629
      2.77684212 5.59473658 3.82526302 1.67999995 7.14315796 3.66263175
      4.79578924 10.5299997 1.34105265 5.36947346 0. 0. 0. 0. 0. 0. 0.
      0. 0. 0. 0. 0. 0. 0. 0. 24.4726315 23.6689472 21.2189484 7.5999999
      2.24789476 2.55263162 5.68421078 3.97684193 1.56105268 7.23894739
      3.72789478 4.76315784 10.5636845 1.51157892 5.16315794 0. 0. 0. 0.
      0. 0. 0. 0. 0. 0. 0. 0. 0. 0. 0. 25.4657898 23.3926315 20.110527
      8.17631531 2.10736847 2.53368425 5.70000029 3.90263152 1.73000002
      7.3952632 3.93789482 4.96210527 10.587369 1.46263158 5.35894728 0.
      0. 0. 0. 0. 0. 0. 0. 0. 0. 0. 0. 0. 0. 0. 25.1447372 23.3147373
      19.3289471 7.90684175 2.18105268 2.48210526 5.78473711 4.08526325
      1.76842105 7.404737 3.81999993 4.91789436 10.5189476 2.00368428
      5.28526354 0. 0. 0. 0. 0. 0. 0. 0. 0. 0. 0. 0. 0. 0. 0. 25.0026302
      23.1663151 19.4173698 7.91631603 2.2031579 2.33368421 5.96473694
      4.04736853 1.68947375 7.60052633 3.86736846 5.01894712 10.6168423
      2.03210521 5.36105299 0. 0. 0. 0. 0. 0. 0. 0. 0. 0. 0. 0. 0. 0. 0.
      24.9636841 22.7084198 19.7931576 8.04263115 2.20421052 2.27368426
      6.19894743 4.2078948 1.58000004 7.99052668 3.91789484 4.92999983
      11.1478949 2.10052633 5.22157907 0. 0. 0. 0. 0. 0. 0. 0. 0. 0. 0.
      0. 0. 0. 0. 24.6057892 22.6368427 19.6499996 8.07210541 2.10736847
      2.29052639 6.18631554 4.11526346 1.68105268 7.99894762 3.88000011
      5.0142107 11.1478949 1.95736837 5.17526293 0. 0. 0. 0. 0. 0. 0. 0.
      0. 0. 0. 0. 0. 0. 0. 24.72579 22.6910515 20.202631 7.99421024
      2.1500001 2.36894727 6.01368427 3.93894744 1.66894734 7.89578962
      3.82105255 4.98368406 10.9115791 2.01473689 5.13999987 0. 0. 0. 0.
      0. 0. 0. 0. 0. 0. 0. 0. 0. 0. 0. 24.5457897 22.5521049 19.6489468
      8.03368378 2.14263177 2.48578954 6.08578968 4.12578964 1.73000002
      8.08157921 3.85947371 5.04052639 11.0768423 2.11421061 5.19526291
      0. 0. 0. 0. 0. 0. 0. 0. 0. 0. 0. 0. 0. 0. 0. 24.4131584 22.7352638
      19.7310524 8.06526279 2.0352633 2.35947371 5.92789507 4.13210535
      1.83736849 7.99315786 3.85947371 5.2173686 10.7294741 2.00052643
      5.25842094 0. 0. 0. 0. 0. 0. 0. 0. 0. 0. 0. 0. 0. 0. 0. 24.5336838
      22.4978943 20.2968426 8.05315781 2.06052637 2.47315788 6.02315807
      4.06526327 1.75842106 8.14052677 3.76736832 5.11157894 11.1131582
      2.03157902 5.20421028 0. 0. 0. 0. 0. 0. 0. 0. 0. 0. 0. 0. 0. 0. 0.
      24.9726315 22.8336849 19.0915794 8.01000023 2.05368423 2.41631579
      5.88999987 3.948421 1.87842107 7.98105288 3.77210522 5.0857892
      11.2563162 1.79052639 5.27473688 0. 0. 0. 0. 0. 0. 0. 0. 0. 0. 0.
      0. 0. 0. 0. 24.9389458 22.9263153 18.9905262 8.01842117 2.35263157
      2.64368415 6.12578917 4.0747366 1.64684212 7.93473721 4.02473688
      4.94684219 10.8815794 1.43684208 5.29157925 0. 0. 0. 0. 0. 0. 0.
      0. 0. 0. 0. 0. 0. 0. 0. 24.912632 22.956316 18.9710522 8.0984211
      2.301579 2.6421051 6.21052599 4.09473658 1.68999994 7.948421
      3.93526316 4.99000025 10.8489475 1.52736843 5.29368448 0. 0. 0. 0.
      0. 0. 0. 0. 0. 0. 0. 0. 0. 0. 0. 24.7452641 23.0889473 19.2236843
      8.02579021 2.29842091 2.61999989 5.87263155 4.08210516 1.8542105
      7.948421 3.89105272 5.03105307 10.8805265 1.68842113 5.23368406 0.
      0. 0. 0. 0. 0. 0. 0. 0. 0. 0. 0. 0. 0. 0. 25.5799999 22.8389473
      18.9357891 8.12736893 2.34210515 2.5726316 6.13684177 3.96210527
      1.72210526 8.03578949 3.87578964 5.05789471 10.8510523 1.78578949
      5.34789467 0. 0. 0. 0. 0. 0. 0. 0. 0. 0. 0. 0. 0. 0. 0. 25.0794735
      23.0268421 19.3905258 7.97736835 2.40210533 2.59631562 6.01842117
      3.86736846 1.67315793 7.98210573 3.71473694 4.99789476 10.8605261
      1.85526311 5.35894728 0. 0. 0. 0. 0. 0. 0. 0. 0. 0. 0. 0. 0. 0. 0.
      25.2784214 23.1005249 19.1389465 8.06684208 2.34947371 2.50368428
      6.24578953 3.93473697 1.57315791 8.10947418 3.80105257 4.99894714
      11.1857901 1.81000006 5.44631577 0. 0. 0. 0. 0. 0. 0. 0. 0. 0. 0.
      0. 0. 0. 0. 25.0300007 22.3600006 19.0300007 8.10999966 2.17000008
      2.42000008 6.15999985 3.96000004 1.65999997 8.14000034 3.91000009
      5.11999989 11.2200003 1.88 5.44999981 0. 0. 0. 0. 0. 0. 0. 0. 0.
      0. 0. 0. 0. 0. 0.</_>
    <_>
      0. 0. 0. 0. 0. 0. 0. 0. 0. 0. 0. 0. 0. 0. 0. 24.4699993 24.1499996
      20.7700005 7.48999977 2.21000004 2.50999999 5.48000002 4.01000023
      1.62 7.30000019 3.86999989 4.80999994 10.2799997 1.71000004
      5.32999992 0. 0. 0. 0. 0. 0. 0. 0. 0. 0. 0. 0. 0. 0. 0. 24.8157902
      23.6857891 20.9968414 7.54105282 2.40052629 2.77684212 5.59473658
      3.82526302 1.67999995 7.14315796 3.66263175 4.79578924 10.5299997
      1.34105265 5.36947346 0. 0. 0. 0. 0. 0. 0. 0. 0. 0. 0. 0. 0. 0. 0.
      24.4726315 23.6689472 21.2189484 7.5999999 2.24789476 2.55263162
      5.68421078 3.97684193 1.56105268 7.23894739 3.72789478 4.76315784
      10.5636845 1.51157892 5.16315794 0. 0. 0. 0. 0. 0. 0. 0. 0. 0. 0.
      0. 0. 0. 0. 25.4657898 23.3926315 20.110527 8.17631531 2.10736847
      2.53368425 5.70000029 3.90263152 1.73000002 7.3952632 3.93789482
      4.96210527 10.587369 1.46263158 5.35894728 0. 0. 0. 0. 0. 0. 0. 0.
      0. 0. 0. 0. 0. 0. 0. 25.1447372 23.3147373 19.3289471 7.90684175
      2.18105268 2.48210526 5.78473711 4.08526325 1.76842105 7.404737
      3.81999993 4.91789436 10.5189476 2.00368428 5.28526354 0. 0. 0. 0.
      0. 0. 0. 0. 0. 0. 0. 0. 0. 0. 0. 25.0026302 23.1663151 19.4173698
      7.91631603 2.2031579 2.33368421 5.96473694 4.04736853 1.68947375
      7.60052633 3.86736846 5.01894712 10.6168423 2.03210521 5.36105299
      0. 0. 0. 0. 0. 0. 0. 0. 0. 0. 0. 0. 0. 0. 0. 24.9636841 22.7084198
      19.7931576 8.04263115 2.20421052 2.27368426 6.19894743 4.2078948
      1.58000004 7.99052668 3.91789484 4.92999983 11.1478949 2.10052633
      5.22157907 0. 0. 0. 0. 0. 0. 0. 0. 0. 0. 0. 0. 0. 0. 0. 24.6057892
      22.6368427 19.6499996 8.07210541 2.10736847 2.29052639 6.18631554
      4.11526346 1.68105268 7.99894762 3.88000011 5.0142107 11.1478949
      1.95736837 5.17526293 0. 0. 0. 0. 0. 0. 0. 0. 0. 0. 0. 0. 0. 0. 0.
      24.72579 22.6910515 20.202631 7.99421024 2.1500001 2.36894727
      6.01368427 3.93894744 1.66894734 7.89578962 3.82105255 4.98368406
      10.9115791 2.01473689 5.13999987 0. 0. 0. 0. 0. 0. 0. 0. 0. 0. 0.
      0. 0. 0. 0. 24.5457897 22.5521049 19.6489468 8.03368378 2.14263177
      2.48578954 6.08578968 4.12578964 1.73000002 8.08157921 3.85947371
      5.04052639 11.0768423 2.11421061 5.19526291 0. 0. 0. 0. 0. 0. 0.
      0. 0. 0. 0. 0. 0. 0. 0. 24.4131584 22.7352638 19.7310524
      8.06526279 2.0352633 2.35947371 5.92789507 4.13210535 1.83736849
      7.99315786 3.85947371 5.2173686 10.7294741 2.00052643 5.25842094
      0. 0. 0. 0. 0. 0. 0. 0. 0. 0. 0. 0. 0. 0. 0. 24.5336838 22.4978943
      20.2968426 8.05315781 2.06052637 2.47315788 6.02315807 4.06526327
      1.75842106 8.14052677 3.76736832 5.11157894 11.1131582 2.03157902
      5.20421028 0. 0. 0. 0. 0. 0. 0. 0. 0. 0. 0. 0. 0. 0. 0. 24.9726315
      22.8336849 19.0915794 8.01000023 2.05368423 2.41631579 5.88999987
      3.948421 1.87842107 7.98105288 3.77210522 5.0857892 11.2563162
      1.79052639 5.27473688 0. 0. 0. 0. 0. 0. 0. 0. 0. 0. 0. 0. 0. 0. 0.
      24.9389458 22.9263153 18.9905262 8.01842117 2.35263157 2.64368415
      6.12578917 4.0747366 1.64684212 7.93473721 4.02473688 4.94684219
      10.8815794 1.43684208 5.29157925 0. 0. 0. 0. 0. 0. 0. 0. 0. 0. 0.
      0. 0. 0. 0. 24.912632 22.956316 18.9710522 8.0984211 2.301579
      2.6421051 6.21052599 4.09473658 1.68999994 7.948421 3.93526316
      4.99000025 10.8489475 1.52736843 5.29368448 0. 0. 0. 0. 0. 0. 0.
      0. 0. 0. 0. 0. 0. 0. 0. 24.7452641 23.0889473 19.2236843
      8.02579021 2.29842091 2.61999989 5.87263155 4.08210516 1.8542105
      7.948421 3.89105272 5.03105307 10.8805265 1.68842113 5.23368406 0.
      0. 0. 0. 0. 0. 0. 0. 0. 0. 0. 0. 0. 0. 0. 25.5799999 22.8389473
      18.9357891 8.12736893 2.34210515 2.5726316 6.13684177 3.96210527
      1.72210526 8.03578949 3.87578964 5.05789471 10.8510523 1.78578949
      5.34789467 0. 0. 0. 0. 0. 0. 0. 0. 0. 0. 0. 0. 0. 0. 0. 25.0794735
      23.0268421 19.3905258 7.97736835 2.40210533 2.59631562 6.01842117
      3.86736846 1.67315793 7.98210573 3.71473694 4.99789476 10.8605261
      1.85526311 5.35894728 0. 0. 0. 0. 0. 0. 0. 0. 0. 0. 0. 0. 0. 0. 0.
      25.2784214 23.1005249 19.1389465 8.06684208 2.34947371 2.50368428
      6.24578953 3.93473697 1.57315791 8.10947418 3.80105257 4.99894714
      11.1857901 1.81000006 5.44631577 0. 0. 0. 0. 0. 0. 0. 0. 0. 0. 0.
      0. 0. 0. 0. 25.0300007 22.3600006 19.0300007 8.10999966 2.17000008
      2.42000008 6.15999985 3.96000004 1.65999997 8.14000034 3.91000009
      5.11999989 11.2200003 1.88 5.44999981</_>
    <_>
      25.9300003 16.6399994 2.94000006 12.9300003 6.78999996 1.49000001
      6.32000017 12.9099998 1.61000001 6.4000001 14.0799999 3.
      6.76999998 7.36999989 3.8900001 0. 0. 0. 0. 0. 0. 0. 0. 0. 0. 0.
      0. 0. 0. 0. 24.4678936 16.4457893 3.46736836 13.2457895 6.94052649
      1.8121053 6.60947371 13.3957891 1.75105262 6.52157927 14.8947372
      2.8063159 6.76526308 8.18842125 3.85157895 0. 0. 0. 0. 0. 0. 0. 0.
      0. 0. 0. 0. 0. 0. 0. 24.1521053 16.6684208 3.75631571 13.5042105
      7.56842089 1.70736849 6.94578934 13.9984207 1.71157897 6.76368427
      15.0094728 3.01684213 6.96368408 8.32000065 4.103158 0. 0. 0. 0.
      0. 0. 0. 0. 0. 0. 0. 0. 0. 0. 0. 24.2068424 16.3384209 4.10736847
      13.4578943 7.63315773 1.74105263 6.89894724 14.2547369 1.68157887
      6.36578941 15.487895 2.77473688 6.3921051 8.29736805 3.79473686 0.
      0. 0. 0. 0. 0. 0. 0. 0. 0. 0. 0. 0. 0. 0. 24.3405266 16.2842102
      3.74157906 13.4573689 7.61631584 1.53526318 6.87105227 13.9342108
      1.64157891 6.24789476 15.2631578 3.11789489 6.11105299 8.04736805
      4.15842104 0. 0. 0. 0. 0. 0. 0. 0. 0. 0. 0. 0. 0. 0. 0. 24.0578957
      16.1436844 3.94789481 13.313158 7.53842115 1.5410527 6.76157856
      14.2284212 1.57578945 6.68315792 15.5657892 2.93000007 6.62947369
      8.22842121 3.76315784 0. 0. 0. 0. 0. 0. 0. 0. 0. 0. 0. 0. 0. 0. 0.
      23.6273689 16.2452641 4.34105253 13.3310528 7.7126317 1.29473686
      7.02526331 14.1389475 1.23315787 6.53631592 14.8584213 2.82052612
      6.33578968 7.84105253 3.75947356 0. 0. 0. 0. 0. 0. 0. 0. 0. 0. 0.
      0. 0. 0. 0. 23.8921051 17.0078945 6.39052629 13.4994736 7.6173687
      1.28578949 7.03842115 14.2115793 1.55368423 6.70842123 14.7752628
      2.84263158 6.67473698 7.95368433 3.8484211 0. 0. 0. 0. 0. 0. 0. 0.
      0. 0. 0. 0. 0. 0. 0. 22.6705265 16.9836845 9.12578964 13.7084208
      7.59526348 1.33631575 7.08157921 14.2784204 1.32842112 6.62105274
      14.9263163 2.73315787 6.76052618 7.98842096 3.94105268 0. 0. 0. 0.
      0. 0. 0. 0. 0. 0. 0. 0. 0. 0. 0. 22.9099998 17.1000004 8.99210548
      13.7152634 7.7315793 1.34789467 7.14789486 14.452631 1.44105268
      6.87421036 15.0115786 2.84421062 6.87105274 8.20947361 4.02736855
      0. 0. 0. 0. 0. 0. 0. 0. 0. 0. 0. 0. 0. 0. 0. 22.6073685 17.1568432
      9.62526321 13.9257898 7.83578968 1.42421055 7.43894768 14.762105
      1.41947365 7.27052641 15.4742107 2.79421043 7.66052628 8.81473732
      4.09894753 0. 0. 0. 0. 0. 0. 0. 0. 0. 0. 0. 0. 0. 0. 0. 22.8247356
      17.1989479 9.80157948 13.8636837 7.7736845 1.6147368 7.14947367
      14.9394732 1.63263154 7.32999992 15.8289471 2.61789465 7.79894733
      9.08842087 3.86842108 0. 0. 0. 0. 0. 0. 0. 0. 0. 0. 0. 0. 0. 0. 0.
      22.5210533 16.9878941 10.1163158 13.8710527 7.70052624 1.48473692
      6.93473673 14.6694736 1.43315792 6.86210537 15.3026314 2.68105268
      7.27947378 8.64473724 4.00684214 0. 0. 0. 0. 0. 0. 0. 0. 0. 0. 0.
      0. 0. 0. 0. 23.118948 17.4752636 10.5942097 14.4147367 8.23947334
      1.24947369 7.85578918 15.2757893 1.51947367 7.7642107 15.7810526
      3.52315807 8.1421051 8.82578945 4.37894726 0. 0. 0. 0. 0. 0. 0. 0.
      0. 0. 0. 0. 0. 0. 0. 22.8242111 17.0815792 10.5152636 14.1321058
      7.81263161 1.26578951 7.31842089 14.7084208 1.55421054 7.29789448
      15.2547369 2.97157884 7.81421041 8.79368401 4.02684212 0. 0. 0. 0.
      0. 0. 0. 0. 0. 0. 0. 0. 0. 0. 0. 23.3978939 17.2542114 11.6368427
      13.8642111 7.93789482 1.49789476 6.85631561 15.2984209 1.49578953
      7.23157883 16.1194744 2.73631597 7.75052595 9.57315731 4.0936842
      0. 0. 0. 0. 0. 0. 0. 0. 0. 0. 0. 0. 0. 0. 0. 23.0178947 17.2773685
      11.162632 13.9194736 7.97421074 1.43736839 7.08368397 15.3189478
      1.55842102 7.41263151 15.996316 2.81526303 7.77736807 9.33684158
      4.11789465 0. 0. 0. 0. 0. 0. 0. 0. 0. 0. 0. 0. 0. 0. 0. 23.0563164
      16.9868412 11.2921047 14.3310528 8.07263184 1.29315782 7.3342104
      15.3221054 1.39368415 7.38421059 15.6789474 2.70947361 7.71052599
      9.00368404 3.82684207 0. 0. 0. 0. 0. 0. 0. 0. 0. 0. 0. 0. 0. 0. 0.
      22.924736 17.0905266 11.3742104 13.8831577 7.78894711 1.4426316
      6.94789505 15.1594734 1.43368423 7.10157919 15.6321049 2.5889473
      7.70000029 9.03894711 3.88684225 0. 0. 0. 0. 0. 0. 0. 0. 0. 0. 0.
      0. 0. 0. 0. 22.4300003 17.1499996 11.1999998 13.5299997 7.82000017
      1.39999998 6.63000011 15.2200003 1.49000001 7.23999977 15.5699997
      2.63000011 7.65999985 9.26000023 3.91000009 0. 0. 0. 0. 0. 0. 0.
      0. 0. 0. 0. 0. 0. 0. 0.</_>
    <_>
      0. 0. 0. 0. 0. 0. 0. 0. 0. 0. 0. 0. 0. 0. 0. 25.9300003 16.6399994
      2.94000006 12.9300003 6.78999996 1.49000001 6.32000017 12.9099998
      1.61000001 6.4000001 14.0799999 3. 6.76999998 7.36999989 3.8900001
      0. 0. 0. 0. 0. 0. 0. 0. 0. 0. 0. 0. 0. 0. 0. 24.4678936 16.4457893
      3.46736836 13.2457895 6.94052649 1.8121053 6.60947371 13.3957891
      1.75105262 6.52157927 14.8947372 2.8063159 6.76526308 8.18842125
      3.85157895 0. 0. 0. 0. 0. 0. 0. 0. 0. 0. 0. 0. 0. 0. 0. 24.1521053
      16.6684208 3.75631571 13.5042105 7.56842089 1.70736849 6.94578934
      13.9984207 1.71157897 6.76368427 15.0094728 3.01684213 6.96368408
      8.32000065 4.103158 0. 0. 0. 0. 0. 0. 0. 0. 0. 0. 0. 0. 0. 0. 0.
      24.2068424 16.3384209 4.10736847 13.4578943 7.63315773 1.74105263
      6.89894724 14.2547369 1.68157887 6.36578941 15.487895 2.77473688
      6.3921051 8.29736805 3.79473686 0. 0. 0. 0. 0. 0. 0. 0. 0. 0. 0.
      0. 0. 0. 0. 24.3405266 16.2842102 3.74157906 13.4573689 7.61631584
      1.53526318 6.87105227 13.9342108 1.64157891 6.24789476 15.2631578
      3.11789489 6.11105299 8.04736805 4.15842104 0. 0. 0. 0. 0. 0. 0.
      0. 0. 0. 0. 0. 0. 0. 0. 24.0578957 16.1436844 3.94789481 13.313158
      7.53842115 1.5410527 6.76157856 14.2284212 1.57578945 6.68315792
      15.5657892 2.93000007 6.62947369 8.22842121 3.76315784 0. 0. 0. 0.
      0. 0. 0. 0. 0. 0. 0. 0. 0. 0. 0. 23.6273689 16.2452641 4.34105253
      13.3310528 7.7126317 1.29473686 7.02526331 14.1389475 1.23315787
      6.53631592 14.8584213 2.82052612 6.33578968 7.84105253 3.75947356
      0. 0. 0. 0. 0. 0. 0. 0. 0. 0. 0. 0. 0. 0. 0. 23.8921051 17.0078945
      6.39052629 13.4994736 7.6173687 1.28578949 7.03842115 14.2115793
      1.55368423 6.70842123 14.7752628 2.84263158 6.67473698 7.95368433
      3.8484211 0. 0. 0. 0. 0. 0. 0. 0. 0. 0. 0. 0. 0. 0. 0. 22.6705265
      16.9836845 9.12578964 13.7084208 7.59526348 1.33631575 7.08157921
      14.2784204 1.32842112 6.62105274 14.9263163 2.73315787 6.76052618
      7.98842096 3.94105268 0. 0. 0. 0. 0. 0. 0. 0. 0. 0. 0. 0. 0. 0. 0.
      22.9099998 17.1000004 8.99210548 13.7152634 7.7315793 1.34789467
      7.14789486 14.452631 1.44105268 6.87421036 15.0115786 2.84421062
      6.87105274 8.20947361 4.02736855 0. 0. 0. 0. 0. 0. 0. 0. 0. 0. 0.
      0. 0. 0. 0. 22.6073685 17.1568432 9.62526321 13.9257898 7.83578968
      1.42421055 7.43894768 14.762105 1.41947365 7.27052641 15.4742107
      2.79421043 7.66052628 8.81473732 4.09894753 0. 0. 0. 0. 0. 0. 0.
      0. 0. 0. 0. 0. 0. 0. 0. 22.8247356 17.1989479 9.80157948
      13.8636837 7.7736845 1.6147368 7.14947367 14.9394732 1.63263154
      7.32999992 15.8289471 2.61789465 7.79894733 9.08842087 3.86842108
      0. 0. 0. 0. 0. 0. 0. 0. 0. 0. 0. 0. 0. 0. 0. 22.5210533 16.9878941
      10.1163158 13.8710527 7.70052624 1.48473692 6.93473673 14.6694736
      1.43315792 6.86210537 15.3026314 2.68105268 7.27947378 8.64473724
      4.00684214 0. 0. 0. 0. 0. 0. 0. 0. 0. 0. 0. 0. 0. 0. 0. 23.118948
      17.4752636 10.5942097 14.4147367 8.23947334 1.24947369 7.85578918
      15.2757893 1.51947367 7.7642107 15.7810526 3.52315807 8.1421051
      8.82578945 4.37894726 0. 0. 0. 0. 0. 0. 0. 0. 0. 0. 0. 0. 0. 0. 0.
      22.8242111 17.0815792 10.5152636 14.1321058 7.81263161 1.26578951
      7.31842089 14.7084208 1.55421054 7.29789448 15.2547369 2.97157884
      7.81421041 8.79368401 4.02684212 0. 0. 0. 0. 0. 0. 0. 0. 0. 0. 0.
      0. 0. 0. 0. 23.3978939 17.2542114 11.6368427 13.8642111 7.93789482
      1.49789476 6.85631561 15.2984209 1.49578953 7.23157883 16.1194744
      2.73631597 7.75052595 9.57315731 4.0936842 0. 0. 0. 0. 0. 0. 0. 0.
      0. 0. 0. 0. 0. 0. 0. 23.0178947 17.2773685 11.162632 13.9194736
      7.97421074 1.43736839 7.08368397 15.3189478 1.55842102 7.41263151
      15.996316 2.81526303 7.77736807 9.33684158 4.11789465 0. 0. 0. 0.
      0. 0. 0. 0. 0. 0. 0. 0. 0. 0. 0. 23.0563164 16.9868412 11.2921047
      14.3310528 8.07263184 1.29315782 7.3342104 15.3221054 1.39368415
      7.38421059 15.6789474 2.70947361 7.71052599 9.00368404 3.82684207
      0. 0. 0. 0. 0. 0. 0. 0. 0. 0. 0. 0. 0. 0. 0. 22.924736 17.0905266
      11.3742104 13.8831577 7.78894711 1.4426316 6.94789505 15.1594734
      1.43368423 7.10157919 15.6321049 2.5889473 7.70000029 9.03894711
      3.88684225 0. 0. 0. 0. 0. 0. 0. 0. 0. 0. 0. 0. 0. 0. 0. 22.4300003
      17.1499996 11.1999998 13.5299997 7.82000017 1.39999998 6.63000011
      15.2200003 1.49000001 7.23999977 15.5699997 2.63000011 7.65999985
      9.26000023 3.91000009</_>
    <_>
      23.5499992 17.6800003 10.3500004 14.4799995 10.1899996 1.27999997
      7.88999987 18.9400005 0.910000026 8.32999992 18.9400005 3.11999989
      9.31000042 11.6700001 5.07000017 0. 0. 0. 0. 0. 0. 0. 0. 0. 0. 0.
      0. 0. 0. 0. 23.5289478 17.2147369 10.6436844 14.055789 9.64999962
      1.89947367 7.11947346 18.3678951 1.4110527 7.63526344 18.6447372
      2.75999999 8.79631615 11.8910532 4.70473671 0. 0. 0. 0. 0. 0. 0.
      0. 0. 0. 0. 0. 0. 0. 0. 23.3463154 17.5105267 10.2568426
      14.0184212 9.64473724 1.70631588 7.22736835 18.5268421 1.04473686
      7.6610527 18.8478947 3.30684209 8.7831583 12.0878954 5.25684214 0.
      0. 0. 0. 0. 0. 0. 0. 0. 0. 0. 0. 0. 0. 0. 22.9973679 17.6126328
      10.6363163 14.2047367 9.75894737 1.39052629 7.51105261 18.277895
      0.957368433 8. 18.3394737 2.98157883 9.17157936 11.7136841
      4.70526314 0. 0. 0. 0. 0. 0. 0. 0. 0. 0. 0. 0. 0. 0. 0. 23.6826324
      17.4573689 10.2142105 14.1257887 9.48421097 1.57421052 7.16368437
      17.9568424 1.11000001 7.38578939 18.1410522 2.97473693 8.41947365
      11.4021053 4.81789494 0. 0. 0. 0. 0. 0. 0. 0. 0. 0. 0. 0. 0. 0. 0.
      23.0889473 17.4705257 10.5884209 13.9452629 9.45157909 1.54052627
      7.07894707 17.7668419 0.807368457 7.35052633 17.9426308 3.26947379
      8.41263199 11.3957891 5.11473656 0. 0. 0. 0. 0. 0. 0. 0. 0. 0. 0.
      0. 0. 0. 0. 22.7278938 18.2157898 13.4184208 14.4426317 9.99368382
      1.32105267 7.90473652 18.2489471 0.713684201 8.24947357 18.015789
      3.39842105 9.22105312 11.5389471 5.28631544 0. 0. 0. 0. 0. 0. 0.
      0. 0. 0. 0. 0. 0. 0. 0. 22.7410526 17.5442104 16.2452641
      13.7963161 9.24368477 1.66157901 6.77473688 17.6378937 0.708421052
      7.12421036 17.6678963 3.18526316 8.37894726 11.1831579 4.7405262
      0. 0. 0. 0. 0. 0. 0. 0. 0. 0. 0. 0. 0. 0. 0. 22.3099995 18.1726303
      18.396843 14.0705261 8.96421051 1.69736838 7.03578949 17.2036839
      0.922105253 7.61999989 17.4410534 3.24052644 9.04947376 11.2394743
      4.75157928 0. 0. 0. 0. 0. 0. 0. 0. 0. 0. 0. 0. 0. 0. 0. 22.8099995
      17.7252636 18.3899994 13.7605267 8.8589468 1.7242105 6.89631557
      17.1331577 0.898421049 7.54789448 17.5894737 3.3436842 9.06578922
      11.5494738 4.845263 0. 0. 0. 0. 0. 0. 0. 0. 0. 0. 0. 0. 0. 0. 0.
      21.8284206 18.1321049 18.5926323 14.3089476 9.31947327 1.47684216
      7.59684181 17.1205254 0.988947392 7.45631552 16.5978947 3.35368419
      8.6126318 10.527894 4.68473673 0. 0. 0. 0. 0. 0. 0. 0. 0. 0. 0. 0.
      0. 0. 0. 23.0063171 17.4031582 17.8299999 13.9873686 9.25421047
      1.70052636 7.32894754 17.1731586 0.871052623 7.50210524 17.8389473
      2.99157882 9.12842083 11.3310528 4.50210524 0. 0. 0. 0. 0. 0. 0.
      0. 0. 0. 0. 0. 0. 0. 0. 22.9152641 17.8173695 17.341053 13.8768425
      9.12473679 1.50105262 7.12473679 17.1526318 0.83157897 7.26052666
      17.0784206 3.09263158 8.76631546 11.071579 4.6610527 0. 0. 0. 0.
      0. 0. 0. 0. 0. 0. 0. 0. 0. 0. 0. 23.4884224 17.8673687 18.1310539
      14.1721058 9.30842113 1.64052629 7.28684235 17.4521046 1.03105271
      7.4063158 18.0221062 3.05631566 8.93315792 11.4926319 4.8547368 0.
      0. 0. 0. 0. 0. 0. 0. 0. 0. 0. 0. 0. 0. 0. 23.5547371 17.8894749
      16.8878956 14.0836849 9.28052616 1.51842105 7.19052601 17.5094738
      0.614736855 7.22578955 17.8468418 3.0257895 8.96894741 11.3447371
      4.63789463 0. 0. 0. 0. 0. 0. 0. 0. 0. 0. 0. 0. 0. 0. 0. 23.1857891
      18.1189461 15.8152628 14.3421049 9.7205267 1.47473681 7.76631594
      17.8321056 0.59157896 7.8157897 17.6021061 3.01263165 9.3436842
      11.2178946 4.85947371 0. 0. 0. 0. 0. 0. 0. 0. 0. 0. 0. 0. 0. 0. 0.
      22.7805252 17.9342098 17.1957893 14.0910521 9.66684151 1.62684214
      7.46526337 17.7773685 0.753684223 7.32421064 17.7642097 2.96157908
      8.87947369 11.3352623 4.64473677 0. 0. 0. 0. 0. 0. 0. 0. 0. 0. 0.
      0. 0. 0. 0. 22.8042107 17.8284206 17.0799999 14.4515791 9.90210533
      1.2863158 8.02842045 18.0689468 0.525263131 8.03842163 18.4673691
      3.21315789 9.88631535 11.7736845 4.79368401 0. 0. 0. 0. 0. 0. 0.
      0. 0. 0. 0. 0. 0. 0. 0. 22.6410522 17.5510521 16.8105259
      14.1963158 9.7263155 1.77789474 7.31052637 17.8721046 0.941578984
      7.35421038 18.0936832 2.69052649 9.19421101 11.4178944 4.57578945
      0. 0. 0. 0. 0. 0. 0. 0. 0. 0. 0. 0. 0. 0. 0. 22.2299995 17.7800007
      17.8500004 14.2700005 9.77000046 1.41999996 7.65999985 17.8899994
      0.699999988 8.06999969 17.8199997 2.88000011 10.2600002 11.8800001
      4.65999985 0. 0. 0. 0. 0. 0. 0. 0. 0. 0. 0. 0. 0. 0. 0.</_>
    <_>
      0. 0. 0. 0. 0. 0. 0. 0. 0. 0. 0. 0. 0. 0. 0. 23.5499992 17.6800003
      10.3500004 14.4799995 10.1899996 1.27999997 7.88999987 18.9400005
      0.910000026 8.32999992 18.9400005 3.11999989 9.31000042 11.6700001
      5.07000017 0. 0. 0. 0. 0. 0. 0. 0. 0. 0. 0. 0. 0. 0. 0. 23.5289478
      17.2147369 10.6436844 14.055789 9.64999962 1.89947367 7.11947346
      18.3678951 1.4110527 7.63526344 18.6447372 2.75999999 8.79631615
      11.8910532 4.70473671 0. 0. 0. 0. 0. 0. 0. 0. 0. 0. 0. 0. 0. 0. 0.
      23.3463154 17.5105267 10.2568426 14.0184212 9.64473724 1.70631588
      7.22736835 18.5268421 1.04473686 7.6610527 18.8478947 3.30684209
      8.7831583 12.0878954 5.25684214 0. 0. 0. 0. 0. 0. 0. 0. 0. 0. 0.
      0. 0. 0. 0. 22.9973679 17.6126328 10.6363163 14.2047367 9.75894737
      1.39052629 7.51105261 18.277895 0.957368433 8. 18.3394737
      2.98157883 9.17157936 11.7136841 4.70526314 0. 0. 0. 0. 0. 0. 0.
      0. 0. 0. 0. 0. 0. 0. 0. 23.6826324 17.4573689 10.2142105
      14.1257887 9.48421097 1.57421052 7.16368437 17.9568424 1.11000001
      7.38578939 18.1410522 2.97473693 8.41947365 11.4021053 4.81789494
      0. 0. 0. 0. 0. 0. 0. 0. 0. 0. 0. 0. 0. 0. 0. 23.0889473 17.4705257
      10.5884209 13.9452629 9.45157909 1.54052627 7.07894707 17.7668419
      0.807368457 7.35052633 17.9426308 3.26947379 8.41263199 11.3957891
      5.11473656 0. 0. 0. 0. 0. 0. 0. 0. 0. 0. 0. 0. 0. 0. 0. 22.7278938
      18.2157898 13.4184208 14.4426317 9.99368382 1.32105267 7.90473652
      18.2489471 0.713684201 8.24947357 18.015789 3.39842105 9.22105312
      11.5389471 5.28631544 0. 0. 0. 0. 0. 0. 0. 0. 0. 0. 0. 0. 0. 0. 0.
      22.7410526 17.5442104 16.2452641 13.7963161 9.24368477 1.66157901
      6.77473688 17.6378937 0.708421052 7.12421036 17.6678963 3.18526316
      8.37894726 11.1831579 4.7405262 0. 0. 0. 0. 0. 0. 0. 0. 0. 0. 0.
      0. 0. 0. 0. 22.3099995 18.1726303 18.396843 14.0705261 8.96421051
      1.69736838 7.03578949 17.2036839 0.922105253 7.61999989 17.4410534
      3.24052644 9.04947376 11.2394743 4.75157928 0. 0. 0. 0. 0. 0. 0.
      0. 0. 0. 0. 0. 0. 0. 0. 22.8099995 17.7252636 18.3899994
      13.7605267 8.8589468 1.7242105 6.89631557 17.1331577 0.898421049
      7.54789448 17.5894737 3.3436842 9.06578922 11.5494738 4.845263 0.
      0. 0. 0. 0. 0. 0. 0. 0. 0. 0. 0. 0. 0. 0. 21.8284206 18.1321049
      18.5926323 14.3089476 9.31947327 1.47684216 7.59684181 17.1205254
      0.988947392 7.45631552 16.5978947 3.35368419 8.6126318 10.527894
      4.68473673 0. 0. 0. 0. 0. 0. 0. 0. 0. 0. 0. 0. 0. 0. 0. 23.0063171
      17.4031582 17.8299999 13.9873686 9.25421047 1.70052636 7.32894754
      17.1731586 0.871052623 7.50210524 17.8389473 2.99157882 9.12842083
      11.3310528 4.50210524 0. 0. 0. 0. 0. 0. 0. 0. 0. 0. 0. 0. 0. 0. 0.
      22.9152641 17.8173695 17.341053 13.8768425 9.12473679 1.50105262
      7.12473679 17.1526318 0.83157897 7.26052666 17.0784206 3.09263158
      8.76631546 11.071579 4.6610527 0. 0. 0. 0. 0. 0. 0. 0. 0. 0. 0. 0.
      0. 0. 0. 23.4884224 17.8673687 18.1310539 14.1721058 9.30842113
      1.64052629 7.28684235 17.4521046 1.03105271 7.4063158 18.0221062
      3.05631566 8.93315792 11.4926319 4.8547368 0. 0. 0. 0. 0. 0. 0. 0.
      0. 0. 0. 0. 0. 0. 0. 23.5547371 17.8894749 16.8878956 14.0836849
      9.28052616 1.51842105 7.19052601 17.5094738 0.614736855 7.22578955
      17.8468418 3.0257895 8.96894741 11.3447371 4.63789463 0. 0. 0. 0.
      0. 0. 0. 0. 0. 0. 0. 0. 0. 0. 0. 23.1857891 18.1189461 15.8152628
      14.3421049 9.7205267 1.47473681 7.76631594 17.8321056 0.59157896
      7.8157897 17.6021061 3.01263165 9.3436842 11.2178946 4.85947371 0.
      0. 0. 0. 0. 0. 0. 0. 0. 0. 0. 0. 0. 0. 0. 22.7805252 17.9342098
      17.1957893 14.0910521 9.66684151 1.62684214 7.46526337 17.7773685
      0.753684223 7.32421064 17.7642097 2.96157908 8.87947369 11.3352623
      4.64473677 0. 0. 0. 0. 0. 0. 0. 0. 0. 0. 0. 0. 0. 0. 0. 22.8042107
      17.8284206 17.0799999 14.4515791 9.90210533 1.2863158 8.02842045
      18.0689468 0.525263131 8.03842163 18.4673691 3.21315789 9.88631535
      11.7736845 4.79368401 0. 0. 0. 0. 0. 0. 0. 0. 0. 0. 0. 0. 0. 0. 0.
      22.6410522 17.5510521 16.8105259 14.1963158 9.7263155 1.77789474
      7.31052637 17.8721046 0.941578984 7.35421038 18.0936832 2.69052649
      9.19421101 11.4178944 4.57578945 0. 0. 0. 0. 0. 0. 0. 0. 0. 0. 0.
      0. 0. 0. 0. 22.2299995 17.7800007 17.8500004 14.2700005 9.77000046
      1.41999996 7.65999985 17.8899994 0.699999988 8.06999969 17.8199997
      2.88000011 10.2600002 11.8800001 4.65999985</_>
    <_>
      23.1900005 16.4699993 16.7199993 13.6300001 9.60999966 1.63999999
      6.86000013 17.5400009 0.730000019 7.3499999 17.7099991 2.98000002
      9.85000038 11.6700001 4.84000015 0. 0. 0. 0. 0. 0. 0. 0. 0. 0. 0.
      0. 0. 0. 0. 24.092104 16.3305264 16.7689476 13.8573685 9.61894798
      1.75315785 6.88052654 18.0210533 0.667894721 7.51578951 18.6805267
      2.79526305 10.2557898 12.512105 4.83052635 0. 0. 0. 0. 0. 0. 0. 0.
      0. 0. 0. 0. 0. 0. 0. 23.2205276 15.3710527 16.103159 13.8615789
      9.50263119 1.57789481 6.94999981 17.8899994 0.843157887 7.40736866
      18.1889477 3.09789467 10.5031576 11.8647375 5.01263142 0. 0. 0. 0.
      0. 0. 0. 0. 0. 0. 0. 0. 0. 0. 0. 23.8389473 15.9821053 16.1305256
      14.2505264 10.1947374 1.60947371 7.80999994 19.1321049 0.778947413
      8.71842098 19.4231586 3.11210537 11.1510525 12.884737 5.28052616
      0. 0. 0. 0. 0. 0. 0. 0. 0. 0. 0. 0. 0. 0. 0. 22.7078953 15.8247375
      16.1115799 13.8063154 9.7794733 1.64789474 7.38631582 18.6178951
      0.847368419 8.06789494 18.6368408 3.52421045 10.6394739 12.059473
      5.24578953 0. 0. 0. 0. 0. 0. 0. 0. 0. 0. 0. 0. 0. 0. 0. 22.5968418
      15.3636847 16.2731571 14.3963156 10.2505264 1.76947367 8.16421032
      19.1426315 1.16789472 9.29736805 19.3047371 3.45210528 11.6021051
      12.7457895 5.31684208 0. 0. 0. 0. 0. 0. 0. 0. 0. 0. 0. 0. 0. 0. 0.
      23.1252632 14.8310528 16.2173691 13.5273685 9.44894791 2.08157897
      6.82578945 18.6294746 0.324736834 8.16263199 19.5452633 2.91736841
      10.856842 12.821579 4.95210505 0. 0. 0. 0. 0. 0. 0. 0. 0. 0. 0. 0.
      0. 0. 0. 23.8947372 15.1389475 14.2294731 13.3405266 10.0736847
      2.43473673 7.02315807 19.7905273 0.676842093 8.68684196 20.7373676
      2.5421052 11.6552629 14.2263155 5.13000011 0. 0. 0. 0. 0. 0. 0. 0.
      0. 0. 0. 0. 0. 0. 0. 24.3936844 14.9389477 14.3278942 12.5652628
      9.91631508 3.05736852 6.53842115 20.2594738 1.44789469 9.08631611
      22.3873692 2.53421044 12.6557894 16.9047375 5.9252634 0. 0. 0. 0.
      0. 0. 0. 0. 0. 0. 0. 0. 0. 0. 0. 24.4684219 16.0442104 13.4426317
      12.6247368 10.3594732 2.8852632 6.96473694 20.9668427 1.31105268
      9.35526371 22.384737 2.40052629 13.0063152 18.3142109 6.19473696
      0. 0. 0. 0. 0. 0. 0. 0. 0. 0. 0. 0. 0. 0. 0. 24.0321045 15.5421057
      13.5631571 12.2563152 10.2094736 2.90894723 6.68368435 21.2315788
      1.90947366 10.0342102 23.4173679 2.58684206 13.5868425 20.4694729
      7.35052633 0. 0. 0. 0. 0. 0. 0. 0. 0. 0. 0. 0. 0. 0. 0. 24.0273685
      15.6047373 12.4042101 12.1426315 10.7736845 2.95631599 6.80578947
      22.1484203 2.29999995 10.1663151 24.2189484 3.03947377 13.6000004
      20.8347378 8.13947296 0. 0. 0. 0. 0. 0. 0. 0. 0. 0. 0. 0. 0. 0. 0.
      24.4978962 15.8384209 12.222105 12.77421 11.0026312 2.96631575
      7.17578936 22.2084198 2.50894737 10.1373682 23.9968414 3.22000003
      13.7268419 21.1247368 9.65263176 0. 0. 0. 0. 0. 0. 0. 0. 0. 0. 0.
      0. 0. 0. 0. 24.4668407 15.3752632 12.6542101 12.1957893 10.487895
      2.95000005 6.74631596 21.7484226 2.33105254 9.85210514 23.5973682
      2.9694736 13.4826317 20.1273689 7.8063159 0. 0. 0. 0. 0. 0. 0. 0.
      0. 0. 0. 0. 0. 0. 0. 24.273159 15.8157892 12.6221056 12.7189474
      11.2663164 3.10263157 7.52263165 22.888422 3.00789475 11.1178942
      25.316843 4.01263189 14.6405268 23.4115791 11.6610527 0. 0. 0. 0.
      0. 0. 0. 0. 0. 0. 0. 0. 0. 0. 0. 25.2373676 15.559474 12.6668425
      12.3563156 10.46 3.23842096 6.3110528 21.8426304 2.62263155
      9.32999992 23.7673683 3.38578939 12.9384203 20.3463154 9.08526325
      0. 0. 0. 0. 0. 0. 0. 0. 0. 0. 0. 0. 0. 0. 0. 24.1473675 15.6631575
      12.0889473 12.5405264 10.337368 3.24684215 6.82578945 21.6773682
      2.65789485 9.88947296 24.0394745 3.35578942 13.5526314 20.5621052
      8.47789478 0. 0. 0. 0. 0. 0. 0. 0. 0. 0. 0. 0. 0. 0. 0. 24.3842106
      15.79 12.8557892 12.4110527 10.3126316 2.82105255 7.04526329
      21.4273682 2.29736853 9.9905262 23.3984203 3.04894733 13.6384211
      20.6205273 7.75368404 0. 0. 0. 0. 0. 0. 0. 0. 0. 0. 0. 0. 0. 0. 0.
      24.5268421 15.333684 12.3831577 12.6531582 10.8047371 3.05947375
      7.15105247 22.0421047 2.38315797 10.686842 24.682106 3.32368422
      14.2673683 21.9810524 9.59631538 0. 0. 0. 0. 0. 0. 0. 0. 0. 0. 0.
      0. 0. 0. 0. 24.9799995 15.7799997 13.5200005 12.5 10.7700005
      3.0999999 6.86000013 22.1200008 2.6400001 10.5900002 24.5799999
      2.80999994 14.5600004 22.1299992 8.72999954 0. 0. 0. 0. 0. 0. 0.
      0. 0. 0. 0. 0. 0. 0. 0.</_>
    <_>
      0. 0. 0. 0. 0. 0. 0. 0. 0. 0. 0. 0. 0. 0. 0. 23.1900005 16.4699993
      16.7199993 13.6300001 9.60999966 1.63999999 6.86000013 17.5400009
      0.730000019 7.3499999 17.7099991 2.98000002 9.85000038 11.6700001
      4.84000015 0. 0. 0. 0. 0. 0. 0. 0. 0. 0. 0. 0. 0. 0. 0. 24.092104
      16.3305264 16.7689476 13.8573685 9.61894798 1.75315785 6.88052654
      18.0210533 0.667894721 7.51578951 18.6805267 2.79526305 10.2557898
      12.512105 4.83052635 0. 0. 0. 0. 0. 0. 0. 0. 0. 0. 0. 0. 0. 0. 0.
      23.2205276 15.3710527 16.103159 13.8615789 9.50263119 1.57789481
      6.94999981 17.8899994 0.843157887 7.40736866 18.1889477 3.09789467
      10.5031576 11.8647375 5.01263142 0. 0. 0. 0. 0. 0. 0. 0. 0. 0. 0.
      0. 0. 0. 0. 23.8389473 15.9821053 16.1305256 14.2505264 10.1947374
      1.60947371 7.80999994 19.1321049 0.778947413 8.71842098 19.4231586
      3.11210537 11.1510525 12.884737 5.28052616 0. 0. 0. 0. 0. 0. 0. 0.
      0. 0. 0. 0. 0. 0. 0. 22.7078953 15.8247375 16.1115799 13.8063154
      9.7794733 1.64789474 7.38631582 18.6178951 0.847368419 8.06789494
      18.6368408 3.52421045 10.6394739 12.059473 5.24578953 0. 0. 0. 0.
      0. 0. 0. 0. 0. 0. 0. 0. 0. 0. 0. 22.5968418 15.3636847 16.2731571
      14.3963156 10.2505264 1.76947367 8.16421032 19.1426315 1.16789472
      9.29736805 19.3047371 3.45210528 11.6021051 12.7457895 5.31684208
      0. 0. 0. 0. 0. 0. 0. 0. 0. 0. 0. 0. 0. 0. 0. 23.1252632 14.8310528
      16.2173691 13.5273685 9.44894791 2.08157897 6.82578945 18.6294746
      0.324736834 8.16263199 19.5452633 2.91736841 10.856842 12.821579
      4.95210505 0. 0. 0. 0. 0. 0. 0. 0. 0. 0. 0. 0. 0. 0. 0. 23.8947372
      15.1389475 14.2294731 13.3405266 10.0736847 2.43473673 7.02315807
      19.7905273 0.676842093 8.68684196 20.7373676 2.5421052 11.6552629
      14.2263155 5.13000011 0. 0. 0. 0. 0. 0. 0. 0. 0. 0. 0. 0. 0. 0. 0.
      24.3936844 14.9389477 14.3278942 12.5652628 9.91631508 3.05736852
      6.53842115 20.2594738 1.44789469 9.08631611 22.3873692 2.53421044
      12.6557894 16.9047375 5.9252634 0. 0. 0. 0. 0. 0. 0. 0. 0. 0. 0.
      0. 0. 0. 0. 24.4684219 16.0442104 13.4426317 12.6247368 10.3594732
      2.8852632 6.96473694 20.9668427 1.31105268 9.35526371 22.384737
      2.40052629 13.0063152 18.3142109 6.19473696 0. 0. 0. 0. 0. 0. 0.
      0. 0. 0. 0. 0. 0. 0. 0. 24.0321045 15.5421057 13.5631571
      12.2563152 10.2094736 2.90894723 6.68368435 21.2315788 1.90947366
      10.0342102 23.4173679 2.58684206 13.5868425 20.4694729 7.35052633
      0. 0. 0. 0. 0. 0. 0. 0. 0. 0. 0. 0. 0. 0. 0. 24.0273685 15.6047373
      12.4042101 12.1426315 10.7736845 2.95631599 6.80578947 22.1484203
      2.29999995 10.1663151 24.2189484 3.03947377 13.6000004 20.8347378
      8.13947296 0. 0. 0. 0. 0. 0. 0. 0. 0. 0. 0. 0. 0. 0. 0. 24.4978962
      15.8384209 12.222105 12.77421 11.0026312 2.96631575 7.17578936
      22.2084198 2.50894737 10.1373682 23.9968414 3.22000003 13.7268419
      21.1247368 9.65263176 0. 0. 0. 0. 0. 0. 0. 0. 0. 0. 0. 0. 0. 0. 0.
      24.4668407 15.3752632 12.6542101 12.1957893 10.487895 2.95000005
      6.74631596 21.7484226 2.33105254 9.85210514 23.5973682 2.9694736
      13.4826317 20.1273689 7.8063159 0. 0. 0. 0. 0. 0. 0. 0. 0. 0. 0.
      0. 0. 0. 0. 24.273159 15.8157892 12.6221056 12.7189474 11.2663164
      3.10263157 7.52263165 22.888422 3.00789475 11.1178942 25.316843
      4.01263189 14.6405268 23.4115791 11.6610527 0. 0. 0. 0. 0. 0. 0.
      0. 0. 0. 0. 0. 0. 0. 0. 25.2373676 15.559474 12.6668425 12.3563156
      10.46 3.23842096 6.3110528 21.8426304 2.62263155 9.32999992
      23.7673683 3.38578939 12.9384203 20.3463154 9.08526325 0. 0. 0. 0.
      0. 0. 0. 0. 0. 0. 0. 0. 0. 0. 0. 24.1473675 15.6631575 12.0889473
      12.5405264 10.337368 3.24684215 6.82578945 21.6773682 2.65789485
      9.88947296 24.0394745 3.35578942 13.5526314 20.5621052 8.47789478
      0. 0. 0. 0. 0. 0. 0. 0. 0. 0. 0. 0. 0. 0. 0. 24.3842106 15.79
      12.8557892 12.4110527 10.3126316 2.82105255 7.04526329 21.4273682
      2.29736853 9.9905262 23.3984203 3.04894733 13.6384211 20.6205273
      7.75368404 0. 0. 0. 0. 0. 0. 0. 0. 0. 0. 0. 0. 0. 0. 0. 24.5268421
      15.333684 12.3831577 12.6531582 10.8047371 3.05947375 7.15105247
      22.0421047 2.38315797 10.686842 24.682106 3.32368422 14.2673683
      21.9810524 9.59631538 0. 0. 0. 0. 0. 0. 0. 0. 0. 0. 0. 0. 0. 0. 0.
      24.9799995 15.7799997 13.5200005 12.5 10.7700005 3.0999999
      6.86000013 22.1200008 2.6400001 10.5900002 24.5799999 2.80999994
      14.5600004 22.1299992 8.72999954</_>
    <_>
      26.3799992 10.6599998 5.42999983 13.1999998 11.3900003 1.82000005
      9. 16.1200008 5.28000021 8.22999954 17.5400009 6.86000013
      7.51000023 15.0600004 7.69000006 0. 0. 0. 0. 0. 0. 0. 0. 0. 0. 0.
      0. 0. 0. 0. 26.6189461 10.5463161 5.94578934 12.8247366 11.297368
      1.82105267 8.68894768 16.0247364 5.38631582 8.14631653 17.6926327
      7.07631588 7.72368431 14.9678946 7.79421043 0. 0. 0. 0. 0. 0. 0.
      0. 0. 0. 0. 0. 0. 0. 0. 26.1142101 10.448947 6.4952631 12.3573685
      10.5021048 1.34000003 8.75315762 15.2978945 4.55368423 8.75736904
      18.139473 6.75105238 9.19736862 15.0410528 7.37894773 0. 0. 0. 0.
      0. 0. 0. 0. 0. 0. 0. 0. 0. 0. 0. 25.3873672 10.0878944 4.44315767
      12.987895 12.2005262 3.04894757 10.4626322 21.4857903 11.8400002
      10.6710529 28.8726311 20.6457901 10.6768417 25.5426311 16.1736851
      0. 0. 0. 0. 0. 0. 0. 0. 0. 0. 0. 0. 0. 0. 0. 24.4926319 10.0605259
      3.70105267 14.3021049 13.8257895 4.91631556 12.7942104 25.5642109
      17.4794731 12.9936848 34.5368423 29.9642105 12.0968428 30.0747375
      24.3447361 0. 0. 0. 0. 0. 0. 0. 0. 0. 0. 0. 0. 0. 0. 0. 24.3221054
      10.7610521 2.62736845 14.2573681 13.3121052 4.84947348 12.6994734
      25.3563156 18.5557899 13.0310526 33.0626297 28.4742107 11.7942104
      27.3989468 21.1389465 0. 0. 0. 0. 0. 0. 0. 0. 0. 0. 0. 0. 0. 0. 0.
      23.4063148 11.309474 2.36894727 14.8542109 14.2905264 4.22894716
      13.6057892 26.5810528 17.6678944 14.3410521 34.7005272 29.6115799
      12.4099998 30.3589458 23.6457882 0. 0. 0. 0. 0. 0. 0. 0. 0. 0. 0.
      0. 0. 0. 0. 24.0500011 9.83473682 2.03894734 14.4826317 13.9910526
      3.81842113 13.3836842 26.2942104 15.865263 13.6915789 35.0094719
      27.8857899 12.356842 28.2642097 19.9136829 0. 0. 0. 0. 0. 0. 0. 0.
      0. 0. 0. 0. 0. 0. 0. 25.9410515 9.92894745 1.94210517 14.0678949
      14.6510525 4.11000013 12.9931583 27.1905251 18.9400005 13.1805267
      37.8131561 35.5373688 12.7105265 30.6531582 24.8063145 0. 0. 0. 0.
      0. 0. 0. 0. 0. 0. 0. 0. 0. 0. 0. 25.9194736 9.66842079 1.98210526
      13.900526 15.0842104 4.86210489 12.6478939 27.0389462 18.3263149
      13.0215788 37.4457893 34.646843 14.3942099 27.5563164 21.5973682
      0. 0. 0. 0. 0. 0. 0. 0. 0. 0. 0. 0. 0. 0. 0. 25.5542107 9.22947407
      3.0373683 15.2868423 20.8315792 10.5368423 13.0615788 34.6694717
      28.0657883 12.3357897 43.1178932 38.7700005 19.5531578 26.3789463
      23.5778942 0. 0. 0. 0. 0. 0. 0. 0. 0. 0. 0. 0. 0. 0. 0. 26.7626305
      9.1173687 3.33789468 15.7631578 25.7294731 17.0289459 12.3394737
      39.5942116 37.8152657 10.5899992 47.8463135 44.7268448 20.5757885
      28.4710522 28.8326321 0. 0. 0. 0. 0. 0. 0. 0. 0. 0. 0. 0. 0. 0. 0.
      26.1036854 9.29210567 2.4789474 15.9984207 26.4642105 12.7284212
      12.9978952 40.0563164 31.1652641 12.0978947 52.0942116 41.5421066
      21.9942093 33.019474 31.9715786 0. 0. 0. 0. 0. 0. 0. 0. 0. 0. 0.
      0. 0. 0. 0. 26.4436836 8.89368439 2.68842101 15.9205265 28.2568417
      16.0178947 13.1294737 41.8789482 34.7247353 12.7842102 52.2089462
      42.4684219 23.797369 32.7615814 33.4336853 0. 0. 0. 0. 0. 0. 0. 0.
      0. 0. 0. 0. 0. 0. 0. 26.5342102 9.18684196 3.00947356 16.5321064
      28.115263 15.8905268 13.5478945 41.6605263 31.7315788 12.7368422
      49.1610527 38.9857903 23.460001 31.2073689 29.0531578 0. 0. 0. 0.
      0. 0. 0. 0. 0. 0. 0. 0. 0. 0. 0. 26.0963154 9.47000027 3.26736832
      16.4678936 28.5615788 14.9099998 13.5547371 41.737896 30.9242096
      13.0289469 48.9921074 37.4178963 24.2542095 30.0384197 26.8405247
      0. 0. 0. 0. 0. 0. 0. 0. 0. 0. 0. 0. 0. 0. 0. 26.4952621 9.27315807
      3.5678947 16.5315781 28.8347378 16.0105267 13.3978949 41.1599998
      30.0257893 12.8363152 47.3199997 35.5247383 23.9905262 27.8226318
      24.1736851 0. 0. 0. 0. 0. 0. 0. 0. 0. 0. 0. 0. 0. 0. 0. 25.5978947
      9.28421021 3.70526314 16.6263161 27.8642101 15.7078943 13.4936838
      40.5368423 27.4031582 13.1463156 46.9926338 33.4721069 24.162632
      27.5352631 22.2105255 0. 0. 0. 0. 0. 0. 0. 0. 0. 0. 0. 0. 0. 0. 0.
      26.1457901 9.2357893 3.19052625 16.1421051 28.5621052 14.5621052
      13.2431583 40.9889488 28.4063168 13.1726313 47.7910538 33.1668434
      24.349474 28.6252632 22.3252621 0. 0. 0. 0. 0. 0. 0. 0. 0. 0. 0.
      0. 0. 0. 0. 25.2399998 9.48999977 2.45000005 16.0400009 28.8299999
      15.4300003 13.2200003 41.7700005 30.3299999 13.8299999 47.7900009
      35.3499985 26.2199993 27.4400005 24.7700005 0. 0. 0. 0. 0. 0. 0.
      0. 0. 0. 0. 0. 0. 0. 0.</_>
    <_>
      0. 0. 0. 0. 0. 0. 0. 0. 0. 0. 0. 0. 0. 0. 0. 26.3799992 10.6599998
      5.42999983 13.1999998 11.3900003 1.82000005 9. 16.1200008
      5.28000021 8.22999954 17.5400009 6.86000013 7.51000023 15.0600004
      7.69000006 0. 0. 0. 0. 0. 0. 0. 0. 0. 0. 0. 0. 0. 0. 0. 26.6189461
      10.5463161 5.94578934 12.8247366 11.297368 1.82105267 8.68894768
      16.0247364 5.38631582 8.14631653 17.6926327 7.07631588 7.72368431
      14.9678946 7.79421043 0. 0. 0. 0. 0. 0. 0. 0. 0. 0. 0. 0. 0. 0. 0.
      26.1142101 10.448947 6.4952631 12.3573685 10.5021048 1.34000003
      8.75315762 15.2978945 4.55368423 8.75736904 18.139473 6.75105238
      9.19736862 15.0410528 7.37894773 0. 0. 0. 0. 0. 0. 0. 0. 0. 0. 0.
      0. 0. 0. 0. 25.3873672 10.0878944 4.44315767 12.987895 12.2005262
      3.04894757 10.4626322 21.4857903 11.8400002 10.6710529 28.8726311
      20.6457901 10.6768417 25.5426311 16.1736851 0. 0. 0. 0. 0. 0. 0.
      0. 0. 0. 0. 0. 0. 0. 0. 24.4926319 10.0605259 3.70105267
      14.3021049 13.8257895 4.91631556 12.7942104 25.5642109 17.4794731
      12.9936848 34.5368423 29.9642105 12.0968428 30.0747375 24.3447361
      0. 0. 0. 0. 0. 0. 0. 0. 0. 0. 0. 0. 0. 0. 0. 24.3221054 10.7610521
      2.62736845 14.2573681 13.3121052 4.84947348 12.6994734 25.3563156
      18.5557899 13.0310526 33.0626297 28.4742107 11.7942104 27.3989468
      21.1389465 0. 0. 0. 0. 0. 0. 0. 0. 0. 0. 0. 0. 0. 0. 0. 23.4063148
      11.309474 2.36894727 14.8542109 14.2905264 4.22894716 13.6057892
      26.5810528 17.6678944 14.3410521 34.7005272 29.6115799 12.4099998
      30.3589458 23.6457882 0. 0. 0. 0. 0. 0. 0. 0. 0. 0. 0. 0. 0. 0. 0.
      24.0500011 9.83473682 2.03894734 14.4826317 13.9910526 3.81842113
      13.3836842 26.2942104 15.865263 13.6915789 35.0094719 27.8857899
      12.356842 28.2642097 19.9136829 0. 0. 0. 0. 0. 0. 0. 0. 0. 0. 0.
      0. 0. 0. 0. 25.9410515 9.92894745 1.94210517 14.0678949 14.6510525
      4.11000013 12.9931583 27.1905251 18.9400005 13.1805267 37.8131561
      35.5373688 12.7105265 30.6531582 24.8063145 0. 0. 0. 0. 0. 0. 0.
      0. 0. 0. 0. 0. 0. 0. 0. 25.9194736 9.66842079 1.98210526 13.900526
      15.0842104 4.86210489 12.6478939 27.0389462 18.3263149 13.0215788
      37.4457893 34.646843 14.3942099 27.5563164 21.5973682 0. 0. 0. 0.
      0. 0. 0. 0. 0. 0. 0. 0. 0. 0. 0. 25.5542107 9.22947407 3.0373683
      15.2868423 20.8315792 10.5368423 13.0615788 34.6694717 28.0657883
      12.3357897 43.1178932 38.7700005 19.5531578 26.3789463 23.5778942
      0. 0. 0. 0. 0. 0. 0. 0. 0. 0. 0. 0. 0. 0. 0. 26.7626305 9.1173687
      3.33789468 15.7631578 25.7294731 17.0289459 12.3394737 39.5942116
      37.8152657 10.5899992 47.8463135 44.7268448 20.5757885 28.4710522
      28.8326321 0. 0. 0. 0. 0. 0. 0. 0. 0. 0. 0. 0. 0. 0. 0. 26.1036854
      9.29210567 2.4789474 15.9984207 26.4642105 12.7284212 12.9978952
      40.0563164 31.1652641 12.0978947 52.0942116 41.5421066 21.9942093
      33.019474 31.9715786 0. 0. 0. 0. 0. 0. 0. 0. 0. 0. 0. 0. 0. 0. 0.
      26.4436836 8.89368439 2.68842101 15.9205265 28.2568417 16.0178947
      13.1294737 41.8789482 34.7247353 12.7842102 52.2089462 42.4684219
      23.797369 32.7615814 33.4336853 0. 0. 0. 0. 0. 0. 0. 0. 0. 0. 0.
      0. 0. 0. 0. 26.5342102 9.18684196 3.00947356 16.5321064 28.115263
      15.8905268 13.5478945 41.6605263 31.7315788 12.7368422 49.1610527
      38.9857903 23.460001 31.2073689 29.0531578 0. 0. 0. 0. 0. 0. 0. 0.
      0. 0. 0. 0. 0. 0. 0. 26.0963154 9.47000027 3.26736832 16.4678936
      28.5615788 14.9099998 13.5547371 41.737896 30.9242096 13.0289469
      48.9921074 37.4178963 24.2542095 30.0384197 26.8405247 0. 0. 0. 0.
      0. 0. 0. 0. 0. 0. 0. 0. 0. 0. 0. 26.4952621 9.27315807 3.5678947
      16.5315781 28.8347378 16.0105267 13.3978949 41.1599998 30.0257893
      12.8363152 47.3199997 35.5247383 23.9905262 27.8226318 24.1736851
      0. 0. 0. 0. 0. 0. 0. 0. 0. 0. 0. 0. 0. 0. 0. 25.5978947 9.28421021
      3.70526314 16.6263161 27.8642101 15.7078943 13.4936838 40.5368423
      27.4031582 13.1463156 46.9926338 33.4721069 24.162632 27.5352631
      22.2105255 0. 0. 0. 0. 0. 0. 0. 0. 0. 0. 0. 0. 0. 0. 0. 26.1457901
      9.2357893 3.19052625 16.1421051 28.5621052 14.5621052 13.2431583
      40.9889488 28.4063168 13.1726313 47.7910538 33.1668434 24.349474
      28.6252632 22.3252621 0. 0. 0. 0. 0. 0. 0. 0. 0. 0. 0. 0. 0. 0. 0.
      25.2399998 9.48999977 2.45000005 16.0400009 28.8299999 15.4300003
      13.2200003 41.7700005 30.3299999 13.8299999 47.7900009 35.3499985
      26.2199993 27.4400005 24.7700005</_>
    <_>
      24.7700005 13.7399998 13.1099997 28.8299999 57.8499985 24.8600006
      37.5400009 79.4199982 22.1399994 42.5999985 83.0500031 21.7299995
      50.2200012 64.4700012 24.0100002 0. 0. 0. 0. 0. 0. 0. 0. 0. 0. 0.
      0. 0. 0. 0. 23.6973686 11.3652639 7.97368431 29.8536835 59.6010551
      24.4710541 38.6863136 78.0415802 21.0289478 43.8115807 81.9052582
      21.2378941 51.2710533 61.9652634 22.2700005 0. 0. 0. 0. 0. 0. 0.
      0. 0. 0. 0. 0. 0. 0. 0. 24.2163143 12.452632 9.80210495 29.106842
      60.2878952 24.7463169 38.4921036 79.8057861 21.5031586 43.4636841
      82.7584229 21.6189461 49.7773705 64.3273621 23.9773674 0. 0. 0. 0.
      0. 0. 0. 0. 0. 0. 0. 0. 0. 0. 0. 24.3068428 12.8084211 8.6268425
      29.4257889 59.2705269 23.8573685 38.7189484 77.8731613 20.7957897
      45.2789459 82.3000031 20.2494736 51.5021057 64.7831573 22.4963169
      0. 0. 0. 0. 0. 0. 0. 0. 0. 0. 0. 0. 0. 0. 0. 24.5047379 11.6426315
      8.02631569 30.0447369 58.4489479 23.5721054 39.1389465 77.7431564
      20.2399998 44.1447334 82.3515778 20.4968433 50.0536842 61.8905258
      22.2984219 0. 0. 0. 0. 0. 0. 0. 0. 0. 0. 0. 0. 0. 0. 0. 24.5363159
      12.5784216 9.11368465 29.3999996 59.1389465 23.8110523 37.3063164
      78.3600006 21.2678947 42.1489487 83.2299957 20.7552643 49.6921043
      64.5257874 22.3715801 0. 0. 0. 0. 0. 0. 0. 0. 0. 0. 0. 0. 0. 0. 0.
      24.7910519 12.2131586 9.86315823 28.9421062 58.965786 25.3289471
      38.2778931 80.6073685 22.0689487 43.6831589 85.6884232 21.2268429
      49.5294724 67.5510559 23.9684219 0. 0. 0. 0. 0. 0. 0. 0. 0. 0. 0.
      0. 0. 0. 0. 23.7573681 13.0731573 11.3615789 29.5200005 58.7242088
      24.3731575 38.8015823 79.4731598 21.6563148 42.2868423 83.0289459
      21.3705254 47.9810524 62.0957909 22.8747368 0. 0. 0. 0. 0. 0. 0.
      0. 0. 0. 0. 0. 0. 0. 0. 24.4952641 12.8226309 9.64473629 29.571579
      57.3189468 24.2331581 38.587368 77.8515778 21.349474 43.7668419
      83.2521057 20.3315792 50.2068443 63.9315796 22.1394749 0. 0. 0. 0.
      0. 0. 0. 0. 0. 0. 0. 0. 0. 0. 0. 24.8999996 13.0299997 10.0115786
      29.6836853 56.9952621 23.9573689 38.2910538 78.7705231 21.2905254
      43.7552643 84.2410507 20.5536842 50.488945 64.6131592 22.7889481
      0. 0. 0. 0. 0. 0. 0. 0. 0. 0. 0. 0. 0. 0. 0. 24.8952637 11.8136845
      8.15684223 29.916317 57.8505287 23.6089478 39.4115791 78.8089447
      20.4752636 44.9105263 83.76474 20.1199989 51.4726295 65.7710571
      22.5863152 0. 0. 0. 0. 0. 0. 0. 0. 0. 0. 0. 0. 0. 0. 0. 23.9868412
      11.2294731 8.00684261 29.186842 60.3126297 24.9747372 38.0094719
      80.7994766 21.5368423 42.1705246 84.8357849 21.4347382 48.7515793
      66.5557861 23.8978939 0. 0. 0. 0. 0. 0. 0. 0. 0. 0. 0. 0. 0. 0. 0.
      24.0657883 12.4378948 8.62631607 29.345789 59.1857872 24.7889481
      38.7505264 80.7221069 21.9557896 42.8342094 85.7105255 20.9389477
      48.3710518 65.8347397 22.9410534 0. 0. 0. 0. 0. 0. 0. 0. 0. 0. 0.
      0. 0. 0. 0. 23.4936829 11.1636839 7.61631584 29.7000008 60.4726334
      25.0315781 39.6421051 80.0205231 21.4094734 44.7189484 83.2284241
      20.6557903 51.1910515 64.8063202 22.8415775 0. 0. 0. 0. 0. 0. 0.
      0. 0. 0. 0. 0. 0. 0. 0. 23.2784214 12.3352633 8.91315746
      28.4863167 61.5926323 25.487896 37.5721054 80.5047379 22.5457897
      42.5168419 84.7915802 22.0726318 49.2952614 64.3205261 23.8784199
      0. 0. 0. 0. 0. 0. 0. 0. 0. 0. 0. 0. 0. 0. 0. 23.7378941 12.3742104
      9.12105274 29.0900002 59.0368423 24.1531582 37.7405243 80.1436844
      21.4942112 42.5347366 84.9336853 21.4263153 49.9547348 64.6805267
      23.3626328 0. 0. 0. 0. 0. 0. 0. 0. 0. 0. 0. 0. 0. 0. 0. 24.1110516
      11.8542109 7.31210518 29.9505253 59.0968437 24.5321045 39.8152618
      78.2436829 20.9736843 44.8631592 82.2936859 20.3763161 50.0600014
      62.3131599 21.8878956 0. 0. 0. 0. 0. 0. 0. 0. 0. 0. 0. 0. 0. 0. 0.
      23.1184216 11.5221052 9.06263161 28.3815784 58.671051 24.8315792
      36.8115768 79.5473709 23.3821049 42.7189484 83.9705276 22.0957909
      50.8678932 63.1457901 23.5221062 0. 0. 0. 0. 0. 0. 0. 0. 0. 0. 0.
      0. 0. 0. 0. 23.0694733 12.7410526 11.7505264 27.5694733 56.5531578
      23.8500004 33.9305267 76.9094772 24.0763149 40.9110527 84.9289474
      22.0442104 51.5721054 66.2078934 23.424736 0. 0. 0. 0. 0. 0. 0. 0.
      0. 0. 0. 0. 0. 0. 0. 23.2700005 13.4899998 16.0799999 27.3600006
      57.0200005 25.7700005 31.7199993 74.9700012 28.6599998 38.7999992
      86.2699966 25.3999996 49.75 66.7600021 27.4899998 0. 0. 0. 0. 0.
      0. 0. 0. 0. 0. 0. 0. 0. 0. 0.</_>
    <_>
      0. 0. 0. 0. 0. 0. 0. 0. 0. 0. 0. 0. 0. 0. 0. 24.7700005 13.7399998
      13.1099997 28.8299999 57.8499985 24.8600006 37.5400009 79.4199982
      22.1399994 42.5999985 83.0500031 21.7299995 50.2200012 64.4700012
      24.0100002 0. 0. 0. 0. 0. 0. 0. 0. 0. 0. 0. 0. 0. 0. 0. 23.6973686
      11.3652639 7.97368431 29.8536835 59.6010551 24.4710541 38.6863136
      78.0415802 21.0289478 43.8115807 81.9052582 21.2378941 51.2710533
      61.9652634 22.2700005 0. 0. 0. 0. 0. 0. 0. 0. 0. 0. 0. 0. 0. 0. 0.
      24.2163143 12.452632 9.80210495 29.106842 60.2878952 24.7463169
      38.4921036 79.8057861 21.5031586 43.4636841 82.7584229 21.6189461
      49.7773705 64.3273621 23.9773674 0. 0. 0. 0. 0. 0. 0. 0. 0. 0. 0.
      0. 0. 0. 0. 24.3068428 12.8084211 8.6268425 29.4257889 59.2705269
      23.8573685 38.7189484 77.8731613 20.7957897 45.2789459 82.3000031
      20.2494736 51.5021057 64.7831573 22.4963169 0. 0. 0. 0. 0. 0. 0.
      0. 0. 0. 0. 0. 0. 0. 0. 24.5047379 11.6426315 8.02631569
      30.0447369 58.4489479 23.5721054 39.1389465 77.7431564 20.2399998
      44.1447334 82.3515778 20.4968433 50.0536842 61.8905258 22.2984219
      0. 0. 0. 0. 0. 0. 0. 0. 0. 0. 0. 0. 0. 0. 0. 24.5363159 12.5784216
      9.11368465 29.3999996 59.1389465 23.8110523 37.3063164 78.3600006
      21.2678947 42.1489487 83.2299957 20.7552643 49.6921043 64.5257874
      22.3715801 0. 0. 0. 0. 0. 0. 0. 0. 0. 0. 0. 0. 0. 0. 0. 24.7910519
      12.2131586 9.86315823 28.9421062 58.965786 25.3289471 38.2778931
      80.6073685 22.0689487 43.6831589 85.6884232 21.2268429 49.5294724
      67.5510559 23.9684219 0. 0. 0. 0. 0. 0. 0. 0. 0. 0. 0. 0. 0. 0. 0.
      23.7573681 13.0731573 11.3615789 29.5200005 58.7242088 24.3731575
      38.8015823 79.4731598 21.6563148 42.2868423 83.0289459 21.3705254
      47.9810524 62.0957909 22.8747368 0. 0. 0. 0. 0. 0. 0. 0. 0. 0. 0.
      0. 0. 0. 0. 24.4952641 12.8226309 9.64473629 29.571579 57.3189468
      24.2331581 38.587368 77.8515778 21.349474 43.7668419 83.2521057
      20.3315792 50.2068443 63.9315796 22.1394749 0. 0. 0. 0. 0. 0. 0.
      0. 0. 0. 0. 0. 0. 0. 0. 24.8999996 13.0299997 10.0115786
      29.6836853 56.9952621 23.9573689 38.2910538 78.7705231 21.2905254
      43.7552643 84.2410507 20.5536842 50.488945 64.6131592 22.7889481
      0. 0. 0. 0. 0. 0. 0. 0. 0. 0. 0. 0. 0. 0. 0. 24.8952637 11.8136845
      8.15684223 29.916317 57.8505287 23.6089478 39.4115791 78.8089447
      20.4752636 44.9105263 83.76474 20.1199989 51.4726295 65.7710571
      22.5863152 0. 0. 0. 0. 0. 0. 0. 0. 0. 0. 0. 0. 0. 0. 0. 23.9868412
      11.2294731 8.00684261 29.186842 60.3126297 24.9747372 38.0094719
      80.7994766 21.5368423 42.1705246 84.8357849 21.4347382 48.7515793
      66.5557861 23.8978939 0. 0. 0. 0. 0. 0. 0. 0. 0. 0. 0. 0. 0. 0. 0.
      24.0657883 12.4378948 8.62631607 29.345789 59.1857872 24.7889481
      38.7505264 80.7221069 21.9557896 42.8342094 85.7105255 20.9389477
      48.3710518 65.8347397 22.9410534 0. 0. 0. 0. 0. 0. 0. 0. 0. 0. 0.
      0. 0. 0. 0. 23.4936829 11.1636839 7.61631584 29.7000008 60.4726334
      25.0315781 39.6421051 80.0205231 21.4094734 44.7189484 83.2284241
      20.6557903 51.1910515 64.8063202 22.8415775 0. 0. 0. 0. 0. 0. 0.
      0. 0. 0. 0. 0. 0. 0. 0. 23.2784214 12.3352633 8.91315746
      28.4863167 61.5926323 25.487896 37.5721054 80.5047379 22.5457897
      42.5168419 84.7915802 22.0726318 49.2952614 64.3205261 23.8784199
      0. 0. 0. 0. 0. 0. 0. 0. 0. 0. 0. 0. 0. 0. 0. 23.7378941 12.3742104
      9.12105274 29.0900002 59.0368423 24.1531582 37.7405243 80.1436844
      21.4942112 42.5347366 84.9336853 21.4263153 49.9547348 64.6805267
